tree
version=v4
num_class=1
num_tree_per_iteration=1
label_index=0
max_feature_idx=19
objective=regression
feature_names=edc_0 edc_1 edc_2 edc_3 edc_4 edc_5 edc_6 edc_7 edc_8 edc_9 delta_0 delta_1 delta_2 delta_3 delta_4 delta_5 delta_6 delta_7 delta_8 delta_9
feature_infos=[0:178086] [0:178086] [0:178086] [0:178086] [0:178086] [0:178086] [0:178086] [0:178086] [0:178086] [0:178086] [0:inf] [0:inf] [0:inf] [0:inf] [0:inf] [0:inf] [0:inf] [0:inf] [0:inf] [0:inf]
tree_sizes=3014 3127 3134 3122 3148 3141 3129 3115 3132 3141 3146 3120 3116 3142 3129 3137 3152 3142 3151 3132 3159 3151 3132 3156 3126 3135 3167 3173 3175 3145 3158 3145 3167 3149 3159 3144 3158 3121 3158 3123 3132 3150 3197 3147 3157 3136 3181 3186 3178 3148 3173 3142 3147 3162 3142 3200 3152 3193 3153 3094 3132 3158 3123 3142 3139 3149 3098 3128 3154 3132 3163 3111 3128 3135 3167 3154 3101 3100 3143 3167 3163 3136 3064 3146 3176 3062 3149 3046 3049 3057 3217 3084 3141 3081 3046 3036 2994 3069 3082 3034

Tree=0
num_leaves=31
num_cat=0
split_feature=13 10 11 3 0 0 15 14 15 14 0 10 0 14 0 13 11 10 11 0 11 9 11 10 0 19 2 9 10 11
split_gain=1.25155e+07 4.00778e+06 2.79962e+06 2.56137e+06 1.62209e+06 2.41831e+06 978041 745290 392333 383795 613518 335659 331563 246081 245795 289642 237985 233680 229467 152211 151351 147865 119910 109078 94388.4 95311.9 93532.6 88296.4 87431.2 86517.1
threshold=72.500000000000014 177.50000000000003 10.500000000000002 2.9999999999708966 12.275669644254128 3.6445892064854672 4.5000000000000009 1.0000000180025095e-35 2980.5000000000005 3504.5000000000005 1.0000000180025095e-35 11917.500000000002 4.999999999767172 3666.5000000000005 2.0625000000000027 10.500000000000002 37301.000000000007 1.0000000180025095e-35 29.500000000000004 4.0000000000054632 4197.5000000000009 23.500000000000004 1.5000000000000002 1.0000000180025095e-35 10.000000000000004 5.5000000000000009 2.1250000000000147 22.500000000000004 9.5000000000000018 10.500000000000002
decision_type=2 2 2 2 2 2 2 2 2 2 2 2 2 2 2 2 2 2 2 2 2 2 2 2 2 2 2 2 2 2
left_child=4 3 -3 17 5 14 -6 8 -7 -4 -11 -12 19 24 15 16 -1 20 28 23 -2 22 -15 -5 -9 -26 -17 -10 -8 -24
right_child=1 2 9 12 6 7 18 13 27 10 11 -13 -14 21 -16 26 -18 -19 -20 -21 -22 -23 29 -25 25 -27 -28 -29 -30 -31
leaf_value=4.3345825950956112 4.4249446866312212 4.3409068181184489 4.5918067767028496 4.5551774121870183 4.2910850444750945 4.5060217290290625 4.3567937521728926 4.4309912160297928 4.8448971514626891 4.6381090001101368 4.6577123895022412 4.7660454529406593 4.4896894145305328 4.5778319766883362 4.4412074395335353 4.4518425802480195 4.4391249251927611 4.4767250271251218 4.442602120443123 4.654036553041565 4.3573425130233039 4.3987257346822144 4.7872951113264186 4.6281283408029017 4.3112731316798438 4.6477594462331746 4.624453105486694 4.5136040110366809 4.3907530521781295 4.4923078443642179
leaf_weight=267942 141284 74810 178173 155017 374867 12417 340352 52607 38196 492051 110704 201914 83517 85384 185914 29118 68319 87962 153867 96494 199996 9910 12493 76541 2629 10549 10744 2123 427727 3103
leaf_count=267942 141284 74810 178173 155017 374867 12417 340352 52607 38196 492051 110704 201914 83517 85384 185914 29118 68319 87962 153867 96494 199996 9910 12493 76541 2629 10549 10744 2123 427727 3103
internal_value=4.47808 4.57099 4.63576 4.48951 4.39361 4.45002 4.35918 4.58682 4.75177 4.65821 4.67291 4.72768 4.57863 4.53758 4.39418 4.37093 4.35582 4.40406 4.38687 4.60128 4.38533 4.58303 4.60112 4.57929 4.46097 4.58063 4.49837 4.82745 4.3757 4.7286
internal_weight=0 1.89846e+06 1.05765e+06 840811 2.08826e+06 791448 1.29681e+06 229411 52736 982842 804669 312618 411569 176675 562037 376123 336261 429242 921946 328052 341280 110890 100980 231558 65785 13178 39862 40319 768079 15596
internal_count=3986724 1898463 1057652 840811 2088261 791448 1296813 229411 52736 982842 804669 312618 411569 176675 562037 376123 336261 429242 921946 328052 341280 110890 100980 231558 65785 13178 39862 40319 768079 15596
is_linear=0
shrinkage=1


Tree=1
num_leaves=31
num_cat=0
split_feature=13 10 11 3 6 0 3 12 15 14 12 0 12 10 15 13 11 11 10 12 13 14 1 11 11 12 11 11 10 0
split_gain=1.12953e+07 3.61702e+06 2.52666e+06 2.31163e+06 1.46827e+06 773802 1.13253e+06 1.26745e+06 556236 440588 358792 535114 328282 319046 275713 269495 244259 212680 210896 172725 192313 170144 168398 137004 136594 126115 114216 95508.5 89205.1 140371
threshold=72.500000000000014 177.50000000000003 10.500000000000002 2.9999999999708966 9413.0000000000018 2.1282046411669184 11.352239241523087 10.500000000000002 4.5000000000000009 1.0000000180025095e-35 1994.5000000000002 1.0000000180025095e-35 19.500000000000004 12325.500000000002 2622.5000000000005 10.500000000000002 14.500000000000002 37301.000000000007 1.0000000180025095e-35 1.5000000000000002 2787.5000000000005 3.5000000000000004 9.4139826402013131 101.50000000000001 4197.5000000000009 1.5000000000000002 420.50000000000006 1.0000000180025095e-35 50952.000000000007 1.0000000000000011
decision_type=2 2 2 2 2 2 2 2 2 2 2 2 2 2 2 2 2 2 2 2 2 2 2 2 2 2 2 2 2 2
left_child=4 3 -3 18 5 15 7 9 -6 14 -4 -12 19 -13 -7 17 -8 -1 24 -5 -21 -11 -9 -15 -2 -23 -14 -16 29 -25
right_child=1 2 10 12 8 6 16 22 -10 21 11 13 26 23 27 -17 -18 -19 -20 20 -22 25 -24 28 -26 -27 -28 -29 -30 -31
leaf_value=-0.13570267305272299 -0.050474873437355849 -0.13031083094023527 0.10461611405425791 0.10124574250192429 -0.18165502818087789 0.02958632399810986 -0.12185133537196453 -0.039138774280159605 -0.099630403268474166 -0.13527407594512519 0.1520312253376056 0.17085485429634167 -0.0087414785941213567 0.012938554580486126 0.35114033088304109 0.020884339731516301 -0.041389696991077501 -0.037003639401154469 -0.0012835338787044856 -0.035637054716285303 0.22085517861968229 0.090776152666489779 0.17972776298720927 0.12244605515564147 -0.11469693888056298 0.24349215541627678 0.1156150438356171 0.022628165058325381 0.3172819689064269 0.27510064649511978
leaf_weight=271427 141284 74810 168103 235965 311425 9261 162427 221329 614545 7353 492051 121375 81531 4922 38068 40308 224954 68319 87962 8286 61917 91481 9152 18087 199996 15863 23870 2349 88351 89953
leaf_count=271427 141284 74810 168103 235965 311425 9261 162427 221329 614545 7353 492051 121375 81531 4922 38068 40308 224954 68319 87962 8286 61917 91481 9152 18087 199996 15863 23870 2349 88351 89953
internal_value=0 0.0882676 0.149803 0.010863 -0.0802451 -0.0428236 -0.0143868 0.0452034 -0.127217 0.151279 0.171124 0.184846 0.0955293 0.234884 0.275663 -0.101353 -0.0751269 -0.115855 -0.0703173 0.12173 0.190582 0.0974057 -0.030448 0.273488 -0.0881101 0.113344 0.0194213 0.332047 0.280018 0.249545
internal_weight=0 1.89846e+06 1.05765e+06 840811 2.08826e+06 1.16229e+06 782237 394856 925970 164375 982842 814739 411569 322688 49678 380054 387381 339746 429242 306168 70203 114697 230481 201313 341280 107344 105401 40417 196391 108040
internal_count=3986724 1898463 1057652 840811 2088261 1162291 782237 394856 925970 164375 982842 814739 411569 322688 49678 380054 387381 339746 429242 306168 70203 114697 230481 201313 341280 107344 105401 40417 196391 108040
is_linear=0
shrinkage=0.05


Tree=2
num_leaves=31
num_cat=0
split_feature=19 10 3 10 11 0 15 11 0 0 2 14 0 9 8 14 11 10 7 10 14 10 0 10 10 11 0 1 4 11
split_gain=8.44752e+06 3.17005e+06 1.72726e+06 1.20612e+06 3.43752e+06 1.00352e+06 708687 694937 603495 379294 687683 673019 327949 346151 262594 226989 219220 171680 170632 148404 143509 125693 120663 114170 123540 116823 113101 110095 107640 107437
threshold=55.500000000000007 49252.500000000007 2.7812501142034312 10.500000000000002 20.500000000000004 12.275669644254128 4.5000000000000009 11.500000000000002 1.0000000180025095e-35 19.000001907348636 4.0000000000000036 10.500000000000002 3.0625000000045479 23.500000000000004 5.2500000000000009 20.500000000000004 1.5000000000000002 14.500000000000002 1.5625000000000002 1.0000000180025095e-35 1.0000000180025095e-35 14.500000000000002 2.0000000000582112 1.0000000180025095e-35 1.5000000000000002 78136.000000000015 4.999999999767172 6.0629310607910236 9.650064945220949 1.0000000180025095e-35
decision_type=2 2 2 2 2 2 2 2 2 2 2 2 2 2 2 2 2 2 2 2 2 2 2 2 2 2 2 2 2 2
left_child=5 2 3 22 -5 12 -7 -3 -9 10 11 -4 28 -14 20 -6 17 -13 -17 -18 26 -8 23 25 -25 -2 -12 -16 -1 -30
right_child=1 7 9 4 15 6 21 8 -10 -11 14 16 13 -15 27 18 19 -19 -20 -21 -22 -23 -24 24 -26 -27 -28 -29 29 -31
leaf_value=-0.072935791082993959 -0.050752271448182722 -0.077664256725028427 -0.054063052106332346 -0.13639089011352867 -0.079834210462940924 -0.16915158261663077 -0.1029480393093557 0.14442967680967625 0.27856976444648252 -0.001803314858969974 0.14708767257599151 0.056663379009318927 0.12136005486966549 -0.039770854798414468 0.1401779308565296 0.10924589745515155 -0.040506070511294963 -0.15950614522601447 0.23156601438461522 0.14313508237570621 0.088794543101047785 -0.064354001815457487 -0.13831617366522833 0.12976966037521576 -0.039139659740290073 -0.10735212345802576 0.35187932426164903 0.076956878159421899 -0.14456786565762644 0.080527451669752656
leaf_weight=149870 187783 30441 128423 140759 7254 372238 499115 492051 101072 155366 9173 183425 72899 61408 207886 36146 12016 9669 134968 130287 10795 365421 66186 12702 73270 177192 25438 102972 6831 23668
leaf_count=149870 187783 30441 128423 140759 7254 372238 499115 492051 101072 155366 9173 183425 72899 61408 207886 36146 12016 9669 134968 130287 10795 365421 66186 12702 73270 177192 25438 102972 6831 23668
internal_value=0 0.0580927 0.024625 -0.0281024 0.0483364 -0.0911867 -0.111471 0.15533 0.167288 0.0698286 0.0833994 0.0432715 -0.0114649 0.0476876 0.135642 0.194114 0.0805408 0.0458389 0.205727 0.127629 0.24796 -0.0866352 -0.0752734 -0.0660206 -0.014184 -0.078231 0.297603 0.119236 -0.0555112 0.0301118
internal_weight=0 2.43527e+06 1.81171e+06 836260 319127 1.55145e+06 1.23677e+06 623564 593123 975450 820084 463820 314676 134307 356264 178368 335397 193094 171114 142303 45406 864536 517133 450947 85972 364975 34611 310858 180369 30499
internal_count=3986724 2435274 1811710 836260 319127 1551450 1236774 623564 593123 975450 820084 463820 314676 134307 356264 178368 335397 193094 171114 142303 45406 864536 517133 450947 85972 364975 34611 310858 180369 30499
is_linear=0
shrinkage=0.05


Tree=3
num_leaves=31
num_cat=0
split_feature=13 10 11 3 8 0 3 12 14 12 12 0 11 10 12 13 11 11 10 12 14 1 13 13 11 11 12 11 0 2
split_gain=9.27815e+06 2.92538e+06 2.07606e+06 1.93169e+06 1.2073e+06 633105 922806 996430 313231 304046 291947 441429 284577 266970 266363 219252 214168 182408 171689 160054 151747 144398 143576 130226 120311 112796 101538 96338.1 84352.1 78984.9
threshold=82.500000000000014 177.50000000000003 8.5000000000000018 2.9999999999708966 9964.5000000000018 2.0625000000000027 11.352239241523087 12.500000000000002 1.0000000180025095e-35 4.5000000000000009 1882.0000000000002 1.0000000180025095e-35 1.0000000180025095e-35 11917.500000000002 19.500000000000004 10.500000000000002 14.500000000000002 37301.000000000007 1.0000000180025095e-35 1.5000000000000002 3.5000000000000004 9.4139826402013131 2787.5000000000005 4.5000000000000009 101.50000000000001 4197.5000000000009 1.5000000000000002 420.50000000000006 6.0312500000006839 2.1250000000000147
decision_type=2 2 2 2 2 2 2 2 2 2 2 2 2 2 2 2 2 2 2 2 2 2 2 2 2 2 2 2 2 2
left_child=4 3 -3 18 5 15 7 8 12 -6 -4 -12 28 -13 19 17 -8 -1 25 -5 -10 -9 -21 -11 -15 -2 -22 -16 -7 -17
right_child=1 2 10 14 9 6 16 21 20 23 11 13 -14 24 27 29 -18 -19 -20 22 26 -23 -24 -25 -26 -27 -28 -29 -30 -31
leaf_value=-0.12451237589934486 -0.045413506100836089 -0.12052443704706162 0.094164875176775978 0.092281619445517146 -0.15603712913566506 0.3122356009100351 -0.10995556258331798 -0.035555461759375649 -0.13028423514646029 -0.13384492643776788 0.13720818194663384 0.15357309909871594 -0.037955806015711434 0.010468055940743697 -0.0086053795421993425 -0.025793799317903422 -0.036496033697968937 -0.032987402767850137 -0.001269874738735975 -0.031063607480363964 0.081252624223241532 0.16704362176860718 0.20348723805695751 -0.081111190872939595 0.25351068791025244 -0.1037735859461798 0.21483039394955539 0.10683823821404655 0.10828806407753154 0.13054100372427066
leaf_weight=267942 141284 73587 165032 235510 308890 37935 169700 221775 7522 159049 492051 121287 8081 5226 77588 29392 238898 68319 87955 7293 91906 9158 61917 443607 198440 199995 16832 23559 5852 11142
leaf_count=267942 141284 73587 165032 235510 308890 37935 169700 221775 7522 159049 492051 121287 8081 5226 77588 29392 238898 68319 87955 7293 91906 9158 61917 443607 198440 199995 16832 23559 5852 11142
internal_value=0 0.0803108 0.135628 0.0103859 -0.0724454 -0.0391556 -0.0141874 0.039893 0.13249 -0.115702 0.154823 0.167075 0.234666 0.212301 0.088589 -0.0926748 -0.0670054 -0.105917 -0.06356 0.111926 0.0869055 -0.0275211 0.178771 -0.0950283 0.247274 -0.0796135 0.10193 0.0182836 0.284979 0.0171796
internal_weight=0 1.89072e+06 1.05562e+06 835101 2.096e+06 1.18445e+06 807659 399061 168128 911546 982036 817004 51868 324953 405867 376795 408598 336261 429234 304720 116260 230933 69210 602656 203666 341279 108738 101147 43787 40534
internal_count=3986724 1890724 1055623 835101 2096000 1184454 807659 399061 168128 911546 982036 817004 51868 324953 405867 376795 408598 336261 429234 304720 116260 230933 69210 602656 203666 341279 108738 101147 43787 40534
is_linear=0
shrinkage=0.05


Tree=4
num_leaves=31
num_cat=0
split_feature=13 10 11 3 0 0 15 12 14 15 14 7 12 10 12 10 11 13 12 11 19 11 11 13 2 10 3 13 14 11
split_gain=8.3741e+06 2.65035e+06 1.87118e+06 1.72468e+06 1.0822e+06 1.23751e+06 647064 610663 379710 270967 270725 405302 251223 242263 186277 155029 147653 136308 183507 135647 121436 101798 87830.5 87455 78572.6 77041.4 78346.3 74193.6 106741 72992.5
threshold=72.500000000000014 177.50000000000003 10.500000000000002 2.9999999999708966 355.02052620820189 3.000030517578129 4.5000000000000009 1.0000000180025095e-35 1.0000000180025095e-35 2622.5000000000005 2489.5000000000005 1.0000000180025095e-35 19.500000000000004 12325.500000000002 10.500000000000002 1.0000000180025095e-35 37301.000000000007 576.50000000000011 1.5000000000000002 29.500000000000004 109.50000000000001 4197.5000000000009 420.50000000000006 20.500000000000004 4.0002443813718864 219133.00000000003 1.0000000000000009 1.5000000000000002 5017.5000000000009 10531.000000000002
decision_type=2 2 2 2 2 2 2 2 2 2 2 2 2 2 2 2 2 2 2 2 2 2 2 2 2 2 2 2 2 2
left_child=4 3 -3 15 5 14 -6 8 9 -7 -4 -12 17 -13 16 21 -1 -5 24 -8 -9 -2 -14 -16 -19 26 -15 -22 -29 -28
right_child=1 2 10 12 6 7 19 20 -10 -11 11 13 22 25 23 -17 -18 18 -20 -21 27 -23 -24 -25 -26 -27 29 28 -30 -31
leaf_value=-0.11658754513784059 -0.04314283475761635 -0.11238084330084008 0.089140316429133115 -0.031945556961450433 -0.15601298316984002 0.016374530989216669 -0.084448667965973112 -0.040820971954862034 0.068117100091201116 0.30065810755320266 0.13034777072419895 0.14672396786967032 -0.008400983748884823 0.15927504369115014 -0.045756164174689529 -0.0011896025915546467 -0.031615190306929712 0.066726785956284715 0.18891429559148121 -0.030046648813589694 -0.01450955179561645 -0.098584809685471619 0.10064944931063319 0.09530983716319083 0.1262077243041993 0.33563433657860936 0.15657420220541268 0.036100694880041362 0.21819802179033446 0.2566376084344057
leaf_weight=244688 141284 74810 167563 16966 355481 10697 740377 118210 94517 38733 492051 121727 81531 35102 201097 87962 64627 126975 63566 135563 32713 199996 23870 11622 98661 17718 21267 28762 11174 127414
leaf_count=244688 141284 74810 167563 16966 355481 10697 740377 118210 94517 38733 492051 121727 81531 35102 201097 87962 64627 126975 63566 135563 32713 199996 23870 11622 98661 17718 21267 28762 11174 127414
internal_value=0 0.0760015 0.128676 0.00974287 -0.0690939 -0.0259434 -0.0991186 0.0490886 0.126844 0.239137 0.147024 0.158921 0.0828744 0.202417 -0.0740651 -0.0603776 -0.0988338 0.105795 0.113875 -0.0760293 -0.00955483 -0.0756328 0.0162955 -0.038049 0.0927353 0.236062 0.226463 0.0413195 0.0870511 0.242325
internal_weight=0 1.89846e+06 1.05765e+06 840811 2.08826e+06 856840 1.23142e+06 334806 143947 49430 982842 815279 411569 323228 522034 429242 309315 306168 289202 875940 190859 341280 105401 212719 225636 201501 183783 72649 39936 148681
internal_count=3986724 1898463 1057652 840811 2088261 856840 1231421 334806 143947 49430 982842 815279 411569 323228 522034 429242 309315 306168 289202 875940 190859 341280 105401 212719 225636 201501 183783 72649 39936 148681
is_linear=0
shrinkage=0.05


Tree=5
num_leaves=31
num_cat=0
split_feature=13 10 11 3 4 1 2 1 14 15 12 1 15 10 12 11 14 11 10 12 13 13 10 10 11 6 3 11 12 18
split_gain=7.55778e+06 2.38396e+06 1.68908e+06 1.57443e+06 991751 503005 681551 630881 435528 371667 256450 358869 242072 227263 221008 183852 157088 139913 135576 131370 117724 110214 109690 137867 91873.2 90897.3 179341 78111.8 74742.9 72836.7
threshold=82.500000000000014 146.50000000000003 8.5000000000000018 2.9999999999708966 10094.500000000002 2.0312500000000013 12.000491261482997 3.9999999999981828 1.0000000180025095e-35 4.5000000000000009 1800.5000000000002 1.0000000180025095e-35 2622.5000000000005 50952.000000000007 19.500000000000004 8.5000000000000018 2701.5000000000005 37301.000000000007 1.0000000180025095e-35 1.5000000000000002 2787.5000000000005 10.500000000000002 13.500000000000002 1.5000000000000002 4197.5000000000009 1.7578125000000002 1.98437526822088 479.50000000000006 30.500000000000004 26.500000000000004
decision_type=2 2 2 2 2 2 2 2 2 2 2 2 2 2 2 2 2 2 2 2 2 2 2 2 2 2 2 2 2 2
left_child=4 3 -3 18 5 17 7 -7 12 -6 28 -12 -9 25 19 -8 -10 21 24 -5 -21 -1 23 -18 -2 -13 -27 -16 -4 -17
right_child=1 2 10 14 9 6 15 8 16 -11 11 13 -14 -15 27 29 22 -19 -20 20 -22 -23 -24 -25 -26 26 -28 -29 -30 -31
leaf_value=-0.11433792846105389 -0.040985691579857493 -0.10882188743136585 -0.017550420273093541 0.083337580614125939 -0.14925482218657526 -0.033730896078110938 -0.11634243415319884 0.023146473506957643 -0.017124589904329197 -0.081744677284594572 0.12383039471954856 0.086894461069797146 0.26982967930639551 0.25898936382367449 -0.0092231214793157597 -0.063060545837785906 0.076264980137169203 -0.028101454680483209 -0.0020648537402119162 -0.030990502839626038 0.18393147997724293 -0.00040466201550308782 -0.062757708379997751 0.24732884764880111 -0.093655664474433312 0.24022502987245953 0.14309756614221522 0.10025840301395916 0.093993538802966625 -0.013371368136805686
leaf_weight=238622 141284 73669 16689 235468 309093 211144 110290 13127 60845 598879 492051 31681 41027 90050 75819 164517 87727 78497 87424 7103 61873 23299 11652 13605 199995 73996 132860 20751 150011 133676
leaf_count=238622 141284 73669 16689 235468 309093 211144 110290 13127 60845 598879 492051 31681 41027 90050 75819 164517 87727 78497 87424 7103 61873 23299 11652 13605 199995 73996 132860 20751 150011 133676
internal_value=0 0.0724837 0.122133 0.0089946 -0.0653849 -0.0353173 -0.0146991 0.0285436 0.0862185 -0.104727 0.139365 0.15085 0.210033 0.191312 0.0802086 -0.0611858 0.0476457 -0.0866548 -0.0576199 0.101114 0.161799 -0.104203 0.0825263 0.0992323 -0.0718511 0.165763 0.177842 0.0143023 0.0828264 -0.0407855
internal_weight=0 1.89072e+06 1.06101e+06 829717 2.096e+06 1.18803e+06 847610 439127 227983 907972 987338 820638 54154 328587 401014 408483 173829 340418 428703 304444 68976 261921 112984 101332 341279 238537 206856 96570 166700 298193
internal_count=3986724 1890724 1061007 829717 2096000 1188028 847610 439127 227983 907972 987338 820638 54154 328587 401014 408483 173829 340418 428703 304444 68976 261921 112984 101332 341279 238537 206856 96570 166700 298193
is_linear=0
shrinkage=0.05


Tree=6
num_leaves=31
num_cat=0
split_feature=19 10 3 0 10 11 10 15 0 1 11 0 0 12 0 9 4 12 0 2 12 0 11 0 10 12 1 11 3 10
split_gain=5.68501e+06 2.1369e+06 1.16425e+06 660266 613319 1.69791e+06 625092 484836 481726 442350 440676 449876 367110 244315 219092 234663 200579 178410 169851 198312 156661 147834 130083 121103 98243.3 94564 116062 92920.1 91342.6 90162.2
threshold=51.500000000000007 49252.500000000007 3.750000000017089 12.275669644254128 1.0000000180025095e-35 20.500000000000004 10.500000000000002 4.5000000000000009 12.275669644254128 2.3125026226066447 22.500000000000004 1.0000000180025095e-35 2.0001220777635429 10.500000000000002 3.0019531250000298 23.500000000000004 3.0312500000291043 6.5000000000000009 4.0000000000000044 6.5009958157315868 1.5000000000000002 2.1282046411669184 1.0000000180025095e-35 1.0000000000000011 4.5000000000000009 10.500000000000002 9.4139826402013131 4197.5000000000009 1.98437526822088 14.500000000000002
decision_type=2 2 2 2 2 2 2 2 2 2 2 2 2 2 2 2 2 2 2 2 2 2 2 2 2 2 2 2 2 2
left_child=3 2 4 14 9 12 24 -5 18 27 -3 -12 -6 -8 -1 25 -14 -11 20 -20 21 -4 -22 -15 -7 26 -16 -2 -25 -9
right_child=1 10 8 7 5 6 13 29 -10 17 11 -13 16 23 15 -17 -18 -19 19 -21 22 -23 -24 28 -26 -27 -28 -29 -30 -31
leaf_value=-0.04801900132616229 -0.038943745502304228 -0.051579712544030182 -0.099887819757491225 -0.13932887627164423 -0.10431735145378235 0.043061056291017592 -0.094513100599383365 -0.084737347657391202 -0.00049965222342683807 0.06431637756876013 0.11763886741383811 0.23450652233343711 0.12971992442742028 0.084258210401172762 0.13768260322412448 -0.036886747246866809 -0.070390268803646475 -0.034303383775416918 0.16053888290832585 0.06138841040753952 -0.0071057517835516164 0.051364503108757391 0.11208625208764855 0.22446351518630747 -0.069855583872570487 -0.015960894455042569 -0.15331992387377838 -0.088348394371443206 0.14977057386575449 -0.051856236251261234
leaf_weight=173392 141310 32621 21235 372172 181992 40243 9340 498298 172393 102249 492051 98897 30212 36146 59166 61821 21387 83156 154248 74929 26581 67532 164901 78179 36950 15816 3637 291500 85910 358460
leaf_count=173392 141310 32621 21235 372172 181992 40243 9340 498298 172393 102249 492051 98897 30212 36146 59166 61821 21387 83156 154248 74929 26581 67532 164901 78179 36950 15816 3637 291500 85910 358460
internal_value=0 0.0474384 0.0200747 -0.0751494 -0.0108684 0.0291308 0.110646 -0.0916791 0.0717468 -0.0445362 0.127321 0.137197 -0.0709414 0.155448 -0.0104209 0.0359989 0.0467773 0.0200844 0.0961954 0.128122 0.0700873 0.0151817 0.0955403 0.167107 -0.0109888 0.0933116 0.12083 -0.0722181 0.185357 -0.0709802
internal_weight=0 2.44396e+06 1.82039e+06 1.54276e+06 1.13857e+06 520359 286768 1.22893e+06 681819 618215 623569 590948 233591 209575 313832 140440 51599 185405 509426 229177 280249 88767 191482 200235 77193 78619 62803 432810 164089 856758
internal_count=3986724 2443962 1820393 1542762 1138574 520359 286768 1228930 681819 618215 623569 590948 233591 209575 313832 140440 51599 185405 509426 229177 280249 88767 191482 200235 77193 78619 62803 432810 164089 856758
is_linear=0
shrinkage=0.05


Tree=7
num_leaves=31
num_cat=0
split_feature=13 10 3 2 14 0 3 0 14 15 15 0 13 15 1 9 4 5 14 10 0 0 9 14 0 10 10 2 10 10
split_gain=6.18785e+06 1.94515e+06 1.26695e+06 803040 458200 433609 639520 463002 408398 299341 171054 170757 155855 152922 138251 206685 278164 170501 128599 117200 108083 95384.2 87734.7 84685.9 74419.8 151102 69536.1 67269.4 64210 74532.4
threshold=72.500000000000014 160.50000000000003 2.9999999999708966 10179.500000000002 20.500000000000004 2.0625000000000027 11.352239241523087 3.6445892064854672 1.0000000180025095e-35 4.5000000000000009 1868.0000000000002 4.999999999767172 10.500000000000002 5.5000000000000009 4.2816009522075555 3.5000000000000004 1.1875000004656615 3.7504882812500004 897.50000000000011 1.0000000180025095e-35 10.000000000000004 4.0000000000054632 27.500000000000004 84135.500000000015 1.0000000180025095e-35 219133.00000000003 28518.500000000004 2.1250000000000147 1.5000000000000002 10.500000000000002
decision_type=2 2 2 2 2 2 2 2 2 2 2 2 2 2 2 2 2 2 2 2 2 2 2 2 2 2 2 2 2 2
left_child=3 2 19 5 -3 12 7 -7 10 -5 -9 21 -1 -8 15 16 24 -17 20 -2 -10 -4 23 -20 -6 -26 -18 -14 -21 -30
right_child=1 4 11 9 14 6 13 8 18 -11 -12 -13 27 -15 -16 17 26 -19 22 28 -22 -23 -24 -25 25 -27 -28 -29 29 -31
leaf_value=-0.087850318892224735 -0.064882328724334581 -0.061126128707147676 0.070071747416196414 -0.13492442799605053 0.11175693701234124 -0.025373894755285599 -0.11358933274251509 0.023806152032789692 -0.05092888580978993 -0.074187407542046599 0.25401103335032088 0.0066917403664019676 -0.022742269201860597 -0.03950985037024822 0.063781066512126394 0.22034440289875554 0.052733818319615614 0.13305052984012386 0.14166775985626048 0.11216492897079751 0.13305758217112268 0.12929811067461028 -0.077182415124040837 0.049890953406141081 0.1309194383595827 0.29810955345613421 -0.049553542936599755 0.12364200074105013 -0.038008193624006009 0.096112752206813631
leaf_weight=336261 341280 37591 230860 308594 492051 182155 88730 10100 44648 592075 40138 81666 29118 324228 110443 82328 44855 174498 43435 11124 9720 96354 8655 59660 75976 16438 26391 10744 64259 12349
leaf_count=336261 341280 37591 230860 308594 492051 182155 88730 10100 44648 592075 40138 81666 29118 324228 110443 82328 44855 174498 43435 11124 9720 96354 8655 59660 75976 16438 26391 10744 64259 12349
internal_value=0 0.0653316 0.00839112 -0.0593937 0.110317 -0.0323918 -0.0118227 0.0333622 0.0828135 -0.0949976 0.20773 0.0713697 -0.0767686 -0.0554269 0.116617 0.123011 0.108119 0.161033 0.0450359 -0.0516321 -0.0180355 0.087512 0.075721 0.0885575 0.119489 0.160658 0.0148445 0.0167127 -8.83311e-05 -0.0163883
internal_weight=0 1.89846e+06 837892 2.08826e+06 1.06057e+06 1.18759e+06 811469 398511 216356 900669 50238 408880 376123 412958 1.02298e+06 912537 655711 256826 166118 429012 54368 327214 111750 103095 584465 92414 71246 39862 87732 76608
internal_count=3986724 1898463 837892 2088261 1060571 1187592 811469 398511 216356 900669 50238 408880 376123 412958 1022980 912537 655711 256826 166118 429012 54368 327214 111750 103095 584465 92414 71246 39862 87732 76608
is_linear=0
shrinkage=0.05


Tree=8
num_leaves=31
num_cat=0
split_feature=13 10 11 0 19 10 1 12 2 15 19 0 0 11 0 10 12 12 11 14 12 13 11 14 12 10 0 11 10 13
split_gain=5.58473e+06 1.80357e+06 994807 890729 743343 428190 420792 412100 269591 297559 227738 421439 189483 292242 181413 162714 156964 180991 151868 129562 109461 100743 97426 91824.7 120362 89085 123320 88740.4 82945.1 76421.5
threshold=100.50000000000001 1.0000000180025095e-35 1.5000000000000002 2.1282046411669184 19.500000000000004 1606.0000000000002 2.0312500000000013 1.0000000180025095e-35 9.3553058309710639 1.0000000180025095e-35 5662.5000000000009 4.0000000000000044 1.0000000180025095e-35 6844.5000000000009 5.0000000000000044 10.500000000000002 18.500000000000004 1.0000000180025095e-35 20.500000000000004 1.0000000180025095e-35 4.5000000000000009 4889.5000000000009 37751.000000000007 87.500000000000014 10.500000000000002 50952.000000000007 1.0000000000000011 19.500000000000004 10.500000000000002 10.500000000000002
decision_type=2 2 2 2 2 2 2 2 2 2 2 2 2 2 2 2 2 2 2 2 2 2 2 2 2 2 2 2 2 2
left_child=4 3 15 -2 8 16 22 10 14 -10 -8 -12 -7 27 -1 -3 17 -4 -18 -13 -5 -19 29 -9 -25 26 -15 -14 -16 -6
right_child=1 2 5 20 6 12 7 23 9 -11 11 19 13 25 28 -17 18 21 -20 -21 -22 -23 -24 24 -26 -27 -28 -29 -30 -31
leaf_value=-0.049591095636372665 -0.061189656372438173 0.073166639082454396 -0.082799215392651032 0.074027562880258135 -0.10156130532424193 0.10616907488962193 -0.061865403740089156 -0.032404346097272843 -0.13812438456230747 -0.076290439816322941 0.0090992640805290081 0.25382791488436246 -0.018272761613808627 0.066967684925214641 0.13002448558838606 -0.1082076039003866 -0.044112911634812665 -0.0087507279976119113 0.059525649067740431 0.10558606230253334 -0.055489168136990064 0.17702009311536576 -0.020287186875060648 0.165225105099394 -0.00096488199360075008 0.22728493926465038 0.18573964895692607 0.1088624127118564 -0.062079092688390569 0.0044701508960798874
leaf_weight=130878 347946 15227 9180 219852 194774 492051 27224 461740 269302 701052 64934 35535 15649 26969 23796 65803 41218 8334 248205 25186 17621 58706 60200 12841 71885 87725 115247 111670 7356 18618
leaf_count=130878 347946 15227 9180 219852 194774 492051 27224 461740 269302 701052 64934 35535 15649 26969 23796 65803 41218 8334 248205 25186 17621 58706 60200 12841 71885 87725 115247 111670 7356 18618
internal_value=0 0.062601 0.0955035 -0.0102377 -0.0559429 0.106817 -0.0238905 -0.00332367 -0.083482 -0.0934512 0.0692423 0.0976477 0.126293 0.154009 -0.0237794 -0.0741241 0.0615776 0.125415 0.044766 0.19234 0.0644171 0.153926 -0.0764626 -0.0236247 0.0242227 0.187659 0.163216 0.093236 0.0846626 -0.0923103
internal_weight=0 1.8814e+06 1.29598e+06 585419 2.10532e+06 1.21495e+06 972937 699345 1.13238e+06 970354 152879 125655 849311 357260 162030 81030 365643 76220 289423 60721 237473 67040 273592 546466 84726 229941 142216 127319 31152 213392
internal_count=3986724 1881403 1295984 585419 2105321 1214954 972937 699345 1132384 970354 152879 125655 849311 357260 162030 81030 365643 76220 289423 60721 237473 67040 273592 546466 84726 229941 142216 127319 31152 213392
is_linear=0
shrinkage=0.05


Tree=9
num_leaves=31
num_cat=0
split_feature=13 10 11 3 0 0 19 15 0 14 0 12 14 10 12 11 14 13 12 10 10 13 12 11 16 11 14 10 2 12
split_gain=5.04341e+06 1.61057e+06 1.19023e+06 1.01785e+06 667622 748430 394446 380027 194828 185871 265235 177360 175389 147408 117778 110798 108128 100393 129654 93760.2 89162 87343.7 68044.6 66432.6 64037 58413.2 66148.9 60074.7 57261 56480.7
threshold=65.500000000000014 160.50000000000003 8.5000000000000018 2.9999999999708966 537.7987105667446 3.000030517578129 4292.5000000000009 4.5000000000000009 4.999999999767172 2489.5000000000005 1.0000000180025095e-35 18.500000000000004 1.0000000180025095e-35 12325.500000000002 10.500000000000002 37301.000000000007 4.5000000000000009 510.50000000000006 1.5000000000000002 10.500000000000002 14.500000000000002 1.0000000180025095e-35 122312.50000000001 479.50000000000006 1.0000000180025095e-35 20.500000000000004 20.500000000000004 4.5000000000000009 4.0000038372818389 117.50000000000001
decision_type=2 2 2 2 2 2 2 2 2 2 2 2 2 2 2 2 2 2 2 2 2 2 2 2 2 2 2 2 2 2
left_child=4 3 -3 19 5 14 24 -6 -8 29 -11 17 21 -12 15 -1 -14 -5 28 -2 -9 -10 25 -13 -7 27 -27 -16 -19 -4
right_child=1 2 9 11 7 6 8 20 12 10 13 23 16 -15 22 -17 -18 18 -20 -21 -22 -23 -24 -25 -26 26 -28 -29 -30 -31
leaf_value=-0.093392307009037001 -0.050942075632940648 -0.094242196802763786 -0.0032802001118165435 -0.035224396806828831 -0.12160842769087842 0.042720551304608619 0.036099785514869143 -0.074383687368092699 0.24521593877684916 0.10086063578555891 0.11584424883154282 -0.0096953302151802836 -0.12513028479668528 0.18531390478481699 -0.024503368455505974 -0.019782670480988328 0.10807839858021571 0.048237862594713236 0.15253033384655224 0.08881895406057469 -0.041868694454948632 -0.061179072319577435 0.11235745724109281 0.086624761308732035 -0.030949721662994197 -0.048786517118216743 0.089461738719351855 -0.08617118412964167 0.09866991862000557 0.078523168542724717
leaf_weight=244671 416671 73682 24633 17152 353547 37361 81779 475626 35114 492051 122714 91341 5617 202157 106360 64624 43175 121588 63300 12356 378724 2491 8115 22265 140150 16476 18222 62817 104794 147151
leaf_count=244671 416671 73682 24633 17152 353547 37361 81779 475626 35114 492051 122714 91341 5617 202157 106360 64624 43175 121588 63300 12356 378724 2491 8115 22265 140150 16476 18222 62817 104794 147151
internal_value=0 0.0585857 0.0996216 0.00726413 -0.0539829 -0.0205054 0.0365424 -0.0780114 0.0914146 0.114069 0.12401 0.0625518 0.143773 0.159073 -0.0583364 -0.0780123 0.0812311 0.0823121 0.0892714 -0.046917 -0.0599701 0.22492 -0.029629 0.0091819 -0.0154442 -0.0352806 0.0238159 -0.0474012 0.0715833 0.066793
internal_weight=0 1.91186e+06 1.06239e+06 849467 2.07487e+06 866972 345687 1.2079e+06 168176 988706 816922 420440 86397 324871 521285 309295 48792 306834 289682 429027 854350 37605 211990 113606 177511 203875 34698 169177 226382 171784
internal_count=3986724 1911855 1062388 849467 2074869 866972 345687 1207897 168176 988706 816922 420440 86397 324871 521285 309295 48792 306834 289682 429027 854350 37605 211990 113606 177511 203875 34698 169177 226382 171784
is_linear=0
shrinkage=0.05


Tree=10
num_leaves=31
num_cat=0
split_feature=13 10 11 3 0 0 15 12 14 6 12 6 10 15 12 11 10 12 12 11 0 3 13 11 12 14 12 12 12 10
split_gain=4.55327e+06 1.51406e+06 1.07333e+06 852802 640713 816391 329733 260903 244959 224374 171695 256524 132015 130585 108222 99925.7 89008.4 80290.8 124686 81119 78237.5 107989 75493.5 75017.9 63751.7 61038.2 193199 60579.6 59646.9 57597.9
threshold=55.500000000000007 177.50000000000003 8.5000000000000018 2.9999999999708966 55.127227375611788 3.0002441406256257 3.5000000000000004 1.0000000180025095e-35 1.0000000180025095e-35 88.062500000000014 2971.5000000000005 1.0000000180025095e-35 50952.000000000007 2622.5000000000005 10.500000000000002 37301.000000000007 1.0000000180025095e-35 19.500000000000004 1.5000000000000002 20.500000000000004 1.0000000000000011 1.98437526822088 8.5000000000000018 4197.5000000000009 30.500000000000004 3666.5000000000005 10.500000000000002 122312.50000000001 3.5000000000000004 1.5000000000000002
decision_type=2 2 2 2 2 2 2 2 2 2 2 2 2 2 2 2 2 2 2 2 2 2 2 2 2 2 2 2 2 2
left_child=4 3 -3 16 5 14 -6 8 13 17 24 -12 20 -7 15 -1 23 18 -5 -19 -13 -22 -8 -2 -4 28 -27 -16 -9 -18
right_child=1 2 10 9 6 7 22 25 -10 -11 11 12 -14 -15 27 -17 29 19 -20 -21 21 -23 -24 -25 -26 26 -28 -29 -30 -31
leaf_value=-0.088729602548885123 -0.028138513325423595 -0.089501733349785881 -0.027487945508359403 0.067775629363864026 -0.11755233867315135 0.022095092999059866 -0.078301524220971891 -0.097300171662032517 0.050945929191270882 -0.0014777765491069761 0.095817605929897132 0.060081453188120575 0.20496724182981843 0.23025981881058255 -0.033338304248534394 -0.01881543302618752 0.10670600451535472 -0.043678144441804539 0.14785314186948337 0.082189729595107244 0.19276009679482614 0.11547456615534823 -0.04794924619158468 -0.075732050113261923 0.074295076620125522 0.19803708586638774 -0.049053493032182087 0.10653566863009384 0.0011023525425124722 -0.015020421717782333
leaf_weight=244643 141284 73690 16920 221277 338815 9354 329369 18481 93802 134607 492051 31480 89701 38718 211502 64604 11124 26395 62297 24854 73373 117708 541957 200002 169514 14494 17418 8035 92368 76887
leaf_count=244643 141284 73690 16920 221277 338815 9354 329369 18481 93802 134607 492051 31480 89701 38718 211502 64604 11124 26395 62297 24854 73373 117708 541957 200002 169514 14494 17418 8035 92368 76887
internal_value=0 0.0542504 0.0945979 0.00646356 -0.0526312 -0.0183146 -0.0756978 0.0499596 0.0979792 0.0530408 0.108291 0.118312 0.153758 0.189754 -0.0550655 -0.074124 -0.044468 0.0749586 0.0853675 0.0173634 0.133119 0.145151 -0.0594227 -0.0560295 0.0650577 0.00223838 0.0631717 -0.028219 -0.0153035 0.000364982
internal_weight=0 1.96316e+06 1.06444e+06 898727 2.02356e+06 813419 1.21014e+06 284635 141874 469430 990747 804313 312262 48072 528784 309247 429297 334823 283574 51249 222561 191081 871326 341286 186434 142761 31912 219537 110849 88011
internal_count=3986724 1963164 1064437 898727 2023560 813419 1210141 284635 141874 469430 990747 804313 312262 48072 528784 309247 429297 334823 283574 51249 222561 191081 871326 341286 186434 142761 31912 219537 110849 88011
is_linear=0
shrinkage=0.05


Tree=11
num_leaves=31
num_cat=0
split_feature=13 10 11 3 0 0 15 19 1 1 0 14 15 10 13 10 10 10 17 14 1 14 3 0 3 6 10 16 3 10
split_gain=4.10932e+06 1.36643e+06 970629 769653 578243 736793 298203 225448 204503 157565 194612 156222 128255 122924 93558.8 109632 85155 79498.7 76910.5 65165.7 65008.7 64329.2 62461.9 59797.1 98290 57333.3 54115.9 51809.5 51324 50466.9
threshold=55.500000000000007 177.50000000000003 15.500000000000002 2.9999999999708966 55.127227375611788 3.0002441406256257 2.5000000000000004 4837.5000000000009 16.252026206885066 3.0666662921799204 1.0000000180025095e-35 1.0000000180025095e-35 2622.5000000000005 50952.000000000007 10.500000000000002 7.5000000000000009 10.500000000000002 37517.500000000007 7.5000000000000009 2.5000000000000004 4.7500000000000018 19.500000000000004 3.3750000004656617 1.0000000000000011 1.98437526822088 3.9882812500000004 122995.50000000001 1.0000000180025095e-35 3.5625040592858572 28799.500000000004
decision_type=2 2 2 2 2 2 2 2 2 2 2 2 2 2 2 2 2 2 2 2 2 2 2 2 2 2 2 2 2 2
left_child=4 3 26 16 5 14 -6 27 21 10 -4 12 -9 23 15 -1 -2 25 -8 -13 -14 28 -16 29 -25 -17 -3 -7 -5 -12
right_child=1 2 9 8 6 7 18 11 -10 -11 13 19 20 -15 22 17 -18 -19 -20 -21 -22 -23 -24 24 -26 -27 -28 -29 -30 -31
leaf_value=-0.039710606648376001 -0.046117672081938316 -0.088879996326745148 0.091026716109904815 -0.034634404202926766 -0.11350628493637555 0.049749059549031506 -0.077633184674494427 0.020506870617381105 -0.0040520288024717115 0.053429225498586787 0.092959215201708398 -0.11439570663216436 0.0074678188003396958 0.18781059784448095 -0.020001328654631934 0.098711945230317108 0.085791522189758676 -0.043121563773271171 -0.046607231175527175 0.062422308354000935 0.22901542462741317 0.051346990595377895 0.10931351446188145 0.17520058047835821 0.10656911247085653 -0.11709553448025552 0.083537265416795792 -0.023008231920631977 0.10159725171679242 -0.054618539342321276
leaf_weight=291582 416692 74513 492051 7266 317770 33577 301842 12270 126146 135881 23826 5480 3676 96245 35153 3157 12605 63791 590529 106081 33360 193466 12716 80213 149207 122385 4847 90191 142552 7654
leaf_count=291582 416692 74513 492051 7266 317770 33577 301842 12270 126146 135881 23826 5480 3676 96245 35153 3157 12605 63791 590529 106081 33360 193466 12716 80213 149207 122385 4847 90191 142552 7654
internal_value=0 0.0515379 0.089868 0.00614038 -0.0499997 -0.0173989 -0.0719129 0.0474616 0.0503887 0.10342 0.111419 0.0864936 0.16061 0.139514 -0.0523122 -0.0589476 -0.0422446 -0.0885734 -0.0571017 0.0537368 0.207026 0.070394 0.0143501 0.121698 0.130565 -0.111669 -0.0783494 -0.00326992 0.0949902 0.0570774
internal_weight=0 1.96316e+06 1.06444e+06 898727 2.02356e+06 813419 1.21014e+06 284635 469430 985077 849196 160867 49306 357145 528784 480915 429297 189333 892371 111561 37036 343284 47869 260900 229420 125542 79360 123768 149818 31480
internal_count=3986724 1963164 1064437 898727 2023560 813419 1210141 284635 469430 985077 849196 160867 49306 357145 528784 480915 429297 189333 892371 111561 37036 343284 47869 260900 229420 125542 79360 123768 149818 31480
is_linear=0
shrinkage=0.05


Tree=12
num_leaves=31
num_cat=0
split_feature=13 19 11 0 1 19 0 2 9 1 12 15 5 0 1 15 0 0 11 9 11 15 14 12 7 0 11 9 0 1
split_gain=3.71067e+06 524822 479137 375132 243554 336052 349624 204764 179679 520531 349456 163879 155526 244111 169646 146458 142242 113381 111824 104430 82717.7 130271 81409 80034.4 77679.9 76505.3 74850 69595.8 69411.1 64714.8
threshold=109.50000000000001 14.500000000000002 1.5000000000000002 2.7578163556756095 2.0312500000000013 412.50000000000006 4.999999999767172 9.3553058309710639 3.5000000000000004 1.0000000180025095e-35 10474.500000000002 1.0000000180025095e-35 1.0000076293945315 1.9209892160798379 2.3125026226066447 4860.5000000000009 5.0000000000000044 12.275669644254128 39.500000000000007 25.500000000000004 10.500000000000002 20.500000000000004 1.0000000180025095e-35 13.500000000000002 3.5625000000000004 5.3671106919655402 37.500000000000007 22.500000000000004 1.9209892160798379 3.0097656252346514
decision_type=2 2 2 2 2 2 2 2 2 2 2 2 2 2 2 2 2 2 2 2 2 2 2 2 2 2 2 2 2 2
left_child=1 7 3 28 24 26 29 16 9 -4 17 -9 -11 18 -15 25 -1 20 -14 23 -10 -22 -17 -5 -3 -8 -6 -18 -2 -7
right_child=2 4 8 19 5 6 15 11 10 12 -12 -13 13 14 -16 22 27 -19 -20 -21 21 -23 -24 -25 -26 -27 -28 -29 -30 -31
leaf_value=-0.042370489695367129 -0.088681232383231945 0.098745696713917142 0.086475378006042478 0.063898938632458532 -0.042691772695078088 -0.027234518877678818 0.1237162803285808 -0.11429116857420979 0.15073714289137205 -0.011592174040891978 0.15758308977737004 -0.066690564442460895 -0.035271620583196293 -0.044876521013293508 0.10092848278957892 0.21713814246824442 0.13175354865818803 0.013440327473430129 0.16017164799168743 -0.14748089744563392 -0.02860083655538951 0.08128493668490766 0.041797913805231179 -0.054342796337034788 -0.066750200095086115 0.0077491987140751607 0.0030644557306984954 -0.030791699422138719 -0.02511485535045967 0.0290901011577696
leaf_weight=125999 61112 7282 492051 201551 408141 121047 25471 261876 35078 273381 134769 584161 8575 63336 29123 33193 20215 85622 49955 6527 30297 245725 8269 15405 269566 32203 114439 9767 144464 88124
leaf_count=125999 61112 7282 492051 201551 408141 121047 25471 261876 35078 273381 134769 584161 8575 63336 29123 33193 20215 85622 49955 6527 30297 245725 8269 15405 269566 32203 114439 9767 144464 88124
internal_value=0 -0.0454989 0.0511417 0.00473468 -0.0217808 -0.00824766 0.033151 -0.0717194 0.0648935 0.0514798 0.088022 -0.0814245 0.0109029 0.0516326 0.00104956 0.110493 -0.0190791 0.0643916 0.131538 0.0495749 0.0784146 0.0692235 0.182169 0.0555032 -0.0623971 0.0589646 -0.0326717 0.0788025 -0.0440114 -0.00350489
internal_weight=0 2.10975e+06 1.87697e+06 429059 1.10774e+06 830887 308307 1.00202e+06 1.44791e+06 916421 531491 846037 424370 150989 92459 99136 155981 396722 58530 223483 311100 276022 41462 216956 276848 57674 522580 29982 205576 209171
internal_count=3986724 2109753 1876971 429059 1107735 830887 308307 1002018 1447912 916421 531491 846037 424370 150989 92459 99136 155981 396722 58530 223483 311100 276022 41462 216956 276848 57674 522580 29982 205576 209171
is_linear=0
shrinkage=0.05


Tree=13
num_leaves=31
num_cat=0
split_feature=13 10 11 3 1 1 15 14 13 1 1 12 15 12 11 14 12 10 11 10 12 10 3 11 10 10 12 1 13 10
split_gain=3.35133e+06 1.15003e+06 798279 635143 470402 686664 250597 203593 177255 141267 156292 133280 127594 102863 87397.2 85448.1 75501 100333 76774.7 75353.5 73424.2 70452.1 70934 69419.9 69151 106202 61221.5 55093.5 82894.6 53852.4
threshold=51.500000000000007 146.50000000000003 16.500000000000004 2.9999999999708966 12.283810138702394 3.9999999999981828 4.5000000000000009 1.0000000180025095e-35 634.50000000000011 4.1250000000000027 1.0000000180025095e-35 10800.500000000002 1868.0000000000002 10.500000000000002 37301.000000000007 3787.0000000000005 19.500000000000004 1.0000000180025095e-35 21.500000000000004 1.0000000180025095e-35 30.500000000000004 219133.00000000003 1.0000000000000009 4197.5000000000009 13.500000000000002 1.5000000000000002 14.500000000000002 9.4139826402013131 5.5000000000000009 3.5000000000000004
decision_type=2 2 2 2 2 2 2 2 2 2 2 2 2 2 2 2 2 2 2 2 2 2 2 2 2 2 2 2 2 2
left_child=4 3 -3 19 5 13 -6 12 -5 10 -4 20 -7 14 -1 27 17 -10 -18 23 -12 22 -13 -2 25 -17 -8 -9 -29 -21
right_child=1 2 9 8 6 7 26 15 16 -11 11 21 -14 -15 -16 24 18 -19 -20 29 -22 -23 -24 -25 -26 -27 -28 28 -30 -31
leaf_value=-0.078348376381799992 -0.02315142545020836 -0.069799920600869744 0.082151619969167228 -0.0030739578634468396 -0.09864010564292458 0.00849102375047559 -0.061404665925634483 -0.040311270305131534 0.057140130267152173 0.043245542641052778 -0.038400503306363097 0.086876274813349474 0.18459778183901945 -0.021059218300141538 -0.012912596850527073 0.050209002585035981 -0.046960092709228116 0.12582242978667799 0.083391425237325095 0.055732557415483712 0.096701505764012444 0.24580753318867987 0.15523511957538674 -0.068934730438938038 -0.060295086999502361 0.20052652817351171 -0.034456396003784813 -0.10907309664971009 0.14840854927617497 -0.026623858356493797
leaf_weight=242992 141284 80797 492051 137426 375743 13668 483980 49433 216577 121939 10910 48696 41559 242520 64592 87218 28013 70477 18929 30440 128582 16992 171960 200003 11239 13580 373330 4499 10242 57053
leaf_count=242992 141284 80797 492051 137426 375743 13668 483980 49433 216577 121939 10910 48696 41559 242520 64592 87218 28013 70477 18929 30440 128582 16992 171960 200003 11239 13580 373330 4499 10242 57053
internal_value=0 0.0463337 0.0813238 0.00466879 -0.045357 -0.0150093 -0.0645922 0.0572462 0.044723 0.0936434 0.100714 0.124931 0.141014 -0.0454084 -0.064607 0.0309924 0.0643895 0.0740029 0.00560315 -0.0393688 0.0861349 0.147704 0.140149 -0.0499816 0.0573438 0.0704605 -0.0496696 -0.0150127 0.0698243 0.00202905
internal_weight=0 1.97213e+06 1.07193e+06 900202 2.0146e+06 781542 1.23305e+06 231438 471422 991130 869191 377140 55227 550104 307584 176211 333996 287054 46942 428780 139492 237648 220656 341287 112037 100798 857310 64174 14741 87493
internal_count=3986724 1972129 1071927 900202 2014595 781542 1233053 231438 471422 991130 869191 377140 55227 550104 307584 176211 333996 287054 46942 428780 139492 237648 220656 341287 112037 100798 857310 64174 14741 87493
is_linear=0
shrinkage=0.05


Tree=14
num_leaves=31
num_cat=0
split_feature=13 10 11 3 0 0 12 1 17 14 18 0 11 19 10 10 10 3 9 10 12 12 11 12 12 4 2 13 12 14
split_gain=3.02555e+06 1.05445e+06 724040 556946 433484 553408 181667 181504 181309 170880 130448 158276 116490 115404 75138.4 72247.2 65186.2 72247.5 64355.3 63460.2 58766.3 92817.4 77560.5 54995.8 51511.9 47872.5 47828.7 47560.5 104910 64542.9
threshold=42.500000000000007 177.50000000000003 8.5000000000000018 2.9999999999708966 55.127227375611788 3.000030517578129 1.0000000180025095e-35 16.252026206885066 4.5000000000000009 1.0000000180025095e-35 1843.0000000000002 1.0000000180025095e-35 9590.5000000000018 4.5000000000000009 10.500000000000002 1799.5000000000002 219133.00000000003 1.0000000000000009 21.500000000000004 122995.50000000001 19.500000000000004 1.5000000000000002 20.500000000000004 24.500000000000004 122312.50000000001 11.595158040523531 4.0002443813718864 2.5000000000000004 7.5000000000000009 3666.5000000000005
decision_type=2 2 2 2 2 2 2 2 2 2 2 2 2 2 2 2 2 2 2 2 2 2 2 2 2 2 2 2 2 2
left_child=4 3 -3 14 5 15 9 20 -6 18 -4 -12 -13 -10 -2 24 17 -14 -7 -17 21 26 -22 -19 25 -1 -5 -8 29 -29
right_child=1 2 10 7 8 6 27 -9 13 -11 11 12 16 -15 -16 19 -18 23 -20 -21 22 -23 -24 -25 -26 -27 -28 28 -30 -31
leaf_value=-0.037479991808205493 -0.04082314661779865 -0.073684273521580732 0.045971867109722085 0.034788604901317619 -0.092508089363533011 0.17902750610628765 -0.028499300229527159 -0.0054149038362271331 -0.092239691943639013 0.041141601342483507 0.078044026317677179 0.083027951817596618 0.082271499297502063 -0.041694079710872446 0.082847246718432424 -0.076229106001502303 0.23872849704097521 -0.067480512437784787 0.0038513517746646807 0.079682056350947897 -0.043042240671578851 0.12335399182057932 0.071560820215007995 0.15574603611152976 0.11747966518246707 0.097110394580654513 0.081680011793430901 -0.021731584207902967 0.0024632389961618617 0.22707197055964234
leaf_weight=313802 416741 73789 151743 127585 357627 41989 70389 149112 134862 93783 492051 123877 48495 694273 12655 184454 16595 2808 5991 6766 29046 63408 30024 158657 5663 6749 94777 3610 66025 9378
leaf_count=313802 416741 73789 151743 127585 357627 41989 70389 149112 134862 93783 492051 123877 48495 694273 12655 184454 16595 2808 5991 6766 29046 63408 30024 158657 5663 6749 94777 3610 66025 9378
internal_value=0 0.0436013 0.0774314 0.00447089 -0.043514 -0.0152807 0.0398615 0.0406769 -0.0627507 0.0804063 0.0886468 0.0963332 0.122013 -0.0499155 -0.0371784 -0.0463098 0.14333 0.13579 0.157154 -0.0707125 0.0606074 0.0699917 0.015208 0.151864 -0.0320054 -0.0346463 0.0547751 0.00138973 0.0280165 0.157917
internal_weight=0 1.99136e+06 1.06802e+06 923348 1.99536e+06 808599 291165 493952 1.18676e+06 141763 994226 842483 350432 829135 429396 517434 226555 209960 47980 191220 344840 285770 59070 161465 326214 320551 222362 149402 79013 12988
internal_count=3986724 1991363 1068015 923348 1995361 808599 291165 493952 1186762 141763 994226 842483 350432 829135 429396 517434 226555 209960 47980 191220 344840 285770 59070 161465 326214 320551 222362 149402 79013 12988
is_linear=0
shrinkage=0.05


Tree=15
num_leaves=31
num_cat=0
split_feature=13 1 11 0 0 0 12 9 0 15 5 0 1 11 13 15 11 3 14 11 14 9 11 11 0 15 15 12 11 12
split_gain=2.7308e+06 401975 354098 265391 155601 378201 281860 140745 391183 266987 107622 167107 121184 106819 104105 98914.3 98010.8 94079.5 92883.2 121875 93545.8 88659.5 87180.1 80559.4 77306.9 70024 62598.9 59527.7 56342.2 56247.5
threshold=109.50000000000001 20665.500000000004 1.0000000180025095e-35 2.7578163556756095 2.0625000000000027 12.275669644254128 14.500000000000002 3.5000000000000004 1.0000000180025095e-35 3600.5000000000005 1.0000076293945315 1.9209892160798379 2.3125026226066447 39.500000000000007 10.500000000000002 1.0000000180025095e-35 2.5000000000000004 2.0039062504656617 1.0000000180025095e-35 1.0000000180025095e-35 2.5000000000000004 27.500000000000004 37301.000000000007 9.5000000000000018 10.000000000000004 155.50000000000003 1740.5000000000002 13.500000000000002 21.500000000000004 1.5000000000000002
decision_type=2 2 2 2 2 2 2 2 2 2 2 2 2 2 2 2 2 2 2 2 2 2 2 2 2 2 2 2 2 2
left_child=1 4 3 -2 14 6 18 8 -4 23 -10 13 -13 -12 22 -3 -7 -11 19 26 -20 27 -1 -9 28 -25 -6 -5 -8 -22
right_child=2 15 7 21 5 16 24 9 10 17 11 12 -14 -15 -16 -17 -18 -19 20 -21 29 -23 -24 25 -26 -27 -28 -29 -30 -31
leaf_value=-0.073663859665184447 -0.038306370429735725 -0.099319270398360734 0.074141829361744363 0.054095815073025889 0.011790569889708807 -0.087958028187746479 -0.024704617484734837 0.12264875486356622 -0.010071514627697254 0.15315488216157305 -0.039218251846002548 -0.036905478464708062 0.082599364815228143 0.13748770823514123 0.022892685039607098 -0.057982407218772805 -0.030687112515578902 0.088696590819228704 -0.12091959582490536 -0.034853486105151897 0.04240716611790115 -0.14671065561739857 -0.010389772006447116 0.0020401137333189482 0.11931049266255496 0.055075038844869639 0.18455868391628172 -0.049410918460685918 0.0711160234172417 0.13642156857544999
leaf_weight=267942 199914 209736 492051 197411 6076 86454 217369 30209 273382 99402 10319 66304 31194 49955 41763 466839 549671 131489 7774 9693 93465 6088 68319 95457 10730 178854 38243 14942 16506 19173
leaf_count=267942 199914 209736 492051 197411 6076 86454 217369 30209 273382 99402 10319 66304 31194 49955 41763 466839 549671 131489 7774 9693 93465 6088 68319 95457 10730 178854 38243 14942 16506 19173
internal_value=0 -0.0390319 0.0438727 0.00332172 -0.0240364 -0.0141752 0.0227074 0.0555034 0.0436754 0.0758983 0.00890577 0.041789 0.0013295 0.107235 -0.0515613 -0.0707967 -0.0384706 0.116447 0.0712691 0.125748 0.0468323 0.0414191 -0.0608083 0.0451538 -0.0119212 0.0366195 0.160873 0.0468127 -0.017942 0.0584101
internal_weight=0 2.10975e+06 1.87697e+06 418355 1.43318e+06 1.05515e+06 419029 1.45862e+06 923205 535411 431154 157772 97498 60274 378024 676575 636125 230891 174424 54012 120412 218441 336261 304520 244605 274311 44319 212353 233875 112638
internal_count=3986724 2109753 1876971 418355 1433178 1055154 419029 1458616 923205 535411 431154 157772 97498 60274 378024 676575 636125 230891 174424 54012 120412 218441 336261 304520 244605 274311 44319 212353 233875 112638
is_linear=0
shrinkage=0.05


Tree=16
num_leaves=31
num_cat=0
split_feature=13 10 11 3 2 1 15 14 8 12 1 11 15 12 12 11 10 11 14 10 4 10 10 3 10 12 12 10 10 1
split_gain=2.47251e+06 873033 608676 465830 353402 515663 194162 154338 148178 112237 138733 120864 89058.8 80511.2 70265.5 66623.5 65238.6 66606.8 64492.4 62360.5 59369.8 57909 89650.1 56965.6 54409.5 59743.3 55619.2 51906.6 51650.3 45806.8
threshold=42.500000000000007 146.50000000000003 16.500000000000004 2.9999999999708966 12.000491261482997 3.9999999999981828 1.0000000180025095e-35 1.0000000180025095e-35 92.500000000000014 908.50000000000011 1.0000000180025095e-35 9590.5000000000018 2622.5000000000005 20.500000000000004 4.5000000000000009 35784.500000000007 1.0000000180025095e-35 4197.5000000000009 2701.5000000000005 219133.00000000003 12.250632405281069 10.500000000000002 1.5000000000000002 1.0000000000000009 1.0000000180025095e-35 1.5000000000000002 18.500000000000004 37517.500000000007 1.5000000000000002 9.4139826402013131
decision_type=2 2 2 2 2 2 2 2 2 2 2 2 2 2 2 2 2 2 2 2 2 2 2 2 2 2 2 2 2 2
left_child=4 3 -3 16 5 13 -6 12 24 -4 -11 -12 -7 15 -8 27 17 -2 20 23 -9 22 -20 -13 25 -5 -26 -1 -18 -22
right_child=1 2 9 8 6 7 14 18 -10 10 11 19 -14 -15 -16 -17 28 -19 21 -21 29 -23 -24 -25 26 -27 -28 -29 -30 -31
leaf_value=-0.080834306372022033 -0.018039420045288287 -0.061749398889257102 0.039901699479252234 0.049493746133128388 -0.092256198704865178 0.010585332837032037 -0.074262089135281317 -0.039266377659374921 -0.0036463858489624423 0.070434731225455002 0.07346551633167063 0.078922339814687659 0.16068534372998014 -0.015965141397675714 -0.038679132154584329 -0.014654193361650126 0.10471087575597318 -0.06288508405084367 0.043578635259297054 0.22744889635727841 -0.028132678837650596 -0.056428136550129439 0.18322435655498498 0.14068516591220109 0.11177991945213127 -0.045334041881358228 0.034926117640963837 -0.027432092740224762 -0.010593046042213663 0.17610532771142173
leaf_weight=185751 141284 81059 143858 211515 284296 13021 169246 47572 153691 492051 132477 48696 40996 223098 769691 77744 11126 200012 87716 16429 4802 11525 13226 159999 68955 18025 35745 60267 76441 6410
leaf_count=185751 141284 81059 143858 211515 284296 13021 169246 47572 153691 492051 132477 48696 40996 223098 769691 77744 11126 200012 87716 16429 4802 11525 13226 159999 68955 18025 35745 60267 76441 6410
internal_value=0 0.0394154 0.0699948 0.00357348 -0.0393364 -0.0128512 -0.0560544 0.0508132 0.0369875 0.0807436 0.0876587 0.111359 0.124503 -0.0390765 -0.0450931 -0.0550021 -0.0344427 -0.0443206 0.0275695 0.133657 -0.014872 0.0497527 0.0618758 0.126274 0.0556718 0.0420472 0.0855417 -0.0677524 0.00405712 0.088632
internal_weight=0 1.99136e+06 1.07457e+06 916794 1.99536e+06 772128 1.22323e+06 225268 487931 993510 849652 357601 54017 546860 938937 323762 428863 341296 171251 225124 58784 112467 100942 208695 334240 229540 104700 246018 87567 11212
internal_count=3986724 1991363 1074569 916794 1995361 772128 1223233 225268 487931 993510 849652 357601 54017 546860 938937 323762 428863 341296 171251 225124 58784 112467 100942 208695 334240 229540 104700 246018 87567 11212
is_linear=0
shrinkage=0.05


Tree=17
num_leaves=31
num_cat=0
split_feature=13 10 11 2 0 0 15 0 12 14 12 10 0 11 10 15 12 12 1 10 10 13 14 10 4 11 13 12 2 14
split_gain=2.23158e+06 792514 560156 412491 322992 412330 162450 144142 134560 127995 92370.4 86702.7 74203.1 189365 66057.6 64844 60146.5 60023.6 59706.6 54156.3 49692 63896.3 47297.8 45233.5 40506.5 39618.5 37320.5 81248.2 57125.4 51750.4
threshold=40.500000000000007 266.50000000000006 7.5000000000000009 2.251956701278687 55.127227375611788 3.000030517578129 1.0000000180025095e-35 15.000000000116417 1.0000000180025095e-35 1.0000000180025095e-35 117.50000000000001 10.500000000000002 1.0000000180025095e-35 4197.5000000000009 66550.000000000015 1868.0000000000002 4.5000000000000009 122312.50000000001 1.0000000001164155 1799.5000000000002 37517.500000000007 10.500000000000002 19.500000000000004 37517.500000000007 11.595158040523531 1.0000000180025095e-35 2.5000000000000004 7.5000000000000009 9.3553058309710639 3666.5000000000005
decision_type=2 2 2 2 2 2 2 2 2 2 2 2 2 2 2 2 2 2 2 2 2 2 2 2 2 2 2 2 2 2
left_child=4 3 23 11 5 17 -6 22 9 15 -4 -2 -12 -14 18 -7 -8 19 -15 24 21 -21 -5 -3 -1 -9 -10 29 -29 -28
right_child=1 2 10 7 6 8 16 25 26 -11 12 -13 13 14 -16 -17 -18 -19 -20 20 -22 -23 -24 -25 -26 -27 27 28 -30 -31
leaf_value=-0.032057081585624113 -0.035986577573014461 -0.096784943081702574 -0.0063281200037061339 0.073308499170337091 -0.087828765920648505 0.015422586440656553 -0.071968532874151031 -0.19046576503455934 -0.02507257657344257 0.03545132007686351 0.066913001880198358 0.084123129132992178 0.056203740840328503 0.047686111378319025 0.16385709377449792 0.16394765109342668 -0.038022711538904533 0.097397936190968037 0.12020035982217625 -0.095874078440493227 -0.030046525625598848 0.022411613907971674 0.036586274629795516 -0.015336914663259489 0.09297743776992437 -0.0019247487696912409 -0.021847285068608679 -0.029628500880037913 0.070355039090787982 0.20123320015990953
leaf_weight=313771 417481 45574 31806 150277 274371 9061 157965 2837 70389 93776 492051 15586 184363 34598 70121 38887 750245 7842 158120 105394 70607 12804 210520 27233 6614 155885 3597 44540 21032 9377
leaf_count=313771 417481 45574 31806 150277 274371 9061 157965 2837 70389 93776 492051 15586 184363 34598 70121 38887 750245 7842 158120 105394 70607 12804 210520 27233 6614 155885 3597 44540 21032 9377
internal_value=0 0.0373504 0.0674439 0.00437311 -0.0374663 -0.0130937 -0.0541126 0.0344132 0.0345534 0.0694283 0.0774731 -0.0316639 0.0803109 0.0950524 0.122302 0.13588 -0.0439269 -0.0398794 0.107182 -0.0419936 -0.063235 -0.0830606 0.0518816 -0.0663198 -0.0294759 -0.00529473 0.00136703 0.0250609 0.00244089 0.139385
internal_weight=0 1.99645e+06 1.04387e+06 952586 1.99027e+06 807691 1.18258e+06 519519 290659 141724 971059 433067 939253 447202 262839 47948 908210 517032 192718 509190 188805 118198 360797 72807 320385 158722 148935 78546 65572 12974
internal_count=3986724 1996452 1043866 952586 1990272 807691 1182581 519519 290659 141724 971059 433067 939253 447202 262839 47948 908210 517032 192718 509190 188805 118198 360797 72807 320385 158722 148935 78546 65572 12974
is_linear=0
shrinkage=0.05


Tree=18
num_leaves=31
num_cat=0
split_feature=13 10 11 2 0 0 15 0 12 16 0 10 0 15 13 8 7 10 10 11 17 10 10 11 11 11 10 12 10 13
split_gain=2.014e+06 715977 493773 373584 291604 378122 148549 128894 118425 116077 124481 80040.7 68819.6 85820.4 56883.8 67839.7 55266.1 56359 54481.8 60108.4 50753.1 50362.9 55318.2 44443.4 41059.4 42633.7 40312.1 39729.9 37714.8 57718.2
threshold=40.500000000000007 116.50000000000001 7.5000000000000009 2.251956701278687 36.686795388019455 3.000030517578129 1.5000000000000002 4.999999999767172 1.0000000180025095e-35 2566.5000000000005 1.0000000180025095e-35 50952.000000000007 4.999999999767172 2622.5000000000005 40250.500000000007 19.250000000000004 3.5625000000000004 1799.5000000000002 1.0000000180025095e-35 4197.5000000000009 9.5000000000000018 3.5000000000000004 10.500000000000002 1.0000000180025095e-35 4006.0000000000005 1.5000000000000002 37517.500000000007 19.500000000000004 37517.500000000007 10.500000000000002
decision_type=2 2 2 2 2 2 2 2 2 2 2 2 2 2 2 2 2 2 2 2 2 2 2 2 2 2 2 2 2 2
left_child=4 3 26 18 5 16 -6 14 12 -4 -11 27 -7 -14 -5 24 -1 -18 19 -2 -8 -20 -23 -9 25 -16 -3 -12 29 -19
right_child=1 2 9 7 6 8 20 23 -10 10 11 -13 13 -15 15 -17 17 28 21 -21 -22 22 -24 -25 -26 -27 -28 -29 -30 -31
leaf_value=0.094961842675369321 -0.015338120308357784 -0.091327660333614419 0.036282369951241719 0.075523843170900704 -0.081971048134982738 0.018472584353775839 -0.054917818989140658 -0.15573950455872057 0.0020046431607871501 0.06356734559460385 -0.063944648156385245 0.14226490400747843 0.04569026386257026 0.14221366669616364 0.029304438306445097 -0.097078920844953107 -0.027249203479468284 -0.091037725825673807 0.055781450245331224 -0.057916470228366351 -0.030782945977343164 -0.048559979227460255 0.076264442999347815 -0.00036589275085510231 -0.16029384294838553 0.087663473304910866 -0.014570069866126828 0.090618321353459361 -0.032212762744035381 0.021393941175110658
leaf_weight=7712 141284 45996 189319 135729 296897 49156 381170 4754 145390 492051 4230 93582 48300 44013 134771 9511 322712 105427 30506 200547 508314 45144 11048 144416 2523 40760 27233 243048 68380 12801
leaf_count=7712 141284 45996 189319 135729 296897 49156 381170 4754 145390 492051 4230 93582 48300 44013 134771 9511 322712 105427 30506 200547 508314 45144 11048 144416 2523 40760 27233 243048 68380 12801
internal_value=0 0.0354828 0.062638 0.00246662 -0.035593 -0.012343 -0.0513472 0.0331292 0.0336945 0.0716227 0.0796555 0.10288 0.0662628 0.0917107 0.0508688 0.0330276 -0.0378854 -0.039897 -0.0313397 -0.0403182 -0.0411254 0.00406061 -0.024018 -0.0053176 0.0399774 0.042856 -0.0627824 0.0879743 -0.0617695 -0.0788643
internal_weight=0 1.99645e+06 1.09546e+06 900993 1.99027e+06 803891 1.18638e+06 472464 286859 1.02223e+06 832911 340860 141469 92313 323294 187565 517032 509320 428529 341831 889484 86698 56192 149170 178054 175531 73229 247278 186608 118228
internal_count=3986724 1996452 1095459 900993 1990272 803891 1186381 472464 286859 1022230 832911 340860 141469 92313 323294 187565 517032 509320 428529 341831 889484 86698 56192 149170 178054 175531 73229 247278 186608 118228
is_linear=0
shrinkage=0.05


Tree=19
num_leaves=31
num_cat=0
split_feature=13 10 11 3 2 0 15 0 12 10 14 14 1 1 12 10 12 12 12 10 10 4 3 10 13 10 10 14 15 14
split_gain=1.81763e+06 647030 472242 337438 264361 385193 145218 131715 114497 92035.3 85083.9 79905.9 74899.4 74356 128125 66986.1 54397.7 51921.2 51494.5 47385.8 44078.5 45091.3 43538.9 40979.4 45802.3 39954.4 38552.4 37298.5 36366.1 33526.8
threshold=40.500000000000007 637.50000000000011 17.500000000000004 2.7812501142034312 12.000491261482997 3.000030517578129 7.5000000000000009 15.000000000116417 14.500000000000002 10.500000000000002 1.0000000180025095e-35 3.5000000000000004 9.4139826402013131 1.0000000180025095e-35 10800.500000000002 1.0000000180025095e-35 1.5000000000000002 19.500000000000004 122312.50000000001 219133.00000000003 1320.5000000000002 11.595158040523531 1.0000000000000009 37517.500000000007 10.500000000000002 122995.50000000001 10.500000000000002 86392.500000000015 1.0000000180025095e-35 19.500000000000004
decision_type=2 2 2 2 2 2 2 2 2 2 2 2 2 2 2 2 2 2 2 2 2 2 2 2 2 2 2 2 2 2
left_child=4 3 25 9 5 18 28 29 10 -2 15 -12 -10 -4 17 -7 27 -15 20 22 21 -1 -16 24 -22 -3 -18 -13 -6 -5
right_child=1 2 13 7 6 8 -8 -9 12 -11 11 16 -14 14 19 -17 26 -19 -20 -21 23 -23 -24 -25 -26 -27 -28 -29 -30 -31
leaf_value=-0.029099530887342032 -0.032423840690707369 -0.063791174610568019 0.060388987325732529 0.065036905433832198 -0.079396725055874043 0.13749731549759123 -0.032138320512750895 -0.004959610609960162 -0.020747630818824258 0.07153379709794816 -0.10794015776474988 0.073603134650700258 0.12690706572594981 -0.057726686511492202 0.064663567587697812 -0.070476629986291353 0.17363191214919546 0.063624158978692946 0.091193243125094942 0.1945983468269338 -0.086240721266766948 0.11625345551978079 0.1198737645492632 -0.027168880861961026 0.016009499755176553 0.080701264671396461 -0.0065000224257897449 0.0089187290256257292 -0.054134348398392255 0.035437258169227652
leaf_weight=313519 416574 73573 492051 152447 284128 44468 648854 178993 83221 22437 8391 39161 9577 9316 45758 4241 13404 163749 7842 16986 103945 5428 162602 70607 12242 5117 3816 51718 285710 256849
leaf_count=313519 416574 73573 492051 152447 284128 44468 648854 178993 83221 22437 8391 39161 9577 9316 45758 4241 13404 163749 7842 16986 103945 5428 162602 70607 12242 5117 3816 51718 285710 256849
internal_value=0 0.0337087 0.0630146 0.00606156 -0.0338134 -0.0109116 -0.048313 0.0308164 0.0389328 -0.0271108 0.0638975 0.0406942 -0.00550927 0.0733901 0.0894469 0.119389 0.0522317 0.0570919 -0.0359508 0.114296 -0.0379223 -0.0266258 0.107749 -0.0572107 -0.0754672 -0.0543952 0.133714 0.0367921 -0.0667305 0.046462
internal_weight=0 1.99645e+06 969152 1.0273e+06 1.99027e+06 771580 1.21869e+06 588289 257997 439011 165199 116490 92798 890462 398411 48709 108099 173065 513583 225346 505741 318947 208360 186794 116187 78690 17220 90879 569838 409296
internal_count=3986724 1996452 969152 1027300 1990272 771580 1218692 588289 257997 439011 165199 116490 92798 890462 398411 48709 108099 173065 513583 225346 505741 318947 208360 186794 116187 78690 17220 90879 569838 409296
is_linear=0
shrinkage=0.05


Tree=20
num_leaves=31
num_cat=0
split_feature=13 10 11 3 0 0 15 19 13 2 0 12 0 10 12 12 11 10 12 11 1 10 11 10 10 10 10 11 0 10
split_gain=1.64044e+06 582168 406656 307273 238663 298702 119024 108695 103037 90353 104621 87691.3 78918.6 61131.2 53893.2 65819.6 52418.2 51803.4 51090.7 49375.3 48738.7 45937.2 54266.6 48418.7 42946.6 41103.3 39818.1 39434.8 38343.5 46251.1
threshold=42.500000000000007 116.50000000000001 27.500000000000004 2.9999999999708966 81.507039329789151 3.000030517578129 1.0000000180025095e-35 4292.5000000000009 510.50000000000006 5.5665969848634154 1.0000000180025095e-35 54.500000000000007 4.999999999767172 50952.000000000007 19.500000000000004 1.5000000000000002 33.500000000000007 1.0000000180025095e-35 4.5000000000000009 123134.50000000001 2.0000000027939704 1.0000000180025095e-35 4197.5000000000009 3.5000000000000004 122995.50000000001 10.500000000000002 2.5000000000000004 1.0000000180025095e-35 1.0000000000000011 28799.500000000004
decision_type=2 2 2 2 2 2 2 2 2 2 2 2 2 2 2 2 2 2 2 2 2 2 2 2 2 2 2 2 2 2
left_child=4 3 -3 21 5 19 -6 -7 27 10 -4 -12 -9 28 15 -10 -16 -14 -8 20 24 22 -2 -23 -1 -25 -19 -5 29 -13
right_child=1 2 9 8 6 7 18 12 14 -11 11 13 17 -15 16 -17 -18 26 -20 -21 -22 23 -24 25 -26 -27 -28 -29 -30 -31
leaf_value=-0.059355736359120392 -0.012950024320121899 -0.046631383704278356 0.057369535311461821 -0.15478918176175921 -0.075281344918079252 -0.0056519379785174902 -0.063524896191669553 0.020320922488298969 0.040269925991858531 0.03184621701547375 -0.036599159690317948 0.067444214258351273 0.11431522608945677 0.13238364014614931 -0.045931417639562697 0.097829731022557154 0.06590018886481884 -0.076656022230209814 -0.032234979597820033 0.097137251735979091 -0.02365629115223265 0.054896384412978928 -0.053428820889137467 -0.044398918228179075 0.082154663380317239 0.065127179710394625 0.066270302098443742 -0.0019410059202933532 0.092545091774779431 -0.073356332617025385
leaf_weight=191515 141284 87797 492051 4362 273750 128507 157896 81526 226321 165897 12552 24508 60189 93393 29089 63629 16378 6589 750759 7070 313333 30444 200012 45001 5516 10580 18711 129507 210904 7654
leaf_count=191515 141284 87797 492051 4362 273750 128507 157896 81526 226321 165897 12552 24508 60189 93393 29089 63629 16378 6589 750759 7070 313333 30444 200012 45001 5516 10580 18711 129507 210904 7654
internal_value=0 0.0321053 0.0565713 0.00223249 -0.032041 -0.0111865 -0.0463795 0.0289176 0.0301637 0.0655695 0.0722214 0.0931601 0.0555166 0.0980009 0.0449648 0.0529013 -0.00564774 0.0890807 -0.0376722 -0.0340911 -0.035909 -0.0284417 -0.0366721 0.00421175 -0.0553941 -0.0235503 0.0290473 -0.00692143 0.0847901 0.0339361
internal_weight=0 1.99136e+06 1.09476e+06 896607 1.99536e+06 812956 1.1824e+06 295522 469286 1.00696e+06 841062 349011 167015 336459 335417 289950 45467 85489 908655 517434 510364 427321 341296 86025 197031 55581 25300 133869 243066 32162
internal_count=3986724 1991363 1094756 896607 1995361 812956 1182405 295522 469286 1006959 841062 349011 167015 336459 335417 289950 45467 85489 908655 517434 510364 427321 341296 86025 197031 55581 25300 133869 243066 32162
is_linear=0
shrinkage=0.05


Tree=21
num_leaves=31
num_cat=0
split_feature=19 10 3 8 10 11 12 11 8 15 11 0 0 1 0 1 1 11 10 11 10 10 12 1 2 12 0 12 3 10
split_gain=1.31593e+06 508489 268923 180345 174389 465990 156067 147398 145943 128709 107730 112796 94061.8 85754.8 85268.1 69729.2 64870.5 53195.3 51674.1 48652.4 44102.8 42305.5 42276.6 36750.6 80509.1 62890.7 39471.9 35055.7 34330.4 33367.4
threshold=29.500000000000004 49252.500000000007 3.750000000017089 300.50000000000006 1.0000000180025095e-35 20.500000000000004 1.5000000000000002 4197.5000000000009 27.250000000000004 1.0000000180025095e-35 1.5000000000000002 1.0000000180025095e-35 2.0000000009313248 4.0000000000000044 1.0000000000000011 3.0000000000000018 9.0000000000007976 2186.5000000000005 10.500000000000002 13.500000000000002 1.0000000180025095e-35 1.5000000000000002 1.5000000000000002 4.0000000000000044 5.5665969848634154 2.5000000000000004 2.1282046411669184 4.5000000000000009 1.5712895421320356 1.5000000000000002
decision_type=2 2 2 2 2 2 2 2 2 2 2 2 2 2 2 2 2 2 2 2 2 2 2 2 2 2 2 2 2 2
left_child=8 2 4 23 7 12 21 22 13 -10 -3 -12 -6 -1 29 -14 18 -13 20 27 -15 -7 -2 25 -25 26 -4 -11 -16 -8
right_child=1 10 3 -5 5 6 14 -9 9 19 11 17 15 16 28 -17 -18 -19 -20 -21 -22 -23 -24 24 -26 -27 -28 -29 -30 -31
leaf_value=-0.025791801249085353 0.025397198695011731 -0.052455024829274305 -0.060242610436880999 -0.0042995032787009812 -0.054463705291911219 0.11102891437900889 0.13079925040535234 -0.050241727518037071 -0.073858445893269398 -0.066961072348014905 0.054501050735341922 0.034430167322993796 0.070726448268703154 0.052073296613319858 0.11724731397287735 -0.047226557034386718 -0.046386393409760716 0.12597031651633714 -0.061045980397788718 -0.022457339509231941 0.15248815696710816 -0.06911548015492805 -0.013436469201598973 0.085559950733565496 0.033993122587743639 0.052625864128975158 0.018610047425176 -0.037947580509986367 0.072232502199921819 0.014120923800032346
leaf_weight=132882 101809 20251 21578 238006 182061 3695 6748 291541 287649 140005 492051 19169 30314 47825 66684 21357 18146 92230 7861 401437 14176 27625 224915 149769 153030 145082 60003 406095 116094 66636
leaf_count=132882 101809 20251 21578 238006 182061 3695 6748 291541 287649 140005 492051 19169 30314 47825 66684 21357 18146 92230 7861 401437 14176 27625 224915 149769 153030 145082 60003 406095 116094 66636
internal_value=0 0.0217899 0.00897207 0.0318511 -0.00643754 0.0148662 0.0574951 -0.0243972 -0.0378706 -0.0445647 0.06098 0.0647867 -0.0375658 -0.000438221 0.0703769 0.0219733 0.0378428 0.110219 0.0597205 -0.0356719 0.0750323 -0.0478628 -0.00133568 0.0481017 0.0594989 0.0328762 -0.00224631 -0.0453858 0.0886555 0.02485
internal_weight=0 2.53065e+06 1.90695e+06 767468 1.13948e+06 521214 287482 618265 1.45608e+06 1.23519e+06 623701 603450 233732 220890 256162 51671 88008 111399 69862 947537 62001 31320 326724 529462 302799 226663 81581 546100 182778 73384
internal_count=3986724 2530648 1906947 767468 1139479 521214 287482 618265 1456076 1235186 623701 603450 233732 220890 256162 51671 88008 111399 69862 947537 62001 31320 326724 529462 302799 226663 81581 546100 182778 73384
is_linear=0
shrinkage=0.05


Tree=22
num_leaves=31
num_cat=0
split_feature=13 10 12 3 2 0 17 0 12 10 14 0 14 19 10 12 9 14 10 0 10 12 10 10 4 10 13 10 10 10
split_gain=1.33917e+06 483969 264858 243569 198271 288053 107023 102535 91711.5 70506.9 70226 69358.6 68579.7 66617.9 55981.5 48990.9 41560.7 87782.8 44578.6 81392.2 47914.1 41124 35768.2 34698.4 38937.2 36327.2 37642 34071.3 33587.2 31535.2
threshold=37.500000000000007 679.50000000000011 19.500000000000004 2.7812501142034312 12.000491261482997 3.000030517578129 4.5000000000000009 15.000000000116417 14.500000000000002 10.500000000000002 1.0000000180025095e-35 11.000000000000005 2.5000000000000004 4.5000000000000009 1.0000000180025095e-35 1.5000000000000002 2.5000000000000004 10800.500000000002 50952.000000000007 1.0000000180025095e-35 28518.500000000004 122312.50000000001 1.5000000000000002 1320.5000000000002 11.595158040523531 37517.500000000007 10.500000000000002 40125.500000000007 219133.00000000003 10.500000000000002
decision_type=2 2 2 2 2 2 2 2 2 2 2 2 2 2 2 2 2 2 2 2 2 2 2 2 2 2 2 2 2 2
left_child=4 3 -3 9 5 21 22 -5 10 -2 14 -10 -12 -8 -7 -14 18 -18 20 -20 -4 23 -6 24 -1 26 -25 -27 -21 -17
right_child=1 2 16 7 6 8 13 -9 11 -11 12 -13 15 -15 -16 29 17 -19 19 28 -22 -23 -24 25 -26 27 -28 -29 -30 -31
leaf_value=-0.025004177312464251 -0.027848199180663249 -0.049173829267570225 0.043051072758445386 0.039787554843700973 -0.044646214435014167 0.12310953953021497 -0.063718701844534584 -0.0047637199318428837 -0.01353487849424316 0.062472601221080726 -0.11133042174079516 0.2447812012022971 0.030397544411550632 -0.02553171755498216 -0.067019226149277425 0.15724105244527736 0.050374957931754429 0.10371507795746118 0.051775997941338442 0.091495970159642934 -0.052672295912990733 0.082967740046801297 -0.076232013645783442 -0.076777909706730443 0.11191455187904109 0.047796082288616953 0.016854786935441624 -0.038997361481409074 0.18208228537952098 -0.0041346523407123107
leaf_weight=313449 416611 58148 40725 412183 147012 44447 136590 188080 89830 22789 7488 2676 91403 697008 4241 13688 161905 147316 492051 31613 19253 7795 229631 103945 5280 14140 11970 56440 15130 3887
leaf_count=313449 416611 58148 40725 412183 147012 44447 136590 188080 89830 22789 7488 2676 91403 697008 4241 13688 161905 147316 492051 31613 19253 7795 229631 103945 5280 14140 11970 56440 15130 3887
internal_value=0 0.0287985 0.0542762 0.00512244 -0.0291602 -0.00933741 -0.0417833 0.0258283 0.0337959 -0.0231638 0.0561213 -0.00606235 0.0350405 -0.0317889 0.106548 0.0450978 0.0609011 0.0757867 0.0532138 0.0577657 0.0123238 -0.0310008 -0.0639034 -0.0327592 -0.022736 -0.0498893 -0.0671089 -0.0216092 0.120817 0.12155
internal_weight=0 2.0058e+06 966141 1.03966e+06 1.98092e+06 770679 1.21024e+06 600263 257660 439400 165154 92506 116466 833598 48688 108978 907993 309221 598772 538794 59978 513019 376643 505224 318729 186495 115915 70580 46743 17575
internal_count=3986724 2005804 966141 1039663 1980920 770679 1210241 600263 257660 439400 165154 92506 116466 833598 48688 108978 907993 309221 598772 538794 59978 513019 376643 505224 318729 186495 115915 70580 46743 17575
is_linear=0
shrinkage=0.05


Tree=23
num_leaves=31
num_cat=0
split_feature=13 10 11 2 8 0 10 11 11 12 9 14 10 10 12 0 11 6 11 4 13 14 10 10 10 2 14 14 12 11
split_gain=1.2086e+06 436782 328994 217752 179727 91419.9 77605.2 136350 110863 89799.3 110241 102428 60540.4 52966.6 49990.7 65329.8 84507.7 44172.1 43236.8 49353.5 42749.1 56945.8 38402.9 38008.7 36753.7 36234.3 70232.5 37073.9 34750.8 33073
threshold=37.500000000000007 679.50000000000011 8.5000000000000018 2.1250000000000147 32227.500000000004 19.000001907348636 4.5000000000000009 1.0000000180025095e-35 1.0000000180025095e-35 1.0000000180025095e-35 27.500000000000004 4.5000000000000009 10.500000000000002 35990.500000000007 30.500000000000004 1.0000000180025095e-35 6844.5000000000009 3.9882812500000004 37301.000000000007 3.2499847412109379 5.5000000000000009 885.50000000000011 37517.500000000007 219133.00000000003 41773.500000000007 2.1250000000000147 900.50000000000011 35496.500000000007 10.500000000000002 42181.000000000007
decision_type=2 2 2 2 2 2 2 2 2 2 2 2 2 2 2 2 2 2 2 2 2 2 2 2 2 2 2 2 2 2
left_child=4 3 22 12 6 -5 7 9 13 10 11 -1 -2 -8 -4 -16 -17 -10 20 -20 28 -22 -3 -18 -15 -19 -27 -28 -9 -21
right_child=1 2 14 5 -6 -7 8 18 17 -11 -12 -13 -14 24 15 16 23 25 19 29 21 -23 -24 -25 -26 26 27 -29 -30 -31
leaf_value=0.12961445519658954 -0.026290645120190671 -0.079986965594645645 -0.037035556282170055 0.037305135025459527 -0.053249770602577878 -0.0049739543643110701 -0.077728228278319433 -0.061870216902248788 0.069545191018426628 -0.0069224487797949945 -0.076865022834007146 0.032531641426442159 0.058256526313313517 0.025772419196559922 0.04918720054038081 0.0480002961498113 0.089993341584586731 -0.053241802944542428 -0.019616915120777734 0.13641588004171193 -0.019982450296122955 0.13788200359643885 -0.004969253951829896 0.16811824711030521 -0.059697488749300032 -0.020361535735317151 0.12708092098250381 0.012344560415073409 0.00048926125549737483 -0.02127585875549827
leaf_weight=40610 415193 44413 13119 417946 510878 184213 139355 139832 13851 151720 15497 82088 22311 24623 492051 155146 216940 75948 39367 10435 43076 6586 27700 16772 25713 600711 11882 17279 26589 4880
leaf_count=40610 415193 44413 13119 417946 510878 184213 139355 139832 13851 151720 15497 82088 22311 24623 492051 155146 216940 75948 39367 10435 43076 6586 27700 16772 25713 600711 11882 17279 26589 4880
internal_value=0 0.0273585 0.0515624 0.00486632 -0.0277022 0.0243711 -0.0188238 -0.00419319 -0.0278444 0.0196356 0.0487928 0.0646636 -0.0219791 -0.0618491 0.0598489 0.0612918 0.0766087 -0.0188815 -0.0297073 0.0100109 -0.0397583 0.000952979 -0.0511712 0.0955999 -0.0178879 -0.0206168 -0.0166829 0.0590953 -0.0519071 0.0861687
internal_weight=0 2.0058e+06 966141 1.03966e+06 1.98092e+06 602159 1.47004e+06 560680 909362 289915 138195 122698 437504 189691 894028 880909 388858 719671 270765 54682 216083 49662 72113 233712 50336 705820 629872 29161 166421 15315
internal_count=3986724 2005804 966141 1039663 1980920 602159 1470042 560680 909362 289915 138195 122698 437504 189691 894028 880909 388858 719671 270765 54682 216083 49662 72113 233712 50336 705820 629872 29161 166421 15315
is_linear=0
shrinkage=0.05


Tree=24
num_leaves=31
num_cat=0
split_feature=13 10 11 12 19 1 19 0 3 12 10 3 13 12 15 0 0 11 0 11 11 15 11 6 15 10 11 11 9 10
split_gain=1.09076e+06 394261 283777 198841 163609 91223.2 108575 131972 77098 74949.9 61724.2 53422.9 57399 54858.9 51543.4 51035.3 47803.6 46917.3 42949 100647 41989 41050.6 38550.9 38486.6 36261.9 35383.3 34153 34135.8 33838.3 31591.6
threshold=37.500000000000007 116.50000000000001 4.5000000000000009 18.500000000000004 14.500000000000002 2.0312500000000013 436.50000000000006 4.999999999767172 9.3216341036947075 295.50000000000006 1.0000000180025095e-35 2.9999999999708966 389.50000000000006 1.5000000000000002 2.5000000000000004 5.0000000000000044 5.3671106919655402 86190.000000000015 1.0000000180025095e-35 6844.5000000000009 101.50000000000001 5.5000000000000009 123134.50000000001 6.5078125000000009 92950.000000000015 219133.00000000003 3659.5000000000005 4197.5000000000009 18.500000000000004 1.5000000000000002
decision_type=2 2 2 2 2 2 2 2 2 2 2 2 2 2 2 2 2 2 2 2 2 2 2 2 2 2 2 2 2 2
left_child=4 3 -3 11 8 22 -7 -8 15 -4 27 17 -13 26 -10 -1 -9 -2 -11 -20 -12 -18 23 -6 -17 -21 -14 -5 -28 -15
right_child=1 2 9 10 5 6 7 16 14 18 20 12 13 29 -16 24 21 -19 19 25 -22 -23 -24 -25 -26 -27 28 -29 -30 -31
leaf_value=-0.021724400775144023 -0.058984420072210289 -0.051358476344200189 0.0084964415908265738 -0.013478088184536866 -0.054013817077748855 -0.018971338358380982 -0.0018969605692424768 0.098379613075958508 -0.062604378732798116 0.046727841355034633 -0.014125797152590523 -0.02548825273706349 0.035822308206543634 -0.06911152678459713 -0.037003332154065947 0.065603756021253332 -0.062507887377581658 0.12534169975931822 0.042328734933142334 0.084736812654938543 0.030704528966819064 0.057607859625407709 0.085644996772423765 -0.01467394870899732 -0.20314520502218311 0.16024425745745066 -0.14498546639730275 -0.045356109826510498 0.10464388611871514 0.092988219094750718
leaf_weight=123654 25249 69833 87326 157957 168084 421090 205226 57029 315550 492051 131281 33228 220812 3163 521585 26728 9809 3999 204895 225983 86743 25881 6303 98664 1317 16659 5011 179308 1862 60444
leaf_count=123654 25249 69833 87326 157957 168084 421090 205226 57029 315550 492051 131281 33228 220812 3163 521585 26728 9809 3999 204895 225983 86743 25881 6303 98664 1317 16659 5011 179308 1862 60444
internal_value=0 0.0259906 0.0461724 0.00164192 -0.0263171 -0.0119712 -0.00262803 0.0204702 -0.0407102 0.0528048 -0.0170231 0.0309393 0.0367724 0.0438745 -0.0466534 -0.007913 0.0699781 -0.033782 0.0569228 0.0681319 0.00371039 0.0245954 -0.036575 -0.0394629 0.0529832 0.0899209 0.0324058 -0.0304261 -0.0773571 0.0849274
internal_weight=0 2.0058e+06 1.09675e+06 909057 1.98092e+06 992086 719035 297945 988834 1.02691e+06 555289 353768 324520 291292 837135 151699 92719 29248 939588 447537 218024 35690 273051 266748 28045 242642 227685 337265 6873 63607
internal_count=3986724 2005804 1096747 909057 1980920 992086 719035 297945 988834 1026914 555289 353768 324520 291292 837135 151699 92719 29248 939588 447537 218024 35690 273051 266748 28045 242642 227685 337265 6873 63607
is_linear=0
shrinkage=0.05


Tree=25
num_leaves=31
num_cat=0
split_feature=13 10 11 3 3 0 15 8 12 0 10 0 12 11 1 10 12 11 12 12 0 1 9 10 4 19 10 10 17 5
split_gain=984592 360670 269752 176048 148979 225284 90207.7 80907.5 71585.5 63351.8 52640.1 46576.8 73238.4 34463.5 34247.8 34053.2 33218.6 31482 39453.4 38906.5 30615.8 50047.3 45443.7 29274.3 47957.6 29012 28615.3 29340 28214.7 28189.8
threshold=34.500000000000007 679.50000000000011 29.500000000000004 2.7812501142034312 11.352239241523087 3.000030517578129 9.5000000000000018 300.50000000000006 14.500000000000002 11.000000000000005 10.500000000000002 1.0000000180025095e-35 10800.500000000002 123134.50000000001 2.0000000027939704 37517.500000000007 19.500000000000004 37301.000000000007 10.500000000000002 1.5000000000000002 6.0312500000006839 4.7500000000000018 21.500000000000004 78003.500000000015 1.0312500002328309 1.0000000180025095e-35 40125.500000000007 122995.50000000001 4.5000000000000009 11.500976562500002
decision_type=2 2 2 2 2 2 2 2 2 2 2 2 2 2 2 2 2 2 2 2 2 2 2 2 2 2 2 2 2 2
left_child=4 3 -3 10 5 13 25 -5 20 -10 -2 -4 16 14 15 -1 -13 18 -16 -19 21 -7 -23 24 -14 -6 -17 -28 -27 -22
right_child=1 2 11 7 6 8 -8 -9 9 -11 -12 12 23 -15 17 26 -18 19 -20 -21 29 22 -24 -25 -26 28 27 -29 -30 -31
leaf_value=-0.060646241506812852 -0.023916229518408202 -0.040090459734618944 0.044391458256810158 0.033760359573535396 -0.062379032185615704 0.020216524103178299 -0.021260021517531369 -0.0056232134490969039 -0.011786837850773609 0.26427626798498965 0.054080558953853046 -0.051838624931387772 0.022110122904021347 0.083704588352767992 -0.048319242306871395 0.046393225461108627 0.047807114596540634 0.047023549731622566 -0.0086037283660347387 -0.048410083123004509 -0.05041638435513579 0.090035598271593562 -0.055884370781417794 0.115822095191358 0.089034347645838285 -0.056133707506972746 -0.04465281197103365 0.077539269367484329 -0.029493614604439736 0.089526108978064581
leaf_weight=124274 416648 82130 492051 423046 242914 54405 554594 188518 87052 2129 22817 8826 33756 6940 107278 14138 159711 35138 149921 15343 12859 84992 5693 60843 129326 170077 51740 5428 239140 4997
leaf_count=124274 416648 82130 492051 423046 242914 54405 554594 188518 87052 2129 22817 8826 33756 6940 107278 14138 159711 35138 149921 15343 12859 84992 5693 60843 129326 170077 51740 5428 239140 4997
internal_value=0 0.0245467 0.0465899 0.00427335 -0.0251528 -0.00784917 -0.0360841 0.0216202 0.0308165 -0.00519644 -0.0198666 0.0546385 0.0674857 -0.0269567 -0.0284827 -0.0448425 0.0425888 -0.0180834 -0.0251691 0.0180178 0.0505265 0.0581297 0.0808751 0.0862243 0.0751818 -0.048691 -0.0172993 -0.0330509 -0.0405657 -0.0112535
internal_weight=0 2.01767e+06 966643 1.05103e+06 1.96905e+06 762327 1.20672e+06 611564 252127 89181 439465 884513 392462 510200 503260 195580 168537 307680 257199 50481 162946 145090 90685 223925 163082 652131 71306 57168 409217 17856
internal_count=3986724 2017672 966643 1051029 1969052 762327 1206725 611564 252127 89181 439465 884513 392462 510200 503260 195580 168537 307680 257199 50481 162946 145090 90685 223925 163082 652131 71306 57168 409217 17856
is_linear=0
shrinkage=0.05


Tree=26
num_leaves=31
num_cat=0
split_feature=13 10 11 0 7 8 10 11 11 9 0 15 10 10 11 12 0 13 10 11 4 6 13 14 13 10 10 11 4 14
split_gain=888926 329301 244582 152827 134382 76499.9 62265.8 104531 88559.8 69221.3 119231 48264.1 45774.6 45406.6 40018.6 39728.3 49258.7 64479.2 37157.4 36104.3 42161.8 35830.3 35595.2 47092.7 35525.4 33481.5 31497.6 30777.4 30636 44865.1
threshold=31.500000000000004 679.50000000000011 7.5000000000000009 2.0000305175781397 34899.500000000007 92.500000000000014 4.5000000000000009 1.0000000180025095e-35 1.0000000180025095e-35 27.500000000000004 4.999999999767172 900.50000000000011 1.0000000180025095e-35 35990.500000000007 4197.5000000000009 30.500000000000004 1.0000000180025095e-35 10737.500000000002 1.5000000000000002 37301.000000000007 3.2499847412109379 3.9882812500000004 5.5000000000000009 885.50000000000011 84794.000000000015 37517.500000000007 41773.500000000007 1.0000000180025095e-35 3.9399414062500004 72.500000000000014
decision_type=2 2 2 2 2 2 2 2 2 2 2 2 2 2 2 2 2 2 2 2 2 2 2 2 2 2 2 2 2 2
left_child=4 3 25 12 6 24 7 9 13 10 -1 -12 14 -8 -2 -4 -17 -18 -14 22 -21 -10 -9 -24 -5 -3 -15 -7 -23 -30
right_child=1 2 15 5 -6 27 8 19 21 -11 11 -13 18 26 -16 16 17 -19 -20 20 -22 28 23 -25 -26 -27 -28 -29 29 -31
leaf_value=0.0033063668110689028 -0.0070540370634565967 -0.071666330427764879 -0.033132315495242634 0.045942884406516671 -0.047081737209950243 -0.12499878645867879 -0.06929620983908745 -0.045806934345496132 0.063764653553762582 -0.042877405312376979 0.037214756931673358 0.11447853765081284 0.097675981390825992 0.026397660516718987 -0.041877205103701104 0.042171876884959103 0.041449256294408258 0.082813608833071872 0.00041928339102933755 -0.016809568471060368 0.080987026180161722 -0.054153941803601037 -0.016580122250137243 0.12746953934440922 0.015067011883097781 -0.001205475939010393 -0.052727327816636721 0.00015499547641282792 -0.019272416559718546 0.026648263442982812
leaf_weight=169317 141284 44151 13693 231636 478542 5018 141885 168775 13599 41059 39167 41765 11075 24622 198297 492051 158995 231223 86719 39311 15314 54590 43401 6527 155840 27275 25711 233188 594275 58419
leaf_count=169317 141284 44151 13693 231636 478542 5018 141885 168775 13599 41059 39167 41765 11075 24622 198297 492051 158995 231223 86719 39311 15314 54590 43401 6527 155840 27275 25711 233188 594275 58419
internal_value=0 0.0231747 0.0442828 0.00396624 -0.0240533 0.0198167 -0.0165959 -0.0035441 -0.0246668 0.0172948 0.0271674 0.0770868 -0.0187085 -0.0548221 -0.0273889 0.0513813 0.0526929 0.0659596 0.0114334 -0.0257538 0.0106075 -0.0166261 -0.0348357 0.00225124 0.0335248 -0.0447599 -0.0140208 -0.00248147 -0.0181718 -0.0151623
internal_weight=0 2.03044e+06 967388 1.06306e+06 1.95628e+06 625682 1.47774e+06 564636 913101 291308 250249 80932 437375 192218 339581 895962 882269 390218 97794 273328 54625 720883 218703 49928 387476 71426 50333 238206 707284 652694
internal_count=3986724 2030445 967388 1063057 1956279 625682 1477737 564636 913101 291308 250249 80932 437375 192218 339581 895962 882269 390218 97794 273328 54625 720883 218703 49928 387476 71426 50333 238206 707284 652694
is_linear=0
shrinkage=0.05


Tree=27
num_leaves=31
num_cat=0
split_feature=13 10 11 19 11 12 1 19 0 12 8 15 10 11 12 5 10 14 11 10 10 3 10 11 9 15 12 9 11 10
split_gain=803876 332007 185088 160511 150422 91016.3 68792.6 77822.9 83532.2 65330 59934.7 45054.6 44604.8 42302.1 87732.4 74338.8 54890.1 38794.3 34277.4 33933.3 33074.4 32810.9 31568.2 31333.6 30855.2 27815 27698.2 25599.4 26158.9 25395.7
threshold=240.50000000000003 1.0000000180025095e-35 1.5000000000000002 14.500000000000002 4197.5000000000009 1.0000000180025095e-35 2.0312500000000013 412.50000000000006 4.999999999767172 1.5000000000000002 27.250000000000004 1.0000000180025095e-35 1.0000000180025095e-35 2030.5000000000002 8.5000000000000018 1.0000076293945315 20.500000000000004 4.5000000000000009 27.500000000000004 9.5000000000000018 10.500000000000002 1.5712895421320356 9.5000000000000018 123134.50000000001 6.2500000000000009 2100.5000000000005 4.5000000000000009 18.500000000000004 37301.000000000007 192773.50000000003
decision_type=2 2 2 2 2 2 2 2 2 2 2 2 2 2 2 2 2 2 2 2 2 2 2 2 2 2 2 2 2 2
left_child=3 4 20 10 9 -4 23 18 -9 -2 22 -12 25 14 19 -15 -16 -14 -8 -7 -3 -17 -1 24 -5 -10 -13 28 -6 -24
right_child=1 2 5 6 27 13 7 8 12 -11 11 26 17 15 16 21 -18 -19 -20 -21 -22 -23 29 -25 -26 -27 -28 -29 -30 -31
leaf_value=0.0069957156498524024 0.030123405421898636 0.032452291301475138 -0.094264414393835386 -0.046458453270498475 -0.095932967586623258 0.10179745764566339 -0.021136330856063212 0.00048855380583853866 0.042934392020945983 -0.012072725765087826 -0.057305935963460557 -0.05181306387622147 -0.086597113244395785 0.041115642144964153 -0.037617576684246701 0.091937285261294271 0.02658975449224445 0.037244237179386554 0.0051454021215915531 -0.020887282620579067 -0.049412277449547071 0.05724584344908739 -0.049191055165864167 0.07632705544001045 -0.0125703756588487 0.10983306458575821 -0.026434071001394194 0.11236940300058643 -0.036928479877858154 0.40740369984133817
leaf_weight=113633 215866 15197 11735 157823 20941 45856 370410 214894 27105 159511 267883 141720 7633 595432 40878 121519 179230 36869 186541 6426 65579 155213 37931 6837 116940 36408 445351 2686 182370 307
leaf_count=113633 215866 15197 11735 157823 20941 45856 370410 214894 27105 159511 267883 141720 7633 595432 40878 121519 179230 36869 186541 6426 65579 155213 37931 6837 116940 36408 445351 2686 182370 307
internal_value=0 0.0245169 0.0391631 -0.0205612 -0.00664782 0.0442749 -0.00789518 -0.00101106 0.0185182 0.0121928 -0.0351725 -0.0403141 0.0543878 0.0456953 0.028495 0.0510672 0.0146653 0.0160029 -0.0123337 0.0867182 -0.0340105 0.0724796 -0.00622798 -0.0294046 -0.0320356 0.0812832 -0.0325606 -0.04098 -0.0430059 -0.0455252
internal_weight=0 1.81844e+06 1.23706e+06 2.16828e+06 581374 1.15629e+06 1.16146e+06 879860 322909 375377 1.00682e+06 854954 108015 1.14455e+06 272390 872164 220108 44502 556951 52282 80776 276732 151871 281600 274763 63513 587071 205997 203311 38238
internal_count=3986724 1818439 1237065 2168285 581374 1156289 1161460 879860 322909 375377 1006825 854954 108015 1144554 272390 872164 220108 44502 556951 52282 80776 276732 151871 281600 274763 63513 587071 205997 203311 38238
is_linear=0
shrinkage=0.05


Tree=28
num_leaves=31
num_cat=0
split_feature=13 10 11 19 11 12 1 19 2 12 8 15 10 11 12 6 10 14 11 11 10 10 13 10 15 11 0 12 13 19
split_gain=725498 299637 167042 144861 135756 82142.2 62085.4 70235.2 75932.1 58960.3 54091 40661.8 40129.6 38177.7 79178.5 67079 49538.3 34826 31080.3 31010.8 30624.8 29849.7 28930 28490.3 27090.1 26305.3 34162.6 24997.6 24514.3 28646.5
threshold=240.50000000000003 1.0000000180025095e-35 1.5000000000000002 14.500000000000002 4197.5000000000009 1.0000000180025095e-35 2.0312500000000013 412.50000000000006 4.7500000000000151 1.5000000000000002 27.250000000000004 1.0000000180025095e-35 1.0000000180025095e-35 2030.5000000000002 8.5000000000000018 1.0019531250000002 20.500000000000004 4.5000000000000009 12091.500000000002 25.500000000000004 9.5000000000000018 10.500000000000002 20.500000000000004 9.5000000000000018 4245.0000000000009 38276.500000000007 2.0000000000145808 4.5000000000000009 90530.000000000015 899.50000000000011
decision_type=2 2 2 2 2 2 2 2 2 2 2 2 2 2 2 2 2 2 2 2 2 2 2 2 2 2 2 2 2 2
left_child=3 4 21 10 9 -4 22 19 -9 28 23 -12 24 14 20 -15 -16 -14 -17 -8 -7 -3 25 -1 -10 -5 -27 -13 -2 -30
right_child=1 2 5 6 -6 13 7 8 12 -11 11 27 17 15 16 18 -18 -19 -20 -21 -22 -23 -24 -25 -26 26 -28 -29 29 -31
leaf_value=0.0066459290744415901 0.044905531880640781 0.030829677537388574 -0.089551193846549776 -0.039527166669293956 -0.038930992992097228 0.096707582614718318 -0.020320926960263705 -0.001253422376925023 0.039732950819951422 -0.011469093297373912 -0.054440639261378515 -0.049222410943575816 -0.07788020385320886 0.03906064844658267 -0.035736697185023113 0.045574530437741081 0.025260266751768491 0.033733715792849381 0.080915034153670684 0.0044615757147117253 -0.019842918021335934 -0.046941662627434155 0.046598855057390261 -0.043248950193149706 0.10342296327095889 -0.010514598865849673 0.16139381076569326 -0.025112367508570821 -0.20896403307393041 0.014306713123955546
leaf_weight=113633 111588 15197 11735 211660 205997 45856 363591 201297 30535 159511 267883 141720 8241 595430 40878 94446 179230 45998 182288 193360 6426 65579 12444 38238 36838 54444 3052 445351 1457 102821
leaf_count=113633 111588 15197 11735 211660 205997 45856 363591 201297 30535 159511 267883 141720 8241 595430 40878 94446 179230 45998 182288 193360 6426 65579 12444 38238 36838 54444 3052 445351 1457 102821
internal_value=0 0.023291 0.037205 -0.0195331 -0.00631543 0.0420611 -0.00750042 -0.000960508 0.0175923 0.0115831 -0.0334138 -0.0382984 0.0487864 0.0434106 0.0270702 0.0485139 0.013932 0.0167752 0.0688537 -0.011717 0.0823823 -0.03231 -0.0279344 -0.00591658 0.0745572 -0.0313803 -0.00138936 -0.0309326 0.0286172 0.0111871
internal_weight=0 1.81844e+06 1.23706e+06 2.16828e+06 581374 1.15629e+06 1.16146e+06 879860 322909 375377 1.00682e+06 854954 121612 1.14455e+06 272390 872164 220108 54239 276734 556951 52282 80776 281600 151871 67373 269156 57496 587071 215866 104278
internal_count=3986724 1818439 1237065 2168285 581374 1156289 1161460 879860 322909 375377 1006825 854954 121612 1144554 272390 872164 220108 54239 276734 556951 52282 80776 281600 151871 67373 269156 57496 587071 215866 104278
is_linear=0
shrinkage=0.05


Tree=29
num_leaves=31
num_cat=0
split_feature=19 10 3 9 10 11 12 11 8 15 11 0 1 0 10 1 10 10 10 10 10 10 11 12 18 18 10 10 11 5
split_gain=605396 232839 145770 91020.1 86292.1 227283 77426.7 73945.5 71768.9 64050.9 50427.3 65680.2 46236.1 44426.9 40911.2 37851.6 35575.4 34362.6 33495.9 34045.8 28596 31554.9 28460.6 48885.5 26688.4 26574 25840.8 30906.2 25607.3 48597.3
threshold=29.500000000000004 49252.500000000007 3.750000000017089 193.50000000000003 1.0000000180025095e-35 8.5000000000000018 1.0000000180025095e-35 4197.5000000000009 27.250000000000004 1.0000000180025095e-35 1.5000000000000002 1.0000000180025095e-35 4.00000000023286 1.0000000000000011 6.5000000000000009 9.4139826402013131 28799.500000000004 1.5000000000000002 13.500000000000002 1.0000000180025095e-35 37517.500000000007 41773.500000000007 3.5000000000000004 3714.5000000000005 87235.000000000015 36.500000000000007 1.5000000000000002 12325.500000000002 35784.500000000007 4.2504882812500009
decision_type=2 2 2 2 2 2 2 2 2 2 2 2 2 2 2 2 2 2 2 2 2 2 2 2 2 2 2 2 2 2
left_child=8 2 4 -4 7 14 17 -2 12 24 -3 -12 -1 16 22 18 26 -7 19 -14 -16 -22 -6 -24 -10 -11 -8 -28 -9 -30
right_child=1 10 3 -5 5 6 13 28 9 25 11 -13 15 -15 20 -17 -18 -19 -20 -21 21 -23 23 -25 -26 -27 27 -29 29 -31
leaf_value=-0.017589504751401953 -0.0015386823886192917 -0.036310182620275924 0.035272893398646393 -0.0011107969575986562 0.08801874166266839 0.11050571879852411 0.1177342179281583 -0.062484276070916056 -0.051747218859842396 -0.02645656066849271 0.036054462405144476 0.078571404429182493 0.038252969025729298 0.058967938902940033 -0.052705757331356698 -0.037119076005602915 -0.090677369745601796 -0.054945641058314426 -0.048637541914869103 0.12729827498474786 0.024625635243476312 -0.065818647328115681 0.070858545848640028 -0.045971611915544837 0.27959934042396606 0.005739354668375731 -0.0022262376568860753 0.092582275960792604 -0.033782594282158872 0.064405520785894302
leaf_weight=135540 326724 20251 507539 259929 9623 3536 6748 70227 287040 878402 492051 111399 46032 196662 126183 17105 7387 27898 8214 13999 28834 14490 13330 27274 609 69135 48816 10433 207899 13415
leaf_count=135540 326724 20251 507539 259929 9623 3536 6748 70227 287040 878402 492051 111399 46032 196662 126183 17105 7387 27898 8214 13999 28834 14490 13330 27274 609 69135 48816 10433 207899 13415
internal_value=0 0.0147794 0.00610581 0.0229503 -0.0052394 0.00974646 0.0379345 -0.0178729 -0.0256865 -0.0303808 0.0412988 0.0439032 0.000563163 0.0465796 -0.0289282 0.0293905 0.0133799 -0.0363341 0.0460605 0.059018 -0.0406722 -0.00562406 0.0107058 -0.00761711 -0.0510457 -0.0241075 0.025027 0.0144683 -0.0361783 -0.0278309
internal_weight=0 2.53065e+06 1.90695e+06 767468 1.13948e+06 521214 301480 618265 1.45608e+06 1.23519e+06 623701 603450 220890 270046 219734 85350 73384 31434 68245 60031 169507 43324 50227 40604 287649 947537 65997 59249 291541 221314
internal_count=3986724 2530648 1906947 767468 1139479 521214 301480 618265 1456076 1235186 623701 603450 220890 270046 219734 85350 73384 31434 68245 60031 169507 43324 50227 40604 287649 947537 65997 59249 291541 221314
is_linear=0
shrinkage=0.05


Tree=30
num_leaves=31
num_cat=0
split_feature=13 10 12 19 12 3 19 8 0 0 0 12 12 10 10 15 8 8 10 0 10 5 13 18 10 17 8 0 10 10
split_gain=595010 244598 122478 119095 107261 50428.2 84997.2 45543.5 40156.1 36604.6 35706 32142.7 30082.1 28742.5 29680.8 27901 27895.8 50466.1 60608 47966.1 32568.6 29225.5 26346.4 25428.7 25419.9 25021.9 24977.4 24351 22797 22149.6
threshold=240.50000000000003 1.0000000180025095e-35 1.0000000180025095e-35 13.500000000000002 1.5000000000000002 3.9999999999417937 475.50000000000006 27.250000000000004 4.999999999767172 5.3671106919655402 2.1282046411669184 1.0000000180025095e-35 122312.50000000001 1.5000000000000002 35990.500000000007 5.5000000000000009 88.500000000000014 2.2500000000000004 50952.000000000007 1.0000000180025095e-35 1.5000000000000002 2.7506713867187504 2.5000000000000004 27.500000000000004 7.5000000000000009 1.0000000180025095e-35 18.250000000000004 2.2698163195579646 192773.50000000003 28799.500000000004
decision_type=2 2 2 2 2 2 2 2 2 2 2 2 2 2 2 2 2 2 2 2 2 2 2 2 2 2 2 2 2 2
left_child=3 4 13 7 10 12 23 24 22 -10 26 -9 -5 -3 -15 -11 17 18 20 -20 -4 -19 27 25 -1 -7 -2 -8 -26 -22
right_child=1 2 16 5 -6 6 8 11 9 15 -12 -13 -14 14 -16 -17 -18 21 19 -21 29 -23 -24 -25 28 -27 -28 -29 -30 -31
leaf_value=0.0071097191957370858 -0.054734447875538522 0.10117385039320444 0.087563265604222049 -0.023890599294594528 -0.023662548620425636 -0.06878102633891324 -0.056296144433472112 -0.050760452661644584 0.075015516558094866 -0.05810360591500318 0.026419777344151869 -0.02894495499652025 0.077449317922131625 -0.073824846909685382 0.0050045102188429813 0.035884869070600726 0.012168136278753199 0.079117192841121606 0.034251753855550481 0.086838531039039435 0.0038257937872418755 0.046426877907100164 0.050508738744707772 0.0043769352902949966 -0.042428599481146079 -0.014461805468185741 0.11308467028178418 0.0068982472783180515 0.39007543807406381 -0.05483905139786726
leaf_weight=110950 21740 3480 10355 374508 341401 22563 19186 234688 58642 10046 215764 601840 7469 35270 18053 36896 102339 87845 492051 47554 112969 308387 26372 199215 40235 351173 2469 74195 307 18762
leaf_count=110950 21740 3480 10355 374508 341401 22563 19186 234688 58642 10046 215764 601840 7469 35270 18053 36896 102339 87845 492051 47554 112969 308387 26372 199215 40235 351173 2469 74195 307 18762
internal_value=0 0.0210927 0.033664 -0.0176895 -0.00565677 -0.0069681 0.000181066 -0.030497 0.0261967 0.0486755 0.0199594 -0.0350653 -0.021909 -0.0380503 -0.0471364 0.0157705 0.0371154 0.0394839 0.0312358 0.0388861 0.00218194 0.0536744 0.00637758 -0.0100507 -0.00527116 -0.0177411 -0.0376191 -0.00608563 -0.0391535 -0.00452964
internal_weight=0 1.81844e+06 1.23706e+06 2.16828e+06 581374 1.18026e+06 798288 988020 225337 105584 239973 836528 381977 56803 53323 46942 1.18026e+06 1.07792e+06 681691 539605 142086 396232 119753 572951 151492 373736 24209 93381 40542 131731
internal_count=3986724 1818439 1237065 2168285 581374 1180265 798288 988020 225337 105584 239973 836528 381977 56803 53323 46942 1180262 1077923 681691 539605 142086 396232 119753 572951 151492 373736 24209 93381 40542 131731
is_linear=0
shrinkage=0.05


Tree=31
num_leaves=31
num_cat=0
split_feature=13 10 12 19 12 1 19 0 2 10 0 15 10 0 14 12 10 16 10 10 8 8 10 1 10 13 6 7 9 18
split_gain=536997 220750 110536 107483 96803 46349.7 52962.9 60536.2 41361 36866 33259.2 33554.2 32807.7 32224.6 31808.3 29604.7 27973.4 26451.5 25940.1 26787 25175.9 45545.6 54719.6 42633 29446.7 26768 24167.2 29670.2 22594.3 22187.9
threshold=240.50000000000003 1.0000000180025095e-35 1.0000000180025095e-35 13.500000000000002 1.5000000000000002 2.0312500000000013 475.50000000000006 4.492690565630169 9.3553058309710639 7.5000000000000009 5.0000000000000044 92950.000000000015 1.0000000180025095e-35 2.1282046411669184 5244.0000000000009 2.5000000000000004 3.5000000000000004 88076.000000000015 1.5000000000000002 35990.500000000007 88.500000000000014 2.2500000000000004 49252.500000000007 1.0000000180025095e-35 1.5000000000000002 8798.5000000000018 7.5312500000000009 3.5625000000000004 18.500000000000004 24.500000000000004
decision_type=2 2 2 2 2 2 2 2 2 2 2 2 2 2 2 2 2 2 2 2 2 2 2 2 2 2 2 2 2 2
left_child=3 4 18 8 13 26 29 -8 9 10 -1 17 -9 28 16 -10 -14 -12 -3 -20 21 22 24 -24 -4 -23 27 -5 -2 -7
right_child=1 2 20 5 -6 6 7 12 15 -11 11 -13 14 -15 -16 -17 -18 -19 19 -21 -22 25 23 -25 -26 -27 -28 -29 -30 -31
