tree
version=v4
num_class=1
num_tree_per_iteration=1
label_index=0
max_feature_idx=20
objective=binary sigmoid:1
feature_names=edc_0 edc_1 edc_2 edc_3 edc_4 edc_5 edc_6 edc_7 edc_8 edc_9 delta_0 delta_1 delta_2 delta_3 delta_4 delta_5 delta_6 delta_7 delta_8 delta_9 pre_read_count
feature_infos=[0:998914] [0:998914] [0:998914] [0:998914] [0:998914] [0:998914] [0:998914] [0:998914] [0:998914] [0:998914] [9.2029571533203125e-05:inf] [0.00010800361633300001:inf] [9.2983245849609375e-05:inf] [0.0001049041748046:inf] [9.7036361694335938e-05:inf] [8.6069107055664062e-05:inf] [9.7036361694335938e-05:inf] [8.9883804321289062e-05:inf] [9.2029571533203125e-05:inf] [9.1075897216796875e-05:inf] [0:66]
tree_sizes=3468 3570 3554 3563 3571 3569 3560 3560 3571 3565 3562 3561 3564 3562 3562 3564 3548 3556 3561 3568 3558 3564 3570 3559 3559 3564 3572 3571 3557 3570 3554 3567 3553 3549 3560 3562 3578 3556 3572 3567 3570 3556 3562 3573 3580 3561 3573 3576 3577 3581 3566 3577 3582 3578 3571 3561 3571 3590 3573 3584 3581 3565 3586 3571 3575 3581 3576 3569 3569 3597 3567 3564 3569 3575 3574 3562 3563 3574 3592 3561 3570 3559 3579 3566 3580 3560 3562 3557 3571 3573 3565 3564 3575 3581 3576 3568 3573 3567 3561 3571

Tree=0
num_leaves=31
num_cat=0
split_feature=14 12 17 10 11 11 10 13 12 10 12 13 11 10 11 10 11 13 10 10 11 10 12 20 12 10 11 10 11 10
split_gain=4.04333e+06 73213.7 43474.6 21535.5 16578.4 12872.2 12765.3 7585.04 5088.82 4634.46 3606.29 3083.76 2433.5 2359.75 2357.48 1530.95 1527.79 1459.04 1394.09 1381 1537.85 1366.52 1178.57 1169.03 1148.62 1139.82 1051.36 978.046 944.061 888.501
threshold=317.85045945644384 355.43704342842108 102.01919043064119 189.73070096969607 141.19204151630404 141.19204151630404 189.73070096969607 150.68768191337588 58.121449470520027 138.16405153274539 94.592241525650039 278.13151550292974 336.78776001930243 41.484063029289253 169.22441947460177 493.35889101028448 31.327376008033756 52.352031946182258 533.75697898864757 343.68317544460302 489.51029694080358 45.751084923744209 156.14282453060153 1.0000000180025095e-35 174.26533949375155 58.315034031867988 386.62620449066168 118.16110157966615 215.81255900859836 282.15896749496466
decision_type=2 2 2 2 2 2 2 2 2 2 2 2 2 2 2 2 2 2 2 2 2 2 2 2 2 2 2 2 2 2
left_child=2 4 8 5 6 13 10 9 17 14 25 26 18 16 22 -8 -3 -1 -5 20 -13 23 -4 -7 -9 -2 29 -10 -11 -6
right_child=1 3 7 12 11 21 15 24 27 28 -12 19 -14 -15 -16 -17 -18 -19 -20 -21 -22 -23 -24 -25 -26 -27 -28 -29 -30 -31
leaf_value=0.18650215081913477 0.20963271218073953 0.24045211747527154 0.20174113131982413 0.3382562830779825 0.27026670348519888 0.33344997186317404 0.29591996044232599 0.25758573715929134 0.20571058232450434 0.24537123366520724 0.27005792670424744 0.30984292094059585 0.35545441758766744 0.30913081170492751 0.24659006167583211 0.33299988727230434 0.29131031953438519 0.20168314639847951 0.35341021873971223 0.3443714160869209 0.33982274542821489 0.34367378249054276 0.23365576054182016 0.23298926458482982 0.28758987049978207 0.24396420388025997 0.31843839173806926 0.23153102357575889 0.28178411453979108 0.31202028459170289
leaf_weight=486824.36672127247 6050.9207430481911 2398.378276348114 18165.4675745368 33108.664090752602 4135.1012580394745 39254.141923546791 7226.89819252491 9443.0036292076111 19433.558778107166 7141.6257782578468 7005.2876488566399 11586.541997015476 1091054.1878743768 13083.573751211166 4503.8006079792976 4527.7452973723412 3842.3896468877792 16359.109526753426 28021.883596122265 9526.077041387558 6780.9894359707832 100950.81048107147 3440.7052656412125 291.7342768907547 4816.7919050455093 4026.3728215098381 3257.9437588453293 4520.6596239805222 2371.0129170417786 1841.5420811772346
leaf_count=1992458 24765 9816 74347 135506 16924 160658 29578 38648 79537 29229 28671 47421 4465429 53548 18433 18531 15726 66954 114687 38988 27753 413168 14082 1194 19714 16479 13334 18502 9704 7537
internal_value=0.303409 0.34994 0.192289 0.352525 0.298541 0.335325 0.270099 0.236904 0.188068 0.224569 0.242504 0.320632 0.354911 0.297064 0.213683 0.310203 0.271765 0.186996 0.345203 0.328923 0.320911 0.340587 0.206823 0.332709 0.267721 0.22335 0.295588 0.210583 0.254447 0.283132
internal_weight=0 1.37797e+06 577020 1.31201e+06 65965.4 159821 28837.2 49882.4 527138 35622.6 17082.6 37128.2 1.15218e+06 19324.3 26110 11754.6 6240.77 503183 61130.5 27893.6 18367.5 140497 21606.2 39545.9 14259.8 10077.3 9234.59 23954.2 9512.64 5976.64
internal_count=8001321 5639713 2361608 5369732 269981 654110 118024 204157 2157451 145795 69915 151957 4715622 79090 106862 48109 25542 2059412 250193 114162 75174 575020 88429 161852 58362 41244 37795 98039 38933 24461
is_linear=0
shrinkage=1


Tree=1
num_leaves=31
num_cat=0
split_feature=14 12 16 10 10 11 11 15 10 11 12 10 11 10 10 13 10 11 11 11 13 10 15 12 13 20 12 11 0 15
split_gain=3.62104e+06 62694.2 41651.7 19797.3 14571.5 11740.3 11329.4 6385.03 6117.18 3758.86 3102.36 2580.68 2599.26 2340.08 2158.96 1838.93 1818.9 1748.76 1607.55 1552.09 1344.56 1220.9 1195.68 1110.52 1075.98 998.16 882.058 793.562 763.124 733.473
threshold=380.89381051063543 355.43704342842108 107.96637105941774 189.73070096969607 138.16405153274539 163.30525445938113 169.22441947460177 63.632341146469123 151.49700093269351 131.30342447757724 94.592241525650039 397.6274340152741 264.70647358894354 448.40628051757818 45.751084923744209 216.87719345092776 55.676492094993598 336.78776001930243 36.491353988647468 489.51029694080358 140.49398541450503 31.639552474021915 195.43478941917422 194.73402404785159 233.95012247562411 1.0000000180025095e-35 184.25202858448031 46.215709447860725 2.7500000000000004 221.96041798591617
decision_type=2 2 2 2 2 2 2 2 2 2 2 2 2 2 2 2 2 2 2 2 2 2 2 2 2 2 2 2 2 2
left_child=2 4 7 5 6 14 10 16 9 15 27 12 24 17 18 23 -1 -5 28 -8 29 25 -10 -4 -6 -7 -11 -2 -3 -9
right_child=1 3 8 13 11 21 19 20 22 26 -12 -13 -14 -15 -16 -17 -18 -19 -20 -21 -22 -23 -24 -25 -26 -27 -28 -29 -30 -31
leaf_value=-0.10939990308194403 -0.09119188591858067 -0.065877186855875541 -0.091249019573103315 0.031844107382311825 -0.033814622106041733 0.027275522336475663 -0.0086657730473890977 -0.09196707984285879 -0.046267177838294676 -0.053444770836330625 -0.032156601260203185 0.032349451896771152 0.025499048122986336 0.050213687279294865 0.0075425179546313188 -0.043527645347905868 -0.093122653742457082 0.046021725514308137 -0.0073988533029593091 0.02869658645419031 -0.057944136275727309 0.038220404789510921 -0.016284347427135446 -0.055935820034873768 -0.00046024889758390056 -0.080682154214066742 -0.020336728436009335 -0.061610418122576893 0.0089860534338162736 -0.063847575303710269
leaf_weight=499168.85411675274 5165.5683142989874 2439.3388219177723 16649.189117670059 26654.760410785675 3368.2976145297289 27183.350702762604 7558.0448308438063 18202.033210396767 5925.6406375169754 6569.8407995402813 6067.2660728096962 15560.902559831738 9194.6691800057888 997617.56013062596 14001.95808775723 2855.9543381929398 17773.869065508246 118205.52041783929 4518.7233048826456 4396.571852594614 4391.2643909603357 110078.31753471494 7576.8090761303902 2570.0020513981581 8569.2767625302076 215.80800227820873 2899.6151218563318 4040.537550792098 395.61415779590607 2657.6430186331272
leaf_count=2014264 20911 9910 67309 109698 13746 111784 30920 73578 24076 26657 24725 63991 37753 4117733 57391 11615 71873 487915 18481 18086 17814 453359 30840 10427 35037 875 11800 16387 1608 10758
internal_value=0 0.0446772 -0.103803 0.0470519 -0.00366748 0.0305119 -0.0313806 -0.107641 -0.0576049 -0.0696595 -0.0599147 0.0168969 0.00551828 0.0493514 -0.00397858 -0.0809639 -0.10884 0.043413 -0.0259156 0.00507505 -0.0830908 0.0358696 -0.0294425 -0.0865269 -0.0098715 0.0264252 -0.0433069 -0.0782087 -0.0554301 -0.0883845
internal_weight=0 1.36523e+06 587241 1.30131e+06 63921.1 158833 27228 542194 45047.1 31544.6 15273.4 36693.1 21132.2 1.14248e+06 21355.6 22075.1 516943 144860 7353.68 11954.6 25250.9 137477 13502.4 19219.2 11937.6 27399.2 9469.46 9206.11 2834.95 20859.7
internal_count=8001321 5630310 2371011 5368754 261556 653408 111029 2188287 182724 127808 62023 150527 86536 4715346 87390 89351 2086137 597613 29999 49006 102150 566018 54916 77736 48783 112659 38457 37298 11518 84336
is_linear=0
shrinkage=0.05


Tree=2
num_leaves=31
num_cat=0
split_feature=14 12 17 11 11 13 19 13 12 13 12 0 11 11 12 15 11 0 16 14 11 11 12 15 0 11 13 11 12 1
split_gain=3.25986e+06 61405.5 34226 15920 13264 6004.71 4396.99 4123.2 3673.73 2527.22 2335.21 2221.92 2279.07 2143.17 1206 1178.94 1125.36 1103.67 914.93 907.378 839.413 825.951 717.796 668.568 595.768 581.925 556.024 553.964 443.155 431.169
threshold=317.85045945644384 280.41463994979864 111.56101512908937 256.06452596187597 141.19204151630404 150.68768191337588 52.901781558990486 117.28305554389955 184.25202858448031 278.13151550292974 58.121449470520027 1.7500000000000002 50.379583001136787 215.81255900859836 120.87310683727266 221.96041798591617 400.84656143188482 1.0000000180025095e-35 44.05212056636811 74.466663599014296 400.84656143188482 34.93811488151551 85.168773412704482 101.17023336887361 2.7500000000000004 472.34674954414373 200.14050805568698 264.70647358894354 430.55000543594366 4.5000000000000009
decision_type=2 2 2 2 2 2 2 2 2 2 2 2 2 2 2 2 2 2 2 2 2 2 2 2 2 2 2 2 2 2
left_child=2 4 6 11 7 8 18 22 13 20 21 -3 -13 19 23 -7 -11 -5 -1 -4 -6 -9 29 -8 -12 -19 -14 28 -10 -2
right_child=1 3 5 17 9 15 14 10 27 16 24 12 26 -15 -16 -17 -18 25 -20 -21 -22 -23 -24 -25 -26 -27 -28 -29 -30 -31
leaf_value=-0.10335152353672994 -0.086620141227644568 0.05407494793698632 -0.089954955671307638 0.047559143713969854 -0.020933237422907813 -0.045140915752341262 -0.092368556726290491 -0.063745809383377705 -0.051106023777755694 0.012510179834538816 0.050578807636159864 0.0072341835596757918 0.0036732626056126248 -0.041857867553448204 -0.063442733223672082 -0.016260536048734783 0.03423729303188959 0.038622576344809853 -0.091884705165637182 -0.069560041861702088 0.012976514082978566 -0.029597518443466447 -0.045681348361134286 -0.072605519661228857 -0.010206449978609162 0.044994080732849662 0.027761017444655142 -0.0080085077982436099 -0.016713047511029307 -0.04865548198977631
leaf_weight=489206.48291312158 3494.0972636342049 5632.7091337144375 15577.365703672171 764448.38071708381 5530.2061458528042 6994.3114069700241 22131.063813000917 3066.130781725049 4264.4483537822962 13200.831379413605 417.65704514086246 20451.430729478598 2506.2875119149685 3685.1373571902514 5794.311550244689 7141.8741074353456 10864.931239277124 39261.045876637101 18037.084485858679 8391.4544700831175 2723.9389088302851 4191.2969373911619 2666.2741298079491 5305.188946813345 11571.35086338222 410823.73464633524 54317.696124777198 1371.2943070232868 1200.2062076330185 951.54062832891941
leaf_count=1959830 14087 23461 62567 3185331 22556 28280 88748 12388 17211 54285 1727 84184 10310 14903 23290 28967 44903 163018 72345 33749 11213 17024 10839 21309 47187 1708696 224662 5560 4849 3842
internal_value=0 0.0426929 -0.0981745 0.0449555 -0.00733706 -0.0579949 -0.101789 -0.0336606 -0.0692435 0.014131 -0.0216395 0.0237571 0.0215472 -0.0773569 -0.0841697 -0.03055 0.0223193 0.0464026 -0.102944 -0.0828147 -0.00974273 -0.0440245 -0.0661926 -0.0885471 -0.00808889 0.0444383 0.0266986 -0.0364222 -0.0435523 -0.0784942
internal_weight=0 1.35612e+06 589100 1.29744e+06 58678.3 48626.1 540474 26358.3 34489.9 32319.9 19246.4 82908.1 77275.4 27654 33230.6 14136.2 24065.8 1.21453e+06 507244 23968.8 8254.15 7257.43 7111.91 27436.3 11989 450085 56824 6835.95 5464.65 4445.64
internal_count=8001321 5639713 2361608 5399662 240051 196086 2165522 107094 138839 132957 78326 342617 319156 111219 133347 57247 99188 5057045 2032175 96316 33769 29412 28768 110057 48914 1871714 234972 27620 22060 17929
is_linear=0
shrinkage=0.05


Tree=3
num_leaves=31
num_cat=0
split_feature=14 0 18 10 10 10 13 13 13 10 10 10 20 15 14 10 20 0 10 10 13 15 14 0 10 13 10 0 10 0
split_gain=2.94692e+06 50779.5 31327.8 16771.6 11852.1 6538.13 5128.47 3632.62 3263.82 2912.75 2475.91 2361.62 1463.95 1376.38 1260.19 1131.8 1117.91 936.994 905.794 899.905 842.139 743.184 684.445 557.883 1535.03 521.322 504.879 498.527 484.717 457.064
threshold=317.85045945644384 2.7500000000000004 99.08912050724031 151.49700093269351 118.16110157966615 142.50370049476626 125.14697754383089 140.49398541450503 278.13151550292974 41.484063029289253 431.58545696735388 20.80085647106171 1.0000000180025095e-35 255.10793209075931 101.10011994838716 366.07104885578161 1.5000000000000002 1.7500000000000002 315.58823549747473 31.639552474021915 339.40055453777319 101.17023336887361 39.060836434364326 1.0000000180025095e-35 1124.5718554258349 186.05680048465732 366.07104885578161 1.7500000000000002 31.639552474021915 1.7500000000000002
decision_type=2 2 2 2 2 2 2 2 2 2 2 2 2 2 2 2 2 2 2 2 2 2 2 2 2 2 2 2 2 2
left_child=2 3 9 11 6 7 28 14 18 22 27 12 29 25 -4 -10 17 -13 -6 -8 -9 -11 -1 -12 -25 -7 -15 -5 -3 -2
right_child=1 4 5 10 8 13 19 20 15 21 23 16 -14 26 -16 -17 -18 -19 -20 -21 -22 -23 -24 24 -26 -27 -28 -29 -30 -31
leaf_value=-0.098145580387545839 0.017798449793730069 -0.067409489514271961 -0.083249616826586048 0.041399573179944138 -0.014428489653175107 -0.051208800509161559 -0.020931872778596337 -0.051304549694418389 0.018416515863108839 -0.085751969046006904 0.045649713213474934 0.032765830600681639 -0.09959449084619465 -0.023639139049161886 -0.059789284494933384 0.035249429575631042 -0.07453802297081201 0.022620123401387176 0.012442957569029895 -0.0012052538197238093 -0.018626136794238895 -0.065907908434392412 -0.088391606542909132 0.046569483339479342 0.057355645189250674 -0.023836522302619179 0.0049406087067521975 0.03525382433661102 -0.042905211991468802 0.0022804423875717118
leaf_weight=483329.95522363484 12554.480509325862 3538.8859378695488 22419.664322704077 104328.80570399761 7527.5586157441139 6733.3544328510761 8855.8009050786495 7297.6906949877739 23343.040739655495 25764.036638334394 756798.4730694294 64921.128940537572 298.59284047782421 5119.5805564075708 7686.6440341472626 17451.781142711639 260.32923230528831 35039.165459722281 5375.6493766754866 16653.109462082386 2701.3000741899014 5775.9389623254538 18680.305154666305 186375.7748631686 40078.748325914145 2345.4175442457199 2213.3767822086811 48261.602699577808 4696.1805886924267 7628.2796816676855
leaf_count=1933650 52313 14276 89763 438166 30738 27038 36137 29370 96370 103102 3185331 271511 1206 20695 30816 72510 1076 145632 22121 68291 10898 23137 74745 783341 168572 9442 8952 201599 19048 31475
internal_value=0 0.0409347 -0.093107 0.0434985 0.00409249 -0.0577088 -0.0191289 -0.0685876 0.0186849 -0.0968566 0.0453816 0.0257783 0.0103073 -0.0311241 -0.0772598 0.0256175 0.02894 0.0292094 -0.00323348 -0.00805365 -0.0424762 -0.0821179 -0.0977826 0.0463012 0.0484785 -0.0441374 -0.0150126 0.0394558 -0.0534355 0.0119333
internal_weight=0 1.34399e+06 590067 1.25655e+06 87442 56517 33744 40105.3 53698 533550 1.13584e+06 120702 20481.4 16411.7 30106.3 40794.8 100221 99960.3 12903.2 25508.9 9998.99 31540 502010 983253 226455 9078.77 7332.96 152590 8235.07 20182.8
internal_count=8001321 5639713 2361608 5280222 359491 226974 137752 160847 221739 2134634 4777009 503213 84994 66127 120579 168880 418219 417143 52859 104428 40268 126239 2008395 4137244 951913 36480 29647 639765 33324 83788
is_linear=0
shrinkage=0.05


Tree=4
num_leaves=31
num_cat=0
split_feature=14 12 16 10 10 12 12 12 10 10 10 10 20 13 13 10 10 12 13 12 0 13 10 13 10 0 0 0 10 14
split_gain=2.67359e+06 49484.7 31792.6 17565.4 11580.8 5116.45 4865.28 3557.46 2865.69 2628.96 2083.48 1815.52 1740.73 1589.43 1512.08 1274.36 1205.71 1187.77 1103.2 1008.53 956.294 830.72 658.354 630.166 584.006 573.444 540.697 515.426 1424.76 514.869
threshold=380.89381051063543 280.41463994979864 107.96637105941774 189.73070096969607 155.79775404930118 58.121449470520027 140.93116760253909 58.121449470520027 160.33106791973117 45.751084923744209 448.40628051757818 405.99755060672766 1.0000000180025095e-35 161.25363743305209 132.75104486942294 82.368275046348586 52.949934005737312 174.26533949375155 233.95012247562411 355.43704342842108 1.7500000000000002 278.13151550292974 250.68393349647525 172.33656811714175 350.80172145366674 1.7500000000000002 1.7500000000000002 1.0000000180025095e-35 1230.6370644569399 125.09695196151735
decision_type=2 2 2 2 2 2 2 2 2 2 2 2 2 2 2 2 2 2 2 2 2 2 2 2 2 2 2 2 2 2
left_child=2 4 5 9 7 15 8 16 14 12 26 18 25 -9 29 -1 -2 23 -6 21 -11 22 -8 -7 -10 -3 -5 -12 -29 -4
right_child=1 3 6 10 11 17 19 13 24 20 27 -13 -14 -15 -16 -17 -18 -19 -20 -21 -22 -23 -24 -25 -26 -27 -28 28 -30 -31
leaf_value=-0.093302976215637101 -0.06670346931650338 0.02172655625572853 -0.079727207732371783 0.040311423655579645 -0.018268427794478032 -0.079316995088269004 -0.046070712606745362 -0.042241560210048573 -0.041850141301435675 0.033780694791616328 0.043844274284559746 0.028986941946448963 -0.076595488560808347 -0.0058193138726607783 -0.046146640443967539 -0.075409729318550084 -0.033196046904326142 -0.05151828386231308 0.011468190373775482 -0.002690456546958972 0.024392177389939994 -0.0030133081937197266 -0.012566160171795682 -0.051462464133377066 -0.011453987821414463 0.010432995325736655 0.033913293578418179 0.045124424146342108 0.057573937125965494 -0.058165755557045208
leaf_weight=506829.12409137189 6199.7625267654657 26140.702289700508 14128.814049512148 92037.807083725929 4136.5785135477781 19795.213952332735 6948.8950479477644 4018.0496203452349 5181.9289807528257 67337.671015411615 748770.31579533219 13087.497706368566 503.62434029579163 11768.346183240414 5846.1558625251055 10149.990831688046 4735.2750620990992 6091.6575272083282 12678.808366775513 3870.5519284009933 45416.227341100574 1960.4803546369076 1858.2867314964533 2262.5864466428757 2273.546888127923 19718.878642469645 51496.476648882031 194864.93193309009 26054.221758037806 3443.5370304733515
leaf_count=2034878 24962 109580 56572 390523 16817 79288 27886 16220 20827 283958 3185331 54508 2031 48124 23465 40655 19222 24400 52347 15605 189576 7921 7495 9066 9165 81537 216550 827923 111101 13788
internal_value=0 0.0393817 -0.0884695 0.0414171 -0.00635327 -0.0918213 -0.0483221 -0.0302735 -0.0595787 0.0258779 0.0436382 0.015022 0.0158552 -0.0150897 -0.0681737 -0.0929517 -0.0521935 -0.0710624 0.00415299 -0.0245804 0.0299991 -0.032449 -0.0390014 -0.0764598 -0.0325808 0.0168705 0.0380159 0.0444704 0.0465927 -0.075502
internal_weight=0 1.32897e+06 590641 1.27234e+06 56624.3 545129 45512.2 26721.4 30874 159117 1.11322e+06 29902.9 46363.2 15786.4 23418.5 516979 10935 28149.5 16815.4 14638.2 112754 10767.7 8807.18 22057.8 7455.48 45859.6 143534 969689 220919 17572.4
internal_count=8001321 5630310 2371011 5398110 232200 2188287 182724 108528 123817 666682 4731428 123672 193148 64344 93825 2075533 44184 112754 69164 58907 473534 43302 35381 88354 29992 191117 607073 4124355 939024 70360
is_linear=0
shrinkage=0.05


Tree=5
num_leaves=31
num_cat=0
split_feature=14 11 17 10 12 10 11 12 11 10 11 12 10 11 12 10 10 11 10 11 13 10 13 12 12 13 0 10 0 10
split_gain=2.43318e+06 50772.2 27366.4 23646.3 9695.41 8915.2 5327.08 4121.65 3501.84 2734.01 2315.21 2083.71 1878.89 1303.82 1263.43 1257.5 1256.7 1245.11 1091.91 976.832 946.448 871.917 852.703 723.847 649.514 626.131 623.355 586.999 822.694 1040.11
threshold=317.85045945644384 231.44827842712405 102.01919043064119 151.49700093269351 140.93116760253909 263.33287596702581 121.7428425550461 355.43704342842108 54.951093554496772 138.16405153274539 60.194999575614936 239.34187293052676 503.29728651046759 293.493068933487 140.93116760253909 61.086557507514961 33.554952383041389 60.194999575614936 493.35889101028448 664.12397599220287 58.213904976844795 269.42527592182165 172.33656811714175 140.93116760253909 205.04923844337466 200.14050805568698 1.7500000000000002 484.22555589675909 1.0000000180025095e-35 1038.5478390455248
decision_type=2 2 2 2 2 2 2 2 2 2 2 2 2 2 2 2 2 2 2 2 2 2 2 2 2 2 2 2 2 2
left_child=2 3 8 4 17 11 9 12 20 14 16 19 22 21 -4 26 -6 -2 -9 -3 -1 25 -5 -10 -11 -8 -13 -7 -29 -30
right_child=1 5 6 7 10 27 13 18 23 24 -12 15 -14 -15 -16 -17 -18 -19 -20 -21 -22 -23 -24 -25 -26 -27 -28 28 29 -31
leaf_value=-0.089513349430509079 -0.072362782597369862 0.0024366318209636455 -0.075952232764106328 -0.029528681113398583 -0.048494941736070302 0.038854605842757989 -0.050945779074933806 0.02431556682560294 -0.073687924684071329 -0.045516939372521222 0.0035888933736879024 0.021465556969786265 0.026466976533467874 -0.0083963784592587468 -0.047940464829831317 0.034643417286638667 -0.013090823353817185 -0.042149498261259612 0.039296267239168743 0.034098623441928308 -0.076418971942872643 -0.0078853248655746718 0.00034177716473997256 -0.049714173254240906 -0.01412409671166737 -0.022061411906436259 0.033957502587398006 0.042131889978818039 0.043685167696751001 0.052358956041811157
leaf_weight=493333.69622918963 7431.1418056339025 9208.6230099499226 19481.635377585888 3168.1197728067636 3868.3399710506201 100738.93006058037 7265.1647063046694 26170.90633456409 22199.627378284931 6328.4624585062265 17941.634979084134 34190.387909397483 6216.0647307038307 5848.5233303010464 5073.7784348577261 122263.81203347445 7119.6687740683556 6301.6658410578966 22726.035917088389 3312.2521586716175 14196.735224619508 2086.13865467906 9717.7981547266245 3668.9510065764189 2227.6414871513844 2529.4132568240166 14106.998354434967 740456.51336476207 136936.00089107454 46230.730826377869
leaf_count=1996245 29796 37777 78286 12824 15678 430790 29122 110196 89379 25381 74217 144245 26013 23498 20341 520022 29266 25390 97320 13751 57124 8397 39980 14703 8966 10166 59056 3185331 588457 199604
internal_value=0 0.0376917 -0.0848915 0.00527685 -0.0239029 0.0406624 -0.0498403 0.0235842 -0.0882324 -0.0616833 -0.00748045 0.0304998 0.0038892 -0.0277219 -0.0701643 0.0319451 -0.0255549 -0.0584986 0.0312782 0.0108124 -0.0891471 -0.0372353 -0.00700215 -0.0702877 -0.0373436 -0.0434865 0.0251143 0.0424788 0.0428741 0.0458744
internal_weight=0 1.31811e+06 584240 110661 42662.5 1.20744e+06 50840.8 67998.9 533399 33111.5 28929.6 183082 19102 17729.2 24555.4 170561 10988 13732.8 48896.9 12520.9 507530 11880.7 12885.9 25868.6 8556.1 9794.58 48297.4 1.02436e+06 923623 183167
internal_count=8001321 5639713 2361608 460680 174347 5179033 204157 286333 2157451 132974 119161 774851 78817 71183 98627 723323 44944 55186 207516 51528 2053369 47685 52804 104082 34347 39288 203301 4404182 3973392 788061
is_linear=0
shrinkage=0.05


Tree=6
num_leaves=31
num_cat=0
split_feature=13 15 10 12 12 14 12 10 10 10 12 12 10 13 0 10 12 10 12 10 10 10 12 14 10 0 10 0 10 10
split_gain=2.22037e+06 45607 29667.1 15743.5 6768.04 5797.49 4514.07 4281.91 2284.94 1528.36 1442.4 1198.52 1144.68 1122.5 1079.16 1011.74 959.104 722.578 714.162 619.276 609.635 598.82 520.094 477.721 460.335 453.547 1307.39 451.046 450.199 423.506
threshold=253.59672653675082 128.28910005092624 189.73070096969607 174.26533949375155 184.25202858448031 63.104314923286445 379.48195457458502 226.62770104408267 35.456190466880805 431.58545696735388 63.789166569709785 133.77674663066867 58.315034031867988 88.533357024192824 1.7500000000000002 457.18163061141973 379.48195457458502 220.95330250263217 33.306335568428047 55.676492094993598 122.14516544342042 533.75697898864757 379.48195457458502 190.96831595897677 9.1924225091934222 1.0000000180025095e-35 1273.8372493982317 2.7500000000000004 774.74080336093914 25.228718519210823
decision_type=2 2 2 2 2 2 2 2 2 2 2 2 2 2 2 2 2 2 2 2 2 2 2 2 2 2 2 2 2 2
left_child=1 5 3 12 7 10 15 13 24 -8 29 20 18 19 -10 23 17 -6 -2 -3 -7 -9 -16 -4 -5 -11 28 -14 -27 -1
right_child=2 4 6 8 16 11 9 21 14 25 -12 -13 27 -15 22 -17 -18 -19 -20 -21 -22 -23 -24 -25 -26 26 -28 -29 -30 -31
leaf_value=-0.086338123221455371 -0.055557984232789862 -0.071614092106437918 -0.013520346944597564 0.0035914983288527699 -0.026151008792632394 -0.071882699262163618 0.035316588814201529 -0.020162544519734107 0.03047183969468667 0.04050327354514751 -0.070930853185687634 -0.042924700298674866 0.047677454809121861 -0.041610503409318877 0.0083614923550922021 0.031477157444968623 0.0095848592693006801 0.0032185071157934627 -0.026474171028482776 -0.052624705608350399 -0.051651517034886844 0.013700370261896631 0.022987453802997774 0.014756752015925682 0.015891454167487447 0.039836515799119801 0.0549232975555086 -0.014703720640229654 0.044657065543404754 -0.080369160563343409
leaf_weight=466012.19150294363 3327.9170414805412 9576.1937725543976 1664.5763967335224 10617.394980922341 6174.9341148734093 18445.528607308865 129687.24708040059 5447.861348181963 71768.916806057096 731937.75649988651 16499.278422921896 6126.6075470596552 298.12469661235809 9349.4076034277678 7034.8847158402205 11041.953955575824 5880.5657415539026 3169.0718987286091 5771.0175781697035 7782.7464463561773 4665.4616850018501 1716.9934806972742 44694.137023434043 14544.74541336298 26827.789807453752 116679.7743653059 21107.051991805434 10340.12832352519 82807.859371826053 31740.844481691718
leaf_count=1907918 13393 38643 6691 44353 24913 74758 558981 22065 307375 3185331 66691 24624 1254 37620 28957 46725 24252 12983 23360 31326 18773 7074 188534 60580 112479 506898 92732 42035 360820 129183
internal_value=0 -0.0800749 0.0368431 0.0180547 -0.0339246 -0.084244 0.0399028 -0.0463702 0.0232233 0.0404089 -0.0854754 -0.0625864 -0.0240916 -0.0555777 0.0265037 0.0198045 -0.00623444 -0.0161902 -0.0371115 -0.0631003 -0.0677986 -0.0120476 0.0209984 0.0118529 0.0124039 0.0411022 0.0430896 -0.0129556 0.0418375 -0.0859575
internal_weight=0 592588 1.29015e+06 180680 49097.8 543490 1.10947e+06 33873.2 160943 1.08222e+06 514252 29237.6 19737.2 26708.3 123498 27251.3 15224.6 9344.01 9098.93 17358.9 23111 7164.85 51729 16209.3 37445.2 952532 220595 10638.3 199488 497753
internal_count=8001321 2420823 5580498 761740 198876 2221947 4818758 136728 681698 4704762 2103792 118155 80042 107589 524866 113996 62148 37896 36753 69969 93531 29139 217491 67271 156832 4145781 960450 43289 867718 2037101
is_linear=0
shrinkage=0.05


Tree=7
num_leaves=31
num_cat=0
split_feature=14 11 16 10 12 10 11 11 12 11 10 10 11 13 12 10 10 10 11 20 13 10 13 12 11 0 12 12 10 13
split_gain=2.03148e+06 44619.3 24678 20069 8519.45 6786.97 4327.77 3754.16 3519.9 2429.16 2230.96 1586.96 1301.39 1213.71 1186.2 1160.15 1126.33 1028.99 1009.02 824.356 704.412 690.426 687.752 684.565 674.885 554.763 548.679 517.398 505.493 504.283
threshold=317.85045945644384 264.70647358894354 89.870360493659987 155.79775404930118 133.77674663066867 263.33287596702581 131.30342447757724 75.394659042358413 355.43704342842108 60.194999575614936 160.33106791973117 493.35889101028448 60.194999575614936 79.162201404571547 205.04923844337466 82.368275046348586 33.554952383041389 544.53976297378551 361.4016278982163 1.0000000180025095e-35 306.83764350414282 250.68393349647525 110.46365106105806 336.19357359409338 247.81446993350986 2.7500000000000004 239.34187293052676 297.77242660522467 389.37008857727056 306.83764350414282
decision_type=2 2 2 2 2 2 2 2 2 2 2 2 2 2 2 2 2 2 2 2 2 2 2 2 2 2 2 2 2 2
left_child=2 3 7 4 12 15 10 13 11 16 14 20 -2 -1 22 19 25 -10 21 29 -5 26 -4 -17 -9 -6 -8 -11 -12 -3
right_child=1 5 6 8 9 -7 18 24 17 27 28 -13 -14 -15 -16 23 -18 -19 -20 -21 -22 -23 -24 -25 -26 -27 -28 -29 -30 -31
leaf_value=-0.082878724325628941 -0.066908949769766135 -0.00017063274365827761 -0.071146473471712796 -0.021609238789586465 -0.058634134317778669 0.039337449137932266 -0.042009370137134495 -0.06349063460911851 0.023015673757597426 -0.012698007257012825 -0.037661928694871963 0.023904089480183188 -0.036595487747155243 -0.066179027377157293 -0.034230444954657525 0.017934095995581763 -0.013014432282929089 0.037225067892669987 9.9532186464565869e-05 -0.03811281231519506 0.002566048526409917 -0.0061420645374786432 -0.05072537605097123 0.032939256809373228 -0.035753287543564098 -0.01784029641740463 -0.012649757317595871 0.007844095791885301 -0.0066222939158430867 0.024735721177015148
leaf_weight=492313.2755650878 7344.3993838727474 2099.988399669528 16405.233191177249 4539.0819265544415 2724.1465028375387 995485.35186079144 7591.3316721171141 16259.005768492818 30892.647486120462 3723.3776010870934 5551.7217128574848 6907.5240816026926 6836.2297008186579 11126.074608832598 3389.6321671307087 8214.1148729324341 7394.5676606148481 21683.747895941138 3681.4552856087685 539.7686356306076 8963.1625570505857 2454.7848636657 5507.0443232059479 101840.79948423803 2534.9132080376148 1200.7632106840611 2013.3709912747145 17343.760406047106 1717.4252862483263 63079.149152889848
leaf_count=2044480 29545 8579 66968 18354 11005 4382072 30541 66287 132193 15099 22293 29265 27482 45340 13603 34099 30419 95092 14792 2232 37050 9881 22195 441116 10233 4840 8088 72521 6907 268750
internal_value=0 0.0347681 -0.0785277 0.00567132 -0.0199754 0.0377381 -0.0443389 -0.0816906 0.0220347 -0.00582399 -0.0547422 0.00441122 -0.0522954 -0.0825097 -0.0617562 0.0286803 -0.0245052 0.028876 -0.0228123 0.0234237 -0.00556102 -0.0298067 -0.0660142 0.0318193 -0.0597494 -0.0461539 -0.0358549 0.00421351 -0.0303284 0.0239333
internal_weight=0 1.29081e+06 570545 119553 46567.2 1.17126e+06 48312 522233 72986.2 32386.6 32571.1 20409.8 14180.6 503439 25301.9 175774 11319.5 52576.4 15740.9 65718.9 13502.2 12059.5 21912.3 110055 18793.9 3924.91 9604.7 21067.1 7269.15 65179.1
internal_count=8001321 5639713 2361608 502865 190911 5136848 195268 2166340 311954 133884 131966 84669 57027 2089820 102766 754776 46264 227285 63302 279561 55404 48510 89163 475215 76520 15845 38629 87620 29200 277329
is_linear=0
shrinkage=0.05


Tree=8
num_leaves=31
num_cat=0
split_feature=14 11 17 10 10 12 11 12 16 10 11 10 13 11 10 11 12 10 10 10 20 12 10 0 10 13 12 13 16 11
split_gain=1.86171e+06 43105.9 21836.1 18604.9 6978.29 6738.16 4638.87 3854.56 2433.37 2135.42 1946.52 1823.14 1464.84 1247.03 1086.89 1010.82 967.565 860.734 845.104 824.024 761.943 719.618 661.538 617.082 1063.59 597.388 536.678 530.188 523.343 512.122
threshold=274.07609391212469 239.54994451999667 79.547049403190627 134.14733552932742 232.93577098846441 140.93116760253909 108.7657244205475 355.43704342842108 55.695541024208076 138.16405153274539 50.379583001136787 336.75487756729132 306.83764350414282 293.493068933487 381.89072751998907 60.194999575614936 140.93116760253909 82.368275046348586 28.155685067176822 244.80620789527896 1.5000000000000002 46.154021024703987 431.58545696735388 1.0000000180025095e-35 1038.5478390455248 278.13151550292974 165.17923557758334 172.33656811714175 206.75435709953311 509.4428900480271
decision_type=2 2 2 2 2 2 2 2 2 2 2 2 2 2 2 2 2 2 2 2 2 2 2 2 2 2 2 2 2 2
left_child=2 3 8 5 12 15 9 11 21 16 18 27 -3 19 -9 -2 -4 20 -7 25 -14 -1 29 -24 -25 -8 -11 -5 -10 -6
right_child=1 4 6 7 22 10 13 14 28 26 -12 -13 17 -15 -16 -17 -18 -19 -20 -21 -22 -23 23 24 -26 -27 -28 -29 -30 -31
leaf_value=-0.080426416756910243 -0.063915929809501656 0.00090444769076494672 -0.068449924916009527 -0.030817389711119209 0.024713788059270245 -0.048697792131193414 -0.045373516067870857 0.0181999929634192 -0.065891665460143162 -0.043361631848969663 0.00079877436715552119 0.015952827961671412 0.023253276186895204 -0.0069946132430915844 0.032945660472742569 -0.036806383190729278 -0.044050552625644029 0.030517533177285103 -0.01648551377798289 -0.009779763238716304 -0.087597761842028832 -0.069938150176838562 0.037452022874158789 0.038631155514719462 0.04744721117590775 -0.012937217246583128 -0.015832823095479755 -0.0061944168059873614 -0.042251183138307044 0.035237564919047878
leaf_weight=465767.17891219258 7423.0827059447765 5386.4268584549427 21613.565330147743 3064.8530124723911 13521.519907623529 3102.4031132161617 9642.3945275396109 21845.528268411756 19220.014355883002 5615.0589949637651 18368.479392245412 10682.466280043125 64228.50305968523 5730.6658447980881 29201.591228425503 6405.8214614838362 5003.8192554861307 92329.398564249277 5924.3514189720154 2683.7794899940491 155.39340130984783 16949.551569446921 714467.88289470971 151624.13715548813 44178.993335828185 1664.5384801775217 2585.7049342244864 7625.696889564395 2665.7690263092518 79702.986651465297
leaf_count=1969384 30022 22068 89209 12304 58583 12470 39022 93361 79486 22628 76223 44952 275192 23022 128601 25737 20186 402091 24262 10794 630 70335 3185331 675224 199061 6680 10391 31233 10866 351973
internal_value=0 0.0333019 -0.0760704 0.00390763 0.0361678 -0.0229065 -0.0460154 0.0191712 -0.0793188 -0.05699 -0.00854433 0.00134413 0.026542 -0.0266398 0.0266353 -0.0513583 -0.0638631 0.0274232 -0.0275565 -0.0346866 0.0229857 -0.0800581 0.0377227 0.0381335 0.0406203 -0.0405984 -0.0346818 -0.0132535 -0.0630122 0.0337112
internal_weight=0 1.27924e+06 559142 113644 1.1656e+06 41224.1 54539.5 72420.1 504603 34818.1 27395.2 21373 162100 19721.4 51047.1 13828.9 26617.4 156713 9026.75 13990.7 64383.9 482717 1.0035e+06 910271 195803 11306.9 8200.76 10690.5 21885.8 93224.5
internal_count=8001321 5649318 2352003 479165 5170153 168714 221932 310451 2130071 142414 112955 88489 699981 79518 221962 55759 109395 677913 36732 56496 275822 2039719 4470172 4059616 874285 45702 33019 43537 90352 410556
is_linear=0
shrinkage=0.05


Tree=9
num_leaves=31
num_cat=0
split_feature=13 15 11 10 11 10 12 14 12 10 11 10 12 11 11 10 11 12 10 11 20 10 12 10 0 12 13 12 10 0
split_gain=1.70997e+06 36546.5 29137.9 13240.2 6113.62 5553.89 4319.07 4163.98 3160.58 2122.01 2059.17 1678.33 1503.85 1440.04 1126.19 1069.31 899.024 844.952 844.063 755.94 732.147 603.072 580.801 580.483 576.487 499.697 495.674 491.869 489.033 631.81
threshold=233.95012247562411 101.17023336887361 264.70647358894354 160.33106791973117 141.19204151630404 232.93577098846441 127.57243299484254 63.104314923286445 184.25202858448031 381.89072751998907 78.576001524925246 244.80620789527896 216.83518111705783 349.18039596080786 78.576001524925246 33.554952383041389 136.42116153240207 227.91449844837192 47.933801889419563 48.255768060684211 1.0000000180025095e-35 878.08523249626171 430.55000543594366 288.59703099727636 2.7500000000000004 216.83518111705783 52.352031946182258 184.25202858448031 431.58545696735388 1.0000000180025095e-35
decision_type=2 2 2 2 2 2 2 2 2 2 2 2 2 2 2 2 2 2 2 2 2 2 2 2 2 2 2 2 2 2
left_child=1 7 3 6 8 18 19 14 11 12 15 26 -5 17 -1 24 27 23 20 -2 -4 -11 -10 -6 -8 -20 -3 -9 -7 -30
right_child=2 4 5 9 13 28 10 16 22 21 -12 -13 -14 -15 -16 -17 -18 -19 25 -21 -22 -23 -24 -25 -26 -27 -28 -29 29 -31
leaf_value=-0.077808965280542736 -0.055515291299488269 -0.066004340837741718 0.020454397277227705 -0.0086417312255589601 -0.03536990078069998 0.032846085201303707 -0.05033890088369615 -0.064042506067296029 -0.026460915370856965 0.025818164593061882 0.0069777006209096994 -0.021011825135563857 0.018082488606248261 0.0081748981666858369 -0.061645585015561735 -0.0088842203929917849 -0.037715594991196505 -0.00092455856358172298 0.014374225875004544 -0.029236371277213225 -0.057123576190464945 0.039943990821412673 0.0038115310926287111 -0.0039459771476293625 -0.01168551858167966 0.029108169336442169 -0.051060391365439883 -0.038991843796937847 0.036032053554246379 0.039280866976114416
leaf_weight=473949.97541716695 4657.8667965978384 12089.1694586128 38954.506256058812 6941.2457778006792 7085.4967786818743 89568.068742349744 3155.8781459629536 18144.337644979358 5536.2906492501497 28687.513106375933 18126.140051007271 3313.2479730248451 21788.785983100533 6725.1244736909866 11027.459274932742 9206.4483777284622 5022.6738389283419 3885.490820735693 6073.6261401176453 6634.5687259584665 306.52484218776226 10257.455246523023 2219.67706425488 1854.2233521491289 1389.2509297430515 109526.29121419787 10256.638957932591 2196.7683033943176 705718.58789008856 189924.31738102436
leaf_count=2043020 18877 50168 166913 28379 28648 399056 12715 75941 22429 125725 75683 13437 93487 27642 45924 37851 20454 15975 25324 26712 1236 45984 9132 7599 5598 481269 42007 8906 3185331 859899
internal_value=0 -0.0723057 0.0326057 0.00813233 -0.0327732 0.0349851 -0.0135039 -0.0764086 -0.0457668 0.0219342 -0.00409097 -0.0542211 0.0116259 -0.0105648 -0.0774414 -0.0186807 -0.0566595 -0.0203913 0.0261828 -0.0400758 0.0198487 0.0295387 -0.0177973 -0.0288521 -0.0385242 0.028334 -0.0591451 -0.0613371 0.0363687 0.036721
internal_weight=0 563307 1.25092e+06 110845 52965.4 1.14007e+06 43170.2 510341 33415 67675 31877.7 25659.1 28730 19550.3 484977 13751.6 25363.8 12825.2 154861 11292.4 39261 38945 7755.97 8939.72 4545.13 115600 22345.8 20341.1 985211 895643
internal_count=8001321 2411282 5590039 471011 217037 5119028 177436 2194245 137173 293575 131847 105612 121866 79864 2088944 56164 105301 52222 674742 45589 168149 171709 31561 36247 18313 506593 92175 84847 4444286 4045230
is_linear=0
shrinkage=0.05


Tree=10
num_leaves=31
num_cat=0
split_feature=14 11 18 10 12 10 12 12 19 13 11 11 12 10 10 11 13 10 20 0 10 10 10 13 0 10 11 11 12 12
split_gain=1.57227e+06 36545 20737.2 15636.6 7748.79 5255.63 4088.68 2214.35 2179.3 2110.86 2032.45 1451.61 1157.91 1152.28 1038.59 857.935 824.216 740.998 704.45 696.203 692.173 646.961 639.193 621.859 556.419 1017.39 543.185 537.369 535.155 505.788
threshold=274.07609391212469 293.493068933487 89.274039506912246 194.80658495426181 174.26533949375155 189.73070096969607 109.50520551204683 355.43704342842108 49.451074481010444 104.04171800613405 78.576001524925246 89.148115992546096 355.43704342842108 52.949934005737312 576.83452355861675 131.30342447757724 172.33656811714175 661.1984624862672 1.5000000000000002 2.7500000000000004 414.38753247261053 50.162943959236152 20.80085647106171 378.29805493354803 1.0000000180025095e-35 1319.9550470113757 208.53154647350314 29.778155565261844 239.34187293052676 94.592241525650039
decision_type=2 2 2 2 2 2 2 2 2 2 2 2 2 2 2 2 2 2 2 2 2 2 2 2 2 2 2 2 2 2
left_child=2 3 8 4 11 18 9 14 27 15 13 21 16 19 -5 -4 26 -9 22 -6 -7 -2 -3 -11 -22 -26 -8 -1 -24 -10
right_child=1 5 6 7 10 20 12 17 29 23 -12 -13 -14 -15 -16 -17 -18 -19 -20 -21 24 -23 28 -25 25 -27 -28 -29 -30 -31
leaf_value=-0.07597839959479942 -0.062416993605670316 0.015535616923398669 -0.065656161144829972 -0.00051264809879197546 -0.042692990043243187 0.031027186242815731 -0.044118824671987737 0.022534723113769257 -0.064251348522917986 -0.03972473602730358 0.008450475058184163 -0.023364059702539169 -0.00044618492275248572 -0.0035686048245651236 0.025015552115874747 -0.04181119816848955 -0.013647640741365253 0.035368874794878463 -0.05316337550746493 -0.0064982410517603166 0.034670188313701243 -0.038473634166187848 0.012408071880960478 -0.0069831753257372318 0.036663779869333356 0.050371947107072351 -0.017678420088205579 -0.068263858972368641 0.026647759062142534 -0.047111757704245867
leaf_weight=433264.17780710757 6005.0140956193209 17752.269952833652 19414.269260585308 13702.831567689776 4320.3723531067371 104606.80354687572 8517.3562936633825 33801.499014914036 20129.420608535409 9360.5291328430176 23245.902657553554 8017.3051175177097 4021.7931002378464 8948.1025807410479 5617.5774872303009 4681.9804906398058 5018.0778792202473 16854.597379639745 293.79049728810787 1918.5488693118095 696993.12038107216 5321.417229115963 7042.2511037886143 1716.0910700112581 177547.58733402193 14652.323424696922 2516.3256763517857 23813.865360379219 104617.04901754856 5475.1085952222347
leaf_count=1911689 24664 76034 82583 56762 17453 470210 34949 148549 86332 38307 97859 32347 16193 37016 24243 19175 20198 76599 1228 7748 3185331 21522 29280 6902 813178 68469 10143 102772 460826 22760
internal_value=0 0.0307575 -0.07146 0.00541718 -0.0138339 0.0336389 -0.0424425 0.021312 -0.0747813 -0.0527183 -0.000843291 -0.0396441 -0.0244371 -0.0150687 0.0069099 -0.061023 -0.0304481 0.026805 0.024173 -0.0315626 0.0348744 -0.0511679 0.0243485 -0.0346521 0.035327 0.0377088 -0.0380889 -0.0755765 0.0257497 -0.0605863
internal_weight=0 1.25126e+06 537929 127753 57776.7 1.12351e+06 55246.4 69976.5 482683 35172.9 38432.9 19343.7 20073.6 15187 19320.4 24096.2 16051.8 50656.1 129705 6238.92 993800 11326.4 129412 11076.6 889193 192200 11033.7 457078 111659 25604.5
internal_count=8001321 5649318 2352003 544762 238609 5104556 228450 306153 2123553 146967 160076 78533 81483 62217 81005 101758 65290 225148 567368 25201 4537188 46186 566140 45209 4066978 881647 45092 2014461 490106 109092
is_linear=0
shrinkage=0.05


Tree=11
num_leaves=31
num_cat=0
split_feature=13 15 11 10 11 10 10 11 10 10 11 10 14 13 10 10 10 20 11 13 13 14 1 11 10 14 10 14 10 11
split_gain=1.44782e+06 31900.7 26167.1 11544.9 5202.3 4720.92 3754.87 3468.15 2531.22 2161.97 1409.89 1240.13 1140.35 1005.59 951.708 885.641 694.595 652.549 645.355 635.081 578.329 471.054 455.177 730.796 449.741 439.178 375.67 373.231 366.767 351.077
threshold=216.87719345092776 93.981893062591567 284.15464651584631 226.62770104408267 121.7428425550461 263.33287596702581 72.594850540161147 78.576001524925246 205.2794979810715 72.594850540161147 425.54424405097967 623.76645147800457 50.842284917831428 378.29805493354803 199.95380914211276 92.191879987716689 250.68393349647525 1.5000000000000002 19.173047900199894 58.213904976844795 440.89603197574621 146.31216454505923 1.5000000000000002 612.39670455455791 14.030441999435427 146.31216454505923 512.99937200546276 146.31216454505923 66.613258004188552 547.30071151256573
decision_type=2 2 2 2 2 2 2 2 2 2 2 2 2 2 2 2 2 2 2 2 2 2 2 2 2 2 2 2 2 2
left_child=1 6 3 7 8 15 12 9 19 18 14 20 -1 -9 21 17 25 22 -2 -3 -5 -6 24 -24 -4 -8 -10 -21 -15 -17
right_child=2 4 5 11 10 -7 16 13 26 -11 -12 -13 -14 28 -16 29 -18 -19 -20 27 -22 -23 23 -25 -26 -27 -28 -29 -30 -31
leaf_value=-0.07379248299475763 -0.051657464557355287 -0.058304666368599323 0.0073401896070642405 -0.0027107157405180807 -0.038815918551962203 0.033777018102431569 -0.05868655611251114 -0.020949772601256834 -0.022039093144660345 -0.0074897778261606889 0.012528976800492459 0.032369345117405017 -0.061276918436249987 -0.0017590453421867398 -0.0023521983214033885 0.020276839074932981 -0.028724720234774404 -0.079081488019548563 -0.028354330205952429 -0.050382822830420171 0.019307437829469427 -0.018182537509155258 0.01820106790746864 0.036848060844189297 0.020070994067768477 -0.037499887987706586 0.0079499983611021757 -0.031780388519362428 0.01003303339106155 0.028927437382268592
leaf_weight=446040.260181427 4734.9073624461889 14275.121960163116 8436.5841820389032 3264.1982036530972 5032.4786860793829 943052.05675278604 14515.48533077538 4082.5601422786713 4762.6502604484558 12072.671276673675 4489.8925891369581 21851.6933080405 18974.536276951432 10558.325620397925 5688.9739479273558 13652.963655501604 2908.4443356841803 164.80792385339737 7975.5061800032854 6212.3949061781168 34534.796686798334 6142.1748186796904 11640.940476164222 9577.1585737913847 39036.845555573702 2941.6935266107321 1337.5703370273113 4764.1344162523746 17562.034102141857 83216.796222373843
leaf_count=2014580 19293 60653 36424 13454 20691 4363963 62259 16610 19385 49911 18564 99480 82168 43836 23428 59901 11959 668 32465 26066 151037 24962 49985 41609 172321 12179 5558 19479 74260 374173
internal_value=0 -0.0683497 0.0300396 0.00751221 -0.0314046 0.0324093 -0.0723615 -0.00858203 -0.0443687 -0.0226427 -0.0123703 0.0228875 -0.0732818 0.0022389 -0.0189996 0.0246266 -0.0513474 0.0202912 -0.0370353 -0.0513515 0.017406 -0.0274747 0.0205296 0.0266177 0.0178086 -0.0551164 -0.0154635 -0.0423088 0.00560547 0.0277082
internal_weight=0 538086 1.22541e+06 116637 52705.4 1.10878e+06 485380 56986 31351.9 24783.1 21353.5 59650.7 465015 32202.9 16863.6 165726 20365.6 68856.3 12710.4 25251.7 37799 11174.7 68691.5 21218.1 47473.4 17457.2 6100.22 10976.5 28120.4 96869.8
internal_count=8001321 2401931 5599390 500346 218786 5099044 2183145 236375 131141 101669 87645 263971 2096748 134706 69081 735081 86397 301007 51758 106198 164491 45653 300339 91594 208745 74438 24943 45545 118096 434074
is_linear=0
shrinkage=0.05


Tree=12
num_leaves=31
num_cat=0
split_feature=14 11 16 10 10 12 12 12 10 12 13 10 11 10 11 10 12 12 11 15 11 0 20 13 10 11 11 11 12 13
split_gain=1.33509e+06 32677.6 18166.9 13216.5 5839.25 4467.2 3375.17 3090.65 2797.74 1659.17 1601.71 1340.37 1229.65 1007.21 974.369 953.852 829.915 741.411 672.748 653.438 643.768 609.371 690.42 597.326 521.741 504.165 504.094 461.219 415.89 390.009
threshold=238.13674247264868 223.63349151611331 77.731063485145583 118.16110157966615 322.73357033729559 133.77674663066867 251.93980956077579 115.41050601005556 55.676492094993598 280.41463994979864 104.04171800613405 330.01244103908545 40.203230023384101 381.89072751998907 547.30071151256573 92.191879987716689 355.43704342842108 38.400175929069526 57.408564567565925 173.4806184768677 131.30342447757724 1.7500000000000002 1.0000000180025095e-35 278.13151550292974 20.80085647106171 182.73358643054965 566.82312035560619 223.63349151611331 140.93116760253909 278.13151550292974
decision_type=2 2 2 2 2 2 2 2 2 2 2 2 2 2 2 2 2 2 2 2 2 2 2 2 2 2 2 2 2 2
left_child=2 3 8 5 9 18 11 10 17 14 20 -5 24 -8 29 21 23 -1 -2 28 -4 22 -11 25 -7 -9 -23 -12 -10 -3
right_child=1 4 7 6 -6 12 13 16 19 15 27 -13 -14 -15 -16 -17 -18 -19 -20 -21 -22 26 -24 -25 -26 -27 -28 -29 -30 -31
leaf_value=-0.072193776976618745 -0.056281248382768934 -0.01411408592694852 -0.05991207788352472 -0.016008330630488572 0.032568542609280951 -0.047075069323085292 0.013814762960617746 -0.038016879984798219 -0.059543730656328224 0.01730777172253448 -0.036498375529949556 0.010972955878927465 -0.0021814853036328991 0.027665087229759605 0.02457305232454416 0.027206758575153756 0.0010725862596788218 -0.062376755434221644 -0.03339809492349137 -0.029514568855710667 -0.037988363404022535 0.01981768913311871 -0.043644508140865269 -0.0024330722148657776 -0.017833049769948959 -0.013926871325529442 0.035966304599663816 -0.0096719261475604144 -0.038563240010207459 0.0059770441248860494
leaf_weight=421630.79183477163 6926.2733815610409 3650.5333357602358 16609.613297402859 9979.0905471295118 912926.99331086874 2194.3000369518995 24470.751798659563 7811.6819944679737 17164.844993963838 46892.972313538194 7783.2011461257935 8543.9719424396753 17426.548961043358 28314.192470252514 5812.7977798432112 121054.77623826265 3443.7282947301865 20151.901852354407 5989.2614924311638 2495.5008840113878 4193.9006907492876 10554.32752341032 469.24294595420361 2144.3715250790119 5003.8808460831642 3008.2961782664061 8914.2403898835182 2017.5353621840477 2738.9457407593727 7139.7266409397125
leaf_count=1956437 29018 14791 72809 40551 4279022 8813 105450 32372 75537 207385 32281 36363 72089 129201 24861 550783 13878 89772 24312 10403 17382 45867 1960 8628 20302 12159 39332 8149 11462 29952
internal_value=0 0.0283105 -0.0678722 0.00215878 0.0308579 -0.0218538 0.0148002 -0.0382542 -0.0708719 0.0232209 -0.0476412 -0.00356291 -0.00936242 0.0212442 0.00807012 0.0245597 -0.0207456 -0.071746 -0.0456697 -0.0536327 -0.0554923 0.019765 0.0167039 -0.0265412 -0.0267472 -0.0313191 0.0272118 -0.030976 -0.0566566 -0.000820136
internal_weight=0 1.22626e+06 511194 108848 1.11742e+06 37540.3 71308 47012.3 464182 204489 30604.3 18523.1 24624.7 52784.9 16603.1 187886 16408.1 441783 12915.5 22399.3 20803.5 66830.8 47362.2 12964.3 7198.18 10820 19468.6 9800.74 19903.8 10790.3
internal_count=8001321 5660052 2341269 466099 5193953 154534 311565 197658 2143611 914931 130621 76914 101204 234651 69604 845327 67037 2046209 53330 97402 90191 294544 209345 53159 29115 44531 85199 40430 86999 44743
is_linear=0
shrinkage=0.05


Tree=13
num_leaves=31
num_cat=0
split_feature=14 11 18 10 10 11 10 10 13 13 11 17 10 15 13 13 11 10 1 10 20 13 15 10 11 1 10 11 10 10
split_gain=1.23224e+06 31649.1 16579.4 12669.7 4365.82 3990.6 3601.31 1990.96 1962.81 1724.63 1685.35 1670.71 1044.38 899.918 825.154 793.152 632.132 598.805 642.13 968.051 574.809 544.942 525.259 522.813 415.448 398.035 397.831 373.06 358.036 341.442
threshold=212.32697856426242 303.80726099014288 69.439394354820266 199.95380914211276 189.73070096969607 78.576001524925246 110.15325343608858 52.949934005737312 172.33656811714175 378.29805493354803 136.42116153240207 55.292276501655586 744.96749150753033 195.43478941917422 172.33656811714175 132.75104486942294 20.112745523452762 448.40628051757818 1.0000000180025095e-35 1372.5219969749453 1.5000000000000002 440.89603197574621 33.173078060150154 14.030441999435427 349.18039596080786 1.5000000000000002 774.74080336093914 509.4428900480271 366.07104885578161 102.80774688720706
decision_type=2 2 2 2 2 2 2 2 2 2 2 2 2 2 2 2 2 2 2 2 2 2 2 2 2 2 2 2 2 2
left_child=2 3 11 5 20 7 10 16 -7 -5 15 22 -11 -8 -9 -4 -2 27 -19 26 21 -3 -1 25 -12 -23 -20 -6 -15 -13
right_child=1 4 6 9 17 8 13 14 -10 12 24 29 -14 28 -16 -17 -18 18 19 -21 -22 23 -24 -25 -26 -27 -28 -29 -30 -31
leaf_value=-0.070650211448479688 -0.054142341388101492 0.0043674845567517528 -0.059504538830404345 -0.0018998742185968222 0.019519309367576915 -0.02647449491836636 -0.032706268238755921 -0.03553601001164549 0.0044446176027603847 0.017822700113880773 -0.035803508358297147 -0.057792180728519854 0.032757221616343486 -0.016479033784455876 -0.0075843464199371411 -0.038051616880575456 -0.031553312714748587 0.030859272159979714 0.031058878213784499 0.048768752485360549 -0.048483496693769328 0.0061786168153239686 -0.062335973751389877 0.023071231869102725 -0.0088121405666968054 0.026970842494508204 0.036057660159353383 0.028692619241821312 0.0076931783550859591 -0.039997007907416095
leaf_weight=403763.64807656407 5314.4090496301651 4541.351887524128 23108.087091818452 8897.4753477722406 12455.106921419501 6244.3272333592176 10378.549218401313 3433.3934746235609 28838.50124463439 45615.177791252732 6259.3281175196171 13655.479893952608 15747.403916358948 6437.9198555350304 11430.921169534326 5295.8832777887583 7422.9627751857042 671082.19032995403 88270.953981205821 10812.377933844924 295.16688950359821 8379.4439557641745 19934.151322126389 109976.27175877988 1846.0982480496168 3173.4792701601982 72488.43680344522 100623.45232273638 2010.2574660331011 3358.5605325549841
leaf_count=1926351 22161 18803 103890 36916 56461 25528 43395 14213 121279 203030 26099 61837 73696 26166 47063 22109 30571 3185331 419320 52966 1235 36424 91523 494687 7484 13763 347382 469102 8098 14438
internal_value=0 0.0271154 -0.0664031 0.00409287 0.0299439 -0.0122486 -0.0406063 -0.0264715 -0.00105862 0.0186724 -0.049766 -0.0696421 0.0216553 -0.0228435 -0.0140407 -0.0555047 -0.0409781 0.0310987 0.0315572 0.0342869 0.0212097 0.0213729 -0.070259 0.0220083 -0.0296559 0.01189 0.0333129 0.0276822 -0.0107272 -0.0542794
internal_weight=0 1.21504e+06 496048 132945 1.0821e+06 62684.5 55336.1 27601.7 35082.8 70260.1 36509.4 440712 61362.6 18826.7 14864.3 28404 12737.4 955733 842654 171572 126366 126071 423698 121529 8105.43 11552.9 160759 113079 8448.18 17014
internal_count=8001321 5669931 2331390 574457 5095474 260815 237241 114008 146807 313642 159582 2094149 276726 77659 61276 125999 52732 4530562 4004999 819668 564912 563677 2017874 544874 33583 50187 766702 525563 34264 76275
is_linear=0
shrinkage=0.05


Tree=14
num_leaves=31
num_cat=0
split_feature=14 12 17 10 11 11 10 11 12 11 12 10 10 12 0 11 11 10 10 16 20 10 0 10 12 10 12 12 11 10
split_gain=1.13841e+06 29683.5 16489.9 8186.86 5883.19 4313.07 3458 3123.82 2123.23 1776.2 1514.89 1440.61 1422.82 1400.23 1312.88 1109.28 812.735 750.766 723.07 593.253 588.803 524.31 523.868 1114.59 481.529 478.257 437.308 429.564 426.147 413.106
threshold=212.32697856426242 379.48195457458502 73.577066540718093 146.77705752849582 108.7657244205475 117.18785512447359 250.68393349647525 108.7657244205475 50.561772584915168 400.84656143188482 140.93116760253909 250.68393349647525 484.22555589675909 77.399248480796828 2.7500000000000004 400.84656143188482 293.493068933487 102.80774688720706 20.80085647106171 46.655862092971809 1.5000000000000002 288.59703099727636 1.0000000180025095e-35 1273.8372493982317 174.26533949375155 52.949934005737312 99.200712919235258 174.26533949375155 722.96775805950176 14.030441999435427
decision_type=2 2 2 2 2 2 2 2 2 2 2 2 2 2 2 2 2 2 2 2 2 2 2 2 2 2 2 2 2 2
left_child=2 4 8 5 6 14 13 10 19 11 17 26 15 25 18 -5 21 -4 -3 -1 29 27 -14 -24 -10 -2 -6 -9 -11 -7
right_child=1 3 7 12 9 20 -8 16 24 28 -12 -13 22 -15 -16 -17 -18 -19 -20 -21 -22 -23 23 -25 -26 -27 -28 -29 -30 -31
leaf_value=-0.069106288686255929 -0.057561708844094311 -0.040838678260662363 -0.057999742220807782 0.017587199895270033 -0.019376677974447455 0.010719412891753939 0.0041193947286647485 -0.03804227715499825 -0.055717296809656452 0.014465423019837746 -0.026819430043657406 0.012550382796230039 0.029692853205549808 -0.020693991397390744 0.018061619872277078 0.027437908346206949 -0.0039842712433822884 -0.038307101196016324 -0.01111143730107925 -0.058405998658483796 -0.058821600268663003 -0.0030788255969090295 0.031396484630405584 0.044317817627536463 -0.034960374437093912 -0.035755458803451275 -0.0032243016330325129 -0.015793544565610766 0.032420468205069428 0.020458975858532319
leaf_weight=398850.42028638721 5353.2730807960033 2719.7384734898806 18272.609236702323 36441.836164698005 7427.9098568111658 12347.005851730704 8326.8250315338373 7764.0991144627333 17546.843391269445 10687.963347375393 7258.3101822584867 11648.470138311386 662786.75690495968 9666.4505928903818 3167.6433100104332 132451.61210571229 5123.3065056353807 6583.7508946806192 8252.0019725710154 13388.361289158463 241.70618595182896 1860.0086325705051 160336.3723551929 18628.427592113614 3323.2412752956152 4741.5227097868919 9614.0965465903282 3010.7786267697811 4783.7772287577391 92095.117217555642
leaf_count=1959316 23105 11018 83586 162815 30292 53650 35285 32908 80391 46831 30086 50719 3185331 39439 12942 623597 20719 27969 33957 62350 999 7511 772452 92732 14293 19565 39587 12261 21105 414510
internal_value=0 0.0260535 -0.064836 0.028041 -0.0050166 0.0156262 -0.022907 -0.0376102 -0.0679711 0.00636209 -0.0469155 -0.00100152 0.0295007 -0.0342952 -0.0102939 0.0253124 -0.0207822 -0.0527837 -0.0184804 -0.0687588 0.0191272 -0.0275936 0.030341 0.0327415 -0.0524121 -0.0473193 -0.0102645 -0.0318254 0.020017 0.0193076
internal_weight=0 1.20172e+06 482982 1.12947e+06 72250.3 118823 28088.1 49872.9 433109 44162.2 32114.7 28690.5 1.01065e+06 19761.2 14139.4 168893 17758.2 24856.4 10971.7 412239 104684 12634.9 841752 178965 20870.1 10094.8 17042 10774.9 15471.7 104442
internal_count=8001321 5669931 2331390 5364003 305928 527076 117394 215040 2116350 188534 141641 120598 4836927 82109 57917 786412 73399 111555 44975 2021666 469159 52680 4050515 865184 94684 42670 69879 45169 67936 468160
is_linear=0
shrinkage=0.05


Tree=15
num_leaves=31
num_cat=0
split_feature=13 15 11 12 12 11 11 11 11 12 12 12 12 11 0 11 0 12 13 15 11 11 0 14 11 11 0 11 0 1
split_gain=1.05376e+06 26822.4 19846.2 6827.52 4028.4 3421.48 2097.97 1240.11 1039.28 942.293 855.74 830.267 738.773 617.78 611.165 597.173 534.413 523.791 497.336 436.546 385.113 377.558 350.305 311.903 309.478 303.678 324.768 568.667 389.397 280.939
threshold=200.14050805568698 87.481691002845778 293.493068933487 184.25202858448031 140.93116760253909 52.474798440933235 121.7428425550461 78.576001524925246 63.190878391265869 205.04923844337466 50.561772584915168 379.48195457458502 133.77674663066867 349.18039596080786 1.7500000000000002 472.34674954414373 1.7500000000000002 30.150565505027775 44.991338014602668 155.32739663124087 635.78378450870525 195.95932841300967 2.7500000000000004 146.31216454505923 18.242461919784549 472.34674954414373 1.2500000000000002 936.80589056015026 1.0000000180025095e-35 2.5000000000000004
decision_type=2 2 2 2 2 2 2 2 2 2 2 2 2 2 2 2 2 2 2 2 2 2 2 2 2 2 2 2 2 2
left_child=1 5 3 8 6 10 18 14 17 20 -1 13 21 23 -5 -8 -9 -2 -3 -10 -4 -7 -21 -6 29 -11 28 -28 -27 -16
right_child=2 4 9 7 11 12 15 16 19 25 -12 -13 -14 -15 24 -17 -18 -19 -20 22 -22 -23 -24 -25 -26 26 27 -29 -30 -31
leaf_value=-0.067700417366393859 -0.042659318938861518 -0.054729762026251051 0.0089732378661819181 0.032542329144673393 -0.03067258247514075 -0.055228283304319295 -0.025540746224120066 0.037184699494302691 -0.026111526610205667 0.022836888580065027 -0.055340666422158138 0.0074736534373856245 -0.030686697415208415 0.008318262786078421 -0.01049447501334675 0.0067489004855034659 0.0162380963438177 -0.019497802816949281 -0.039657474216883995 0.04007428280506628 0.027294632477657399 -0.035913411263368042 -0.0053734288273708779 -0.013495264008440866 0.0065781365546880273 0.028567713628676401 0.029194327673335803 0.042522693649412482 0.026423028365706494 0.0096777179966629785
leaf_weight=392720.16388694942 3569.0734934210777 11133.464954376221 9317.7526406645775 1925.4203360825777 4620.0550032258034 17712.409252732992 9376.3827396780252 3226.9535010308027 2637.2189333885908 28502.747939676046 14522.18929630518 5345.2391465306282 4795.9622333496809 2182.8435326516628 5981.6501884311438 1689.9876530617476 54008.996620118618 7722.801477342844 10765.045713499188 436.82934369146824 4143.756341278553 2951.7555451691151 14432.899649515748 6174.6317476779222 22372.51117657125 654656.691995278 35900.022576630116 10298.615823000669 312753.69275905192 2426.0716746002436
leaf_count=1987598 15256 50759 40517 9476 19377 83152 39132 15884 11005 132765 67830 22313 20383 9080 25834 7009 240311 32255 47146 1990 18487 12765 59855 25212 96949 3185331 168491 47899 1497024 10236
internal_value=0 -0.0620956 0.0255769 0.00619659 -0.0279064 -0.066148 -0.0383536 0.012981 -0.0149917 0.027757 -0.0672597 -0.0091106 -0.0483661 -0.0159414 0.00521413 -0.0206097 0.0174191 -0.0268186 -0.0473204 -0.00736338 0.014613 -0.0524693 -0.00403831 -0.020847 0.00350465 0.0279268 0.0280699 0.0321655 0.0278744 -0.00467373
internal_weight=0 483990 1.17431e+06 118740 51287.7 432702 32964.9 89941.6 28798.8 1.05557e+06 407242 18322.8 25460.1 12977.5 32705.7 11066.4 57236 11291.9 21898.5 17506.9 13461.5 20664.2 14869.7 10794.7 30780.2 1.04211e+06 1.01361e+06 46198.6 967410 8407.72
internal_count=8001321 2391756 5609565 519051 220028 2171728 144046 398690 120361 5090514 2055428 75982 116300 53669 142495 46141 256195 47511 97905 72850 59004 95917 61845 44589 133019 5031510 4898745 216390 4682355 36070
is_linear=0
shrinkage=0.05


Tree=16
num_leaves=31
num_cat=0
split_feature=14 12 16 10 11 10 11 13 10 10 12 12 0 11 11 10 15 10 13 13 11 10 20 13 10 12 15 13 12 11
split_gain=975166 26373 15140.9 7607.94 5078.29 4048.84 3618.35 2487.49 2464.7 1495.87 1435.15 1156.09 1147.13 1076.58 899.386 797.756 758.54 677.252 654.058 584.09 583.907 544.979 536.47 530.162 528.753 500.785 488.425 462.418 358.007 352.982
threshold=190.96831595897677 379.48195457458502 72.812201619148269 130.17364490032199 175.52500247955325 238.85548651218417 117.18785512447359 60.997387647628791 102.80774688720706 358.31705546379095 77.399248480796828 109.50520551204683 2.7500000000000004 509.4428900480271 361.4016278982163 576.83452355861675 40.755808591842658 366.07104885578161 233.95012247562411 339.40055453777319 23.420966506004337 52.949934005737312 1.5000000000000002 104.04171800613405 635.62354946136486 297.77242660522467 195.43478941917422 117.28305554389955 297.77242660522467 223.63349151611331
decision_type=2 2 2 2 2 2 2 2 2 2 2 2 2 2 2 2 2 2 2 2 2 2 2 2 2 2 2 2 2 2
left_child=2 4 7 6 5 10 12 16 11 14 21 23 20 15 -5 18 -1 19 -6 25 -3 -2 -8 -4 -7 29 -9 -12 -13 -10
right_child=1 3 8 9 13 24 22 26 17 -11 27 28 -14 -15 -16 -17 -18 -19 -20 -21 -22 -23 -24 -25 -26 -27 -28 -29 -30 -31
leaf_value=-0.066537308725522382 -0.050837529861064858 -0.037215913939211705 -0.05500613068320144 0.013972871906678478 -0.01337377101914322 -0.00038153405745682011 0.016826063538572449 -0.049504277038175899 -0.036092101589849504 0.027994754818052969 -0.031164689157170269 -0.033685663724407962 0.016163451446755961 0.022352143308156127 0.024345954558003612 0.026128211693290354 -0.055743148632244381 0.0027497288365542884 0.0056231944008076108 0.0055847760283269134 -0.0113255650541195 -0.030160853851683923 -0.06149621386013715 -0.035740658057929191 0.022573569251085501 -0.0016873907027846362 -0.020867209204614514 -0.011109400298851727 -0.0092926177142262714 -0.013149449649700346
leaf_weight=375972.49077925086 6410.2126262933016 3166.0266901254654 14320.303138107061 26489.190864995122 6640.3983675837517 9465.0535790622234 92981.15316991508 15888.73991984129 8283.9576267004013 872627.68167673051 4128.5163226425648 5960.2104791402817 2918.8369561135769 10508.298499166965 98970.954291313887 3275.1192811727524 17012.185785666108 2942.9096542298794 14262.951720446348 1510.9311633259058 6976.5808504372835 6337.5027218610048 219.1480088531971 4757.3084501475096 3413.2695657908916 1636.1124866753817 1642.9115065336227 9460.2944855988026 2011.9291369616985 2101.8875669836998
leaf_count=1964647 28276 12855 68282 117932 27179 39516 422360 74772 35790 4297621 17230 25681 11951 46932 472403 15016 83030 11952 61058 6094 28669 26425 903 20728 15085 6624 7064 38459 8216 8571
internal_value=0 0.0239716 -0.0622749 0.0259067 -0.0049457 -0.0172727 0.0131879 -0.065248 -0.0342341 0.0272608 -0.0285074 -0.0435199 -0.0114583 0.00899052 0.0221558 0.00318338 -0.06607 -0.0189887 -0.0004116 -0.023716 -0.0194073 -0.0405582 0.0166419 -0.050202 0.00570248 -0.0273986 -0.0468207 -0.0172025 -0.0275296 -0.031449
internal_weight=0 1.17825e+06 454042 1.10435e+06 73901.6 39214.8 106262 410516 43525.5 998088 26336.5 27049.8 13061.4 34686.8 125460 24178.5 392985 16475.8 20903.4 13532.9 10142.6 12747.7 93200.3 19077.6 12878.3 12022 17531.7 13588.8 7972.14 10385.8
internal_count=8001321 5679870 2321451 5364694 315176 164991 476738 2129513 191938 4887956 110390 122907 53475 150185 590335 103253 2047677 69031 88237 57079 41524 54701 423263 89010 54601 50985 81836 55689 33897 44361
is_linear=0
shrinkage=0.05


Tree=17
num_leaves=31
num_cat=0
split_feature=14 12 18 10 11 11 10 10 10 13 12 10 0 10 11 12 0 10 13 10 13 11 10 11 11 10 17 20 10 10
split_gain=903278 24192.4 15241.9 7100.65 4639.09 3478.94 2954.8 2936.45 1714.86 1446.8 1381.68 1130.87 1095.87 848.566 827.975 785.765 731.416 1004.41 718.087 700.273 636.439 623.086 624.057 607.187 508.57 500.53 493.775 487.142 458.651 415.198
threshold=190.96831595897677 379.48195457458502 69.439394354820266 160.33106791973117 108.7657244205475 163.30525445938113 110.15325343608858 102.80774688720706 29.877045392990116 306.83764350414282 109.50520551204683 544.53976297378551 2.7500000000000004 423.07897007465368 425.54424405097967 58.121449470520027 1.0000000180025095e-35 1372.5219969749453 161.25363743305209 72.594850540161147 104.04171800613405 547.30071151256573 315.58823549747473 31.327376008033756 509.4428900480271 389.37008857727056 73.577066540718093 1.5000000000000002 503.29728651046759 19.59407198429108
decision_type=2 2 2 2 2 2 2 2 2 2 2 2 2 2 2 2 2 2 2 2 2 2 2 2 2 2 2 2 2 2
left_child=2 4 8 5 6 12 15 10 -1 24 20 14 19 -8 -5 -2 -13 -18 25 23 -4 22 -11 -3 28 -9 -10 29 -6 -7
right_child=1 3 7 11 9 27 13 18 26 21 -12 16 -14 -15 -16 -17 17 -19 -20 -21 -22 -23 -24 -25 -26 -27 -28 -29 -30 -31
leaf_value=-0.065310134466711675 -0.049375011478628369 -0.04077495239852829 -0.055477438804896508 0.01632385962131689 -0.014679828031080106 0.0099518101201869699 -0.012940053266906022 -0.03037647515825383 -0.056217027394247422 0.0012426180678558809 -0.027864818271706338 0.026413185953635062 0.015783813285766213 0.012706469029778773 0.024561318717545456 -0.025590338434332217 0.029135365683366578 0.044800906957049372 -0.0054513265542632935 5.3654230754262505e-05 -0.035979717242170924 0.024616102651613216 0.018333659496376522 -0.012363316627788978 0.014099995168124851 -0.001436211000804025 -0.04066539697713635 -0.05271244236338693 0.016624838098022714 0.018690172202802804
leaf_weight=360790.55641259253 6623.72477465868 2871.2396352440119 17699.642143636942 39273.323978483677 11168.806458041072 16002.698573693633 10325.556921422482 10719.493980705738 22363.511942818761 14192.715823769569 9087.9188291281462 638806.09132348001 4402.4996102750301 4690.3757475763559 136631.09213246405 7298.8906006067991 140876.77194271982 11033.327401250601 6141.1519792973995 6178.1567193120718 5481.5023697912693 7126.8364529907703 8563.8332887589931 5449.7154305577278 2318.6127467751503 1736.0096673965454 6613.4935434609652 248.5037382543087 1306.9672793149948 90297.656597092748
leaf_count=1947769 29641 11646 87416 180022 45824 71008 42412 46565 113105 59439 39164 3185331 18202 20379 667641 30405 705817 57711 25086 25857 24273 32584 38999 22468 9871 7107 30966 1033 5622 417958
internal_value=0 0.0230255 -0.0610108 0.0248957 -0.00471772 0.0137042 -0.0203135 -0.0352689 -0.0643702 0.00538393 -0.0443889 0.0263481 -0.00606464 -0.00492911 0.0227222 -0.036906 0.0271548 0.0302732 -0.0194439 -0.0126987 -0.0508669 0.0117148 0.00767439 -0.0221671 -0.00740386 -0.0263429 -0.0526676 0.0172112 -0.0114003 0.0173747
internal_weight=0 1.16569e+06 440633 1.09207e+06 73616.3 125450 28938.5 50865.7 389768 44677.8 32269.1 966621 18901.6 15015.9 175904 13922.6 790716 151910 18596.7 14499.1 23181.1 29883.4 22756.5 8320.96 14794.4 12455.5 28977 106549 12475.8 106300
internal_count=8001321 5679870 2321451 5364694 315176 568172 122837 229611 2091840 192339 150853 4796522 78173 62791 847663 60046 3948859 763528 78758 59971 111689 131022 98438 34114 61317 53672 144071 489999 51446 488966
is_linear=0
shrinkage=0.05


Tree=18
num_leaves=31
num_cat=0
split_feature=15 12 19 10 10 11 11 14 13 16 11 10 12 0 10 10 11 11 10 11 10 0 10 20 11 12 16 11 18 0
split_gain=837551 27143.7 10733.9 7358.2 5176.88 3960.3 3179.28 2062.86 1552.67 1258.96 1099.97 933.977 876.1 712.497 657.93 600.185 556.958 552.633 552.364 545.518 525.302 740.586 936.765 522.254 521.602 518.7 491.268 469.406 375.016 363.89
threshold=221.96041798591617 280.41463994979864 52.901781558990486 263.33287596702581 95.470924377441435 163.30525445938113 169.22441947460177 94.693867921829238 306.83764350414282 44.05212056636811 113.14436399936677 69.497641444206252 50.561772584915168 2.7500000000000004 61.086557507514961 503.29728651046759 19.173047900199894 664.12397599220287 457.18163061141973 349.18039596080786 565.86822497844707 1.0000000180025095e-35 1372.5219969749453 1.0000000180025095e-35 361.4016278982163 89.666898012161269 139.53616261482242 412.03221142292028 24.51105105876923 1.7500000000000002
decision_type=2 2 2 2 2 2 2 2 2 2 2 2 2 2 2 2 2 2 2 2 2 2 2 2 2 2 2 2 2 2
left_child=2 4 9 5 6 11 12 10 15 28 25 13 -2 16 23 19 -3 -8 24 -6 27 -22 -23 29 -10 -4 -9 -5 -1 -7
right_child=1 3 7 20 8 14 17 26 18 -11 -12 -13 -14 -15 -16 -17 -18 -19 -20 -21 21 22 -24 -25 -26 -27 -28 -29 -30 -31
leaf_value=-0.064585594486034348 -0.050610017348427551 -0.044325925304613344 -0.055075387511821686 0.016989945683428619 -0.018975418592822303 0.010309156991027777 -0.0083570569847168322 -0.032432065033306978 -0.00077806082600931218 -0.049951101095312832 -0.029453818645227614 0.0050341851249213034 -0.02785756987396415 0.0060807840615825486 0.019940016931792755 0.012501159340320643 -0.013848586794118968 0.02291198420767283 0.020440458528216146 0.0058911281873323083 0.025400460879636544 0.028225069389697762 0.043539031031611747 -0.04548269306741877 0.016925301255506033 -0.038586838188573724 -0.015214510254065314 0.02430404025794378 -0.057363575126353997 0.019735915039909607
leaf_weight=333818.62540742755 8095.4210494756699 1992.4434514045715 19430.665934443474 28334.723086342216 11022.925030753016 31371.397250324488 7967.9900020062923 9055.2561631053686 12894.101774856448 16222.297481968999 7667.3359148353338 17628.711289733648 8863.1212839633226 3338.2396236658096 114234.08887633681 2528.4950244426727 6053.1106945127249 1717.6161026805639 8224.803957298398 2757.2496833652258 631257.56919497252 133614.82366752625 10792.716088250279 379.83137975633144 6142.9411883205175 6321.4470064043999 7637.2376752197742 97146.737487286329 18998.134929090738 15196.207397222519
leaf_count=1868159 37092 8126 99285 131370 45565 142951 32934 41018 53429 81662 33983 75307 37639 13665 542131 10707 24841 7524 37741 11523 3185331 678069 57714 1583 27725 28933 32331 483840 100987 68156
internal_value=0 0.021829 -0.060622 0.0237677 -0.00830459 0.0148311 -0.025666 -0.0389086 0.00231224 -0.0635705 -0.0460782 -0.00217488 -0.0387188 -0.0133387 0.0178921 -0.00989119 -0.0213962 -0.0028119 0.00961261 -0.0139999 0.0256539 0.0261394 0.0293696 0.0129091 0.00493452 -0.0510279 -0.0245546 0.0226525 -0.0641967 0.0133854
internal_weight=0 1.16156e+06 419151 1.09134e+06 70214.7 190194 26644.1 50111.9 43570.5 369039 33419.4 29012.5 16958.5 11383.8 161182 16308.7 8045.55 9685.61 27261.8 13780.2 901147 775665 144408 46947.4 19037 25752.1 16692.5 125481 352817 46567.6
internal_count=8001321 5714963 2286358 5413084 301879 876760 115189 235550 186690 2050808 162201 121939 74731 46632 754821 67795 32967 40458 118895 57088 4536324 3921114 735783 212690 81154 128218 73349 615210 1969146 211107
is_linear=0
shrinkage=0.05


Tree=19
num_leaves=31
num_cat=0
split_feature=13 15 11 10 12 11 10 11 12 11 10 11 12 12 10 10 10 10 10 11 20 0 11 12 0 10 10 12 0 12
split_gain=777291 21362.5 16959.4 6908.99 3284.52 3211.26 3087.24 2751.77 1527.09 937.646 872.685 836.705 750.479 732.042 715.606 623.425 614.806 603.101 573.461 554.787 456.769 377.098 511.257 353.708 333.517 1085.66 393.285 332.744 331.791 327.466
threshold=161.25363743305209 72.680060386657729 293.493068933487 226.62770104408267 148.50095856189731 108.7657244205475 322.73357033729559 52.474798440933235 133.77674663066867 63.190878391265869 744.96749150753033 425.54424405097967 165.17923557758334 43.965399026870735 82.368275046348586 20.80085647106171 160.33106791973117 174.1379615068436 102.80774688720706 48.255768060684211 1.0000000180025095e-35 1.7500000000000002 936.80589056015026 194.73402404785159 1.0000000180025095e-35 1038.5478390455248 1539.2627840042117 216.83518111705783 2.7500000000000004 548.46013963222515
decision_type=2 2 2 2 2 2 2 2 2 2 2 2 2 2 2 2 2 2 2 2 2 2 2 2 2 2 2 2 2 2
left_child=1 7 3 4 19 8 14 13 16 15 12 17 -5 -1 20 28 -3 23 -9 -2 21 -4 27 -7 -8 -26 -27 -23 -6 -10
right_child=2 5 6 10 9 11 24 18 29 -11 -12 -13 -14 -15 -16 -17 -18 -19 -20 -21 -22 22 -24 -25 25 26 -28 -29 -30 -31
leaf_value=-0.06339159594625686 -0.035962963551818189 -0.048708276926503369 0.011021585430033284 -0.00081748176590515267 -0.042613890068117742 -0.029602349509826511 0.024421681917518707 -0.048846718239675298 -0.022509583911756746 0.0052212592723578609 0.026732736450249858 0.0095280929869767366 0.015813165635084996 -0.051718355437576316 0.019986871564049751 -0.005304493210046413 -0.026257849808797321 -0.0038979580140533717 -0.029399644613709898 -0.018336480211812178 -0.033514464496167184 0.0015410309641596563 0.037279455826395781 -0.0095194727589111416 0.025039879969666858 0.032909037818352235 0.051169506698481415 0.019640812922259072 -0.0047246502898886751 0.010064631436816787
leaf_weight=339859.2316121608 7089.4762032032013 17140.930078715086 40651.512017026544 8340.5687538981438 1978.4690056890249 7471.1147585809231 623919.83971184492 15431.266514763236 7088.2385893166065 28851.266634717584 14756.764176979661 3788.6930365413427 36339.199676558375 13983.11176019907 121575.62766905129 11892.517680644989 3709.4371685236692 6033.8270910680294 5025.3729163557291 12054.800524786115 516.68796050548553 3246.8292829543352 3363.1598944664001 3103.1049227118492 168025.41971810162 33721.455515131354 3231.1877030134201 11651.525095567107 816.14093214273453 865.77689683437347
leaf_count=1966054 31477 85395 187290 35218 8106 32837 3185331 78620 30308 123834 73689 15969 168571 72497 587309 49139 15934 25164 22815 50463 2185 13686 15679 12825 854522 178369 17704 53389 3336 3606
internal_value=0 -0.057828 0.0215766 0.00397724 -0.00760356 -0.0268545 0.0237047 -0.0618995 -0.0376035 -1.40124e-05 0.0161905 -0.0116746 0.0127086 -0.0629303 0.0177888 -0.0102981 -0.0447142 -0.0165114 -0.0440694 -0.0248639 0.0132922 0.0137027 0.0196712 -0.0237088 0.0249965 0.0267464 0.0345058 0.0156963 -0.0315487 -0.018964
internal_weight=0 423500 1.13202e+06 122119 62682.7 49201.1 1.0099e+06 374299 28804.4 43538.4 59436.5 20396.7 44679.8 353842 181005 14687.1 20850.4 16608 20456.6 19144.3 59429.7 58913 18261.5 10574.2 828898 204978 36952.6 14898.4 2794.61 7954.02
internal_count=8001321 2362024 5639297 543833 266355 222038 5095464 2139986 135243 184415 277478 86795 203789 2038551 859538 60581 101329 70826 101435 81940 272229 270044 82754 45662 4235926 1050595 196073 67075 11442 33914
is_linear=0
shrinkage=0.05


Tree=20
num_leaves=31
num_cat=0
split_feature=15 11 19 10 10 13 13 14 18 11 10 10 13 10 16 10 1 0 20 11 13 10 10 17 18 11 10 11 20 0
split_gain=722067 22324 10966.2 8747.74 3451.74 2527.51 2330.9 1963.66 1347.54 1338.2 1021.8 898.624 749.529 632.456 538.035 527.319 506.131 475.692 471.419 454.269 445.084 441.559 388.448 368.641 329.074 288.168 287.89 284.504 280.859 270.854
threshold=221.96041798591617 264.70647358894354 52.901781558990486 99.11159205436708 322.73357033729559 339.40055453777319 110.46365106105806 74.466663599014296 37.816803097724922 50.379583001136787 343.68317544460302 118.16110157966615 440.89603197574621 92.191879987716689 139.53616261482242 389.37008857727056 5.5000000000000009 1.7500000000000002 1.0000000180025095e-35 936.80589056015026 104.04171800613405 20.80085647106171 1064.5214810371401 23.717748045921329 200.93567550182345 63.190878391265869 7.3274215459823617 664.12397599220287 2.5000000000000004 1.0000000180025095e-35
decision_type=2 2 2 2 2 2 2 2 2 2 2 2 2 2 2 2 2 2 2 2 2 2 2 2 2 2 2 2 2 2
left_child=2 3 8 6 12 15 16 11 23 21 28 20 27 17 -9 -5 25 18 26 -19 -4 -8 -12 -1 -10 -2 -14 -3 -7 -6
right_child=1 4 7 5 29 10 9 14 24 -11 22 -13 13 -15 -16 -17 -18 19 -20 -21 -22 -23 -24 -25 -26 -27 -28 -29 -30 -31
leaf_value=-0.062757786659097314 -0.055088113050303089 -0.0018010073875184226 -0.052764170086597721 -0.013858640867805534 0.023475512203974647 0.0071542758452036691 -0.040278150699370789 -0.031503039761292172 -0.050102683725568711 -0.0046202084504919283 0.017099177669335427 -0.027632085786429589 -0.0013229079327203767 0.019421626022878294 -0.014945014854882472 0.0066987598151556221 -0.019328716890633032 0.016129052184540679 -0.039861113844217672 0.035807520872947439 -0.035268205434720333 -0.01902542500162108 0.032581127245973014 -0.055274810865084879 -0.022862225222667388 -0.034883833026641616 0.012249566989679092 0.022347569864718687 -0.071693237347733002 0.025566206350086808
leaf_weight=308974.59999415278 4349.5727346986532 7316.3267011940479 17991.920996397734 11975.819084867835 616798.26643386483 32167.446678340435 3775.6890370249748 11074.676831826568 16813.208326742053 20016.121404916048 33222.082976475358 6124.6837419271469 4325.7943632900715 114361.90990337729 8808.0087571293116 4218.1929477006197 2156.4336313903332 15851.902422577143 461.4616777151823 3598.4648417234421 4555.3631415218115 6929.313431546092 4614.2787304669619 17384.746435388923 1186.94331176579 2969.7958119958639 40360.45328643918 1463.6837116926908 113.33909371495247 206873.6545471698
leaf_count=1856274 21063 30495 96665 49884 3185331 139823 16261 52014 90824 83792 158679 27692 19321 558602 37889 17743 10146 72394 1960 17059 21290 28852 24051 97901 5809 12875 188064 6240 480 1071848
internal_value=0 0.0201293 -0.058488 0.00032747 0.0226061 0.00930014 -0.0189387 -0.0362426 -0.0616246 -0.0122518 0.0134121 -0.0446159 0.0164879 0.0171877 -0.0241679 -0.00850388 -0.0406181 0.0132327 0.0104165 0.0197697 -0.0492294 -0.0265213 0.0189873 -0.0623592 -0.0483064 -0.0468903 0.0109357 0.00222471 0.00687744 0.0240006
internal_weight=0 1.13792e+06 392914 126508 1.01141e+06 86311.2 40196.9 48554.7 344359 30721.1 70117.1 28672 187740 178960 19882.7 16194 9475.8 64598.1 45147.7 19450.4 22547.3 10705 37836.4 326359 18000.2 7319.37 44686.2 8780.01 32280.8 823672
internal_count=8001321 5714963 2286358 563649 5151314 390660 172989 235550 2050808 128905 323033 145647 894135 857400 89903 67627 44084 298798 209345 89453 117955 45113 182730 1954175 96633 33938 207385 36735 140303 4257179
is_linear=0
shrinkage=0.05


Tree=21
num_leaves=31
num_cat=0
split_feature=14 12 16 10 11 11 10 12 10 10 11 10 11 0 11 12 10 12 10 10 11 10 0 10 20 12 11 0 10 11
split_gain=670921 18256.5 14273.9 5314.74 3410.91 2239.3 2221.62 2160.12 2100.37 1190.65 1094.35 1045.83 985.927 892.684 754.841 682.974 682.77 598.297 511.703 504.436 498.919 445.382 394.543 1048.15 394.394 372.502 366.206 336.449 331.382 317.001
threshold=174.02405333518985 379.48195457458502 59.426442503929145 118.16110157966615 100.36540937423707 108.7657244205475 41.484063029289253 89.666898012161269 85.356263518333449 448.40628051757818 509.4428900480271 288.59703099727636 146.33564198017123 2.7500000000000004 425.54424405097967 316.27263545989996 366.07104885578161 58.121449470520027 142.50370049476626 85.356263518333449 34.93811488151551 205.2794979810715 1.0000000180025095e-35 1230.6370644569399 1.5000000000000002 99.200712919235258 18.242461919784549 4.2500000000000009 715.89300048351299 126.25352489948274
decision_type=2 2 2 2 2 2 2 2 2 2 2 2 2 2 2 2 2 2 2 2 2 2 2 2 2 2 2 2 2 2
left_child=2 4 6 5 8 13 20 12 17 14 11 25 19 26 -5 21 -10 27 -8 -4 -1 29 -11 -24 -7 -6 -3 -2 -13 -9
right_child=1 3 7 9 10 24 18 15 16 22 -12 28 -14 -15 -16 -17 -18 -19 -20 -21 -22 -23 23 -25 -26 -27 -28 -29 -30 -31
leaf_value=-0.061801627911887591 -0.053818648475328773 -0.034434718733538601 -0.049349490841932075 0.012368526458957389 -0.013584468910408244 0.012997740495739808 -0.048513172407174385 -0.033209678488492433 -0.013793146840200603 0.022560749736287265 0.018303891552563668 0.007169266621493111 -0.020130210783512525 0.015403329486883666 0.020361156659262133 0.001956710574819321 0.0080775730551082957 -0.023463596791268096 -0.029113437018848567 -0.032437821311745989 -0.051948499476063836 -0.0058326636632352255 0.023869043112161977 0.036033866794759555 -0.057194712253293756 -0.00090784837481222591 -0.01183596449326093 -0.026724858103715179 0.026900592297612172 -0.015448062971728699
leaf_weight=307645.69131965935 4052.1779242604971 2467.5977857857943 14560.784115999937 38601.328882962465 10266.573375344276 83872.423510149121 16461.042645260692 6932.776149764657 10920.424458771944 609896.36178070307 10230.660093799233 9840.2853593528271 5327.0420838743448 2566.4833097010851 125847.65176060796 3811.4274584949017 5300.6359534710646 5976.6962313652039 4283.6750390231609 6324.5596747249365 13407.516575992107 3312.6905253380537 156548.46111141145 19965.519654750824 200.59809465706348 13305.701651141047 6553.9221490472555 1597.5716463774443 2715.0442524254322 3939.6131252497435
leaf_count=1915539 19248 10164 78568 177567 42782 390603 89832 32654 45534 3185331 47198 43868 23361 10527 632703 15657 23149 25657 20447 29804 75736 13720 819739 111052 844 55558 26802 7986 12865 16826
internal_value=0 0.0195247 -0.0569076 0.021224 -0.00444068 0.00999015 -0.0603655 -0.030173 -0.0182718 0.0223542 0.00386769 -0.000220374 -0.0393309 -0.0106153 0.018485 -0.0168343 -0.00664634 -0.0344914 -0.0445072 -0.0442283 -0.0613902 -0.0218833 0.0231632 0.025245 0.0128303 -0.00642897 -0.0180173 -0.0461574 0.0114361 -0.0267738
internal_weight=0 1.12073e+06 386007 1.04652e+06 74205.8 95661 341798 44208.9 27847.5 950859 46358.3 36127.6 26212.4 11588 164449 17996.5 16221.1 11626.4 20744.7 20885.3 321053 14185.1 786410 176514 84073 23572.3 9021.52 5649.75 12555.3 10872.4
internal_count=8001321 5689177 2312144 5365332 323845 438940 2101554 210590 121574 4926392 202271 155073 131733 47493 810270 78857 68683 52891 110279 108372 1991275 63200 4116122 930791 391447 98340 36966 27234 56733 49480
is_linear=0
shrinkage=0.05


Tree=22
num_leaves=31
num_cat=0
split_feature=15 12 19 10 11 11 10 13 10 13 12 10 10 12 10 1 11 10 10 1 10 11 11 11 10 16 11 20 10 12
split_gain=624074 20406.8 10397.3 5792.6 3735.34 2985.65 2167.76 1929.52 1298.38 1085.7 943.89 692.911 585.111 541.414 534.594 488.938 468.944 453.066 421.087 750.556 824.635 412.841 408.288 400.482 399.992 376.957 375.845 365.695 358.825 345.488
threshold=195.43478941917422 239.34187293052676 49.451074481010444 276.09576296806341 96.274185419082656 175.52500247955325 102.80774688720706 88.533357024192824 26.674657940864567 306.83764350414282 104.40729892253877 52.949934005737312 389.37008857727056 50.561772584915168 47.933801889419563 2.5000000000000004 85.631896972656264 130.17364490032199 612.08454704284679 1.0000000180025095e-35 1443.6395055055621 635.78378450870525 18.242461919784549 612.39670455455791 700.39421010017406 107.96637105941774 472.34674954414373 1.0000000180025095e-35 503.29728651046759 602.13875603675854
decision_type=2 2 2 2 2 2 2 2 2 2 2 2 2 2 2 2 2 2 2 2 2 2 2 2 2 2 2 2 2 2
left_child=2 4 8 5 6 11 13 10 -1 21 16 15 -8 -2 27 22 -4 -9 26 -20 -21 28 -3 24 -11 -10 -5 -7 -6 -17
right_child=1 3 7 18 9 14 12 17 25 23 -12 -13 -14 -15 -16 29 -18 -19 19 20 -22 -23 -24 -25 -26 -27 -28 -29 -30 -31
leaf_value=-0.060905601882972171 -0.047813180509721873 -0.041738295632570338 -0.051545921480322138 0.014647403492401645 -0.01457548425928553 0.01037083105191967 -0.016037762279610492 -0.02707708168523322 -0.050902648856682498 0.0021090859361311393 -0.02701378541720258 0.0035061588562719046 0.0073461229700414786 -0.02734522867769533 0.016746794829462928 -0.0066353504076017422 -0.034923713780490355 -0.0096874872001784795 0.021676298750960082 0.024977437306834407 0.043118747535872394 0.017720641008863298 -0.013008891637388371 0.021219906661245611 0.025587113998310009 -0.031038010733441049 0.020869327166765761 -0.045072035940776682 0.011701462067867924 0.029195081657746189
leaf_weight=295635.05472607911 6724.3212064802647 1627.2630557715893 17068.257620453835 32418.044081255794 12729.603120848536 36902.964200094342 8630.7284064292908 10944.128815919161 20235.021102383733 17775.002220198512 7556.5922826677561 22962.398325502872 3876.7390863448381 6218.9368827491999 125771.0059133023 2368.2766901105642 5646.8985061794519 5694.5577888637781 603216.26168324053 117700.87631058693 6616.3083594143391 1283.3863718658686 5152.0862781405449 4375.8670754730701 2020.3215767145157 2707.7792616784573 96587.671314358711 299.83511386811733 1446.8597762435675 939.72882582247257
leaf_count=1909282 33572 6811 97673 155378 53444 169370 36057 51524 117801 76353 35125 98339 16810 27742 614123 9722 27932 24405 3185331 629907 38242 5484 21152 20700 9807 13724 504166 1249 6234 3862
internal_value=0 0.0184841 -0.0567803 0.0201641 -0.00868656 0.0124105 -0.0236342 -0.0348034 -0.0600164 0.000912703 -0.0423214 -0.00129233 -0.00878983 -0.0379788 0.0151893 -0.0122154 -0.0474137 -0.0211255 0.0219385 0.0224054 0.0259429 -0.00943524 -0.0199049 0.00753123 0.00450527 -0.0485582 0.0193058 0.00992399 -0.0118936 0.00354326
internal_weight=0 1.11764e+06 365488 1.05256e+06 65081.8 196024 25450.7 46910.4 318578 39631 30271.7 33049.8 12507.5 12943.3 162974 10087.4 22715.2 16638.7 856539 727533 124317 15459.8 6779.35 24171.2 19795.3 22942.8 129006 37202.8 14176.5 3308.01
internal_count=8001321 5723855 2277466 5437652 286203 924628 114181 236659 2040807 172022 160730 139886 52867 61314 784742 41547 125605 75929 4513024 3853480 668149 65162 27963 106860 86160 131525 659544 170619 59678 13584
is_linear=0
shrinkage=0.05


Tree=23
num_leaves=31
num_cat=0
split_feature=15 12 18 10 10 11 11 14 13 13 10 12 0 10 10 10 0 10 11 11 12 11 12 10 11 11 11 10 0 20
split_gain=580375 18705.9 10616.5 4739.34 3638.36 2202.93 2144.75 1819.64 1422.58 1310.67 1002.93 770.854 748.426 587.46 565.108 563.039 558.579 845.16 527.932 523.299 461.922 437.125 416.89 407.187 401.959 395.674 384.565 352.507 351.687 364.253
threshold=195.43478941917422 355.43704342842108 44.967798113822944 210.30322206020358 82.368275046348586 163.30525445938113 141.19204151630404 94.693867921829238 44.991338014602668 161.25363743305209 122.14516544342042 48.0025601387024 2.7500000000000004 576.83452355861675 75.739187955856337 544.53976297378551 1.0000000180025095e-35 1443.6395055055621 509.4428900480271 96.274185419082656 667.05016803741466 635.78378450870525 15.760990500450136 31.639552474021915 472.34674954414373 18.242461919784549 349.18039596080786 896.33314692974102 1.7500000000000002 1.0000000180025095e-35
decision_type=2 2 2 2 2 2 2 2 2 2 2 2 2 2 2 2 2 2 2 2 2 2 2 2 2 2 2 2 2 2
left_child=2 4 8 5 6 12 11 10 22 26 19 -2 14 18 25 24 -17 27 -11 -4 -14 -8 -1 28 -5 -3 -6 -18 29 -7
right_child=1 3 7 15 9 23 21 -9 -10 13 -12 -13 20 -15 -16 16 17 -19 -20 -21 -22 -23 -24 -25 -26 -27 -28 -29 -30 -31
leaf_value=-0.060534100252999504 -0.045999291895278058 -0.036948118971106808 -0.049083918150300269 0.013280203299729213 -0.015125516494553695 0.0049641701826192179 -0.0088153239461599333 -0.019308340746639462 -0.043414906594379105 0.00075614948025042711 -0.022955138146823789 -0.023230404522508082 0.0019178612016119867 0.020197279563178405 0.00091674082804126314 0.0208211802861962 0.021390962400195675 0.041991829783067591 0.017702793762799717 -0.03156070261830872 0.030316021850740685 0.01782692397859446 -0.053654741948655882 0.015315268351933312 0.019545631812701133 -0.011360651211581948 0.005955287263460461 0.026623930633119131 0.017083007271526091 -0.065202262200169919
leaf_weight=269580.22680348158 6692.3074802607298 1960.5294753611088 18808.376017078757 33838.147681042552 11513.445158094168 16927.052663445473 9251.4278499484062 15181.162623822689 13572.886262968183 25642.373687133193 6463.416990339756 8362.1284271776676 3984.5428936034441 6613.1993311941624 8614.2175575494766 596758.58318817616 80882.354308634996 6457.2278681248426 5599.1944271177053 5508.2682323008776 2235.2493775337934 1846.9497514665127 23981.529889389873 104170.1580825299 105131.83104249835 6587.1917117834091 2663.9551954567432 53448.132707178593 7667.811108097434 187.00598350167274
leaf_count=1813491 33884 8202 109489 161920 48928 77531 38612 70123 77026 108622 30012 36897 16583 31495 36830 3185331 432773 38239 26587 27251 9379 8343 150074 506422 549042 27040 11291 294100 35015 789
internal_value=0 0.017733 -0.0558866 0.0195247 -0.0058442 0.0113845 -0.021058 -0.0334744 -0.0592404 0.00180268 -0.0404613 -0.0333521 -0.0027359 0.00665912 -0.00812121 0.0209394 0.0214895 0.0243224 0.00379337 -0.0451145 0.0121235 -0.00438162 -0.0599721 0.0139449 0.01802 -0.0172295 -0.0111644 0.0234731 0.0081844 0.00419746
internal_weight=0 1.10704e+06 353096 1.02885e+06 78185 152334 26152.8 45961.2 307135 52032.2 30780.1 15054.4 23381.7 37854.8 17161.9 876516 737546 140788 31241.6 24316.6 6219.79 11098.4 293562 128952 138970 8547.72 14177.4 134330 24781.9 17114.1
internal_count=8001321 5723855 2277466 5379196 344659 717791 117736 236875 2040591 226923 166752 70781 98034 166704 72072 4661405 3950443 765112 135209 136740 25962 46955 1963565 619757 710962 35242 60219 726873 113335 78320
is_linear=0
shrinkage=0.05


Tree=24
num_leaves=31
num_cat=0
split_feature=14 11 17 10 13 10 18 13 13 11 11 10 13 10 10 10 10 10 0 10 19 0 11 10 10 1 15 10 10 11
split_gain=540223 15568 12726.6 5712.91 2204.83 2148.92 1742.39 1727.9 1537.01 1124.42 1019.06 773.622 628.164 466.32 438.88 423.25 409.573 387.732 470.615 752.687 376.581 372.991 685.621 403.102 361.869 327.011 323.371 322.618 319.294 306.52
threshold=146.31216454505923 336.78776001930243 55.292276501655586 118.16110157966615 98.776412010192885 146.77705752849582 33.909242033958442 132.75104486942294 306.83764350414282 31.327376008033756 92.607248544693007 825.50885701179516 440.89603197574621 78.919667482376113 22.255777478218082 238.85548651218417 142.50370049476626 431.58545696735388 1.0000000180025095e-35 1443.6395055055621 20.799901008605961 1.7500000000000002 936.80589056015026 19.59407198429108 774.74080336093914 4.5000000000000009 155.32739663124087 295.18672299385076 503.29728651046759 284.15464651584631
decision_type=2 2 2 2 2 2 2 2 2 2 2 2 2 2 2 2 2 2 2 2 2 2 2 2 2 2 2 2 2 2
left_child=2 3 6 7 10 21 20 25 28 14 16 27 15 -8 -9 29 -4 -7 -19 24 -1 23 -23 -3 -20 -2 -27 -10 -5 -6
right_child=1 5 4 8 12 17 13 9 11 -11 -12 -13 -14 -15 -16 -17 -18 18 19 -21 -22 22 -24 -25 -26 26 -28 -29 -30 -31
leaf_value=-0.059824945214699735 -0.039086130094676944 0.0014462665472156693 -0.047645288657344083 -0.0087729208076515446 -0.025664305922377836 0.017525892276412217 -0.048513119205803701 -0.039501601446429814 0.0057096147752827382 -0.0024418897108059671 -0.023891814661728475 0.023810279756759999 0.013803514496179503 -0.030866717742607155 -0.014888051123380062 -0.0007672277800949835 -0.027053642081086807 0.019994487953589529 0.020189960788969532 0.04070418289472922 -0.052224982097891705 0.013278304588932111 0.033320297684203609 0.011935293048869346 0.025195894196386362 -0.030137111743303965 -0.0077154310723662849 0.012832030427918278 0.011064455560810899 -0.0020945633023353814
leaf_weight=262757.94630502164 4700.9176984280348 10996.698580563068 16007.789522141218 12628.217645183206 9897.4541664272547 116075.26571321487 16009.100235030055 2813.6088455170393 27865.748423561454 29860.182509735227 8749.9303848594427 11565.347829118371 1726.498344913125 4886.5215022861958 5082.7977087646723 2821.0835444033146 2843.852761849761 590522.80417907238 81402.39769667387 5847.2714313566685 17377.530380874872 22341.096013039351 5274.6664627492428 54834.24754473567 64870.613171175122 4440.4766589701176 2521.0364263355732 37023.234566912055 2416.6203373670578 1602.7740159779787
leaf_count=1836613 21684 49949 94144 53178 46502 595855 98351 12761 123427 127090 41334 61957 7113 25530 21460 11696 13309 3185331 439919 35561 111706 103816 25761 266338 360510 22438 11386 179502 10487 6613
internal_value=0 0.0171342 -0.0546561 0.00162341 -0.029425 0.0194297 -0.0583146 -0.0120752 0.00902208 -0.00687907 -0.0379936 0.0118968 -0.0146874 -0.0443864 -0.0236582 -0.0181221 -0.0445389 0.0202133 0.0206333 0.0231132 -0.0593535 0.0122291 0.0171064 0.0101832 0.02241 -0.0288975 -0.0220173 0.0097734 -0.00558649 -0.0223794
internal_weight=0 1.09308e+06 344680 140918 43649.4 952165 301031 49419 91499.2 37756.6 27601.6 76454.3 16047.8 20895.6 7896.41 14321.3 18851.6 858718 742643 152120 280135 93446.7 27615.8 65830.9 146273 11662.4 6961.51 64889 15044.8 11500.2
internal_count=8001321 5708410 2292911 645370 220711 5063040 2072200 216819 428551 161311 148787 364886 71924 123881 34221 64811 107453 4617176 4021321 835990 1948319 445864 129577 316287 800429 55508 33824 302929 63665 53115
is_linear=0
shrinkage=0.05


Tree=25
num_leaves=31
num_cat=0
split_feature=15 12 19 10 11 11 12 10 10 13 13 10 10 12 13 11 10 0 0 11 0 20 11 17 12 11 11 10 10 0
split_gain=503185 16784 10105.3 4757.73 2934.34 2371.81 1749.55 1662.67 1307.89 937.173 824.4 560.229 482.786 464.753 456.858 439.903 421.66 395.927 371.908 365.313 360.576 366.854 360.556 358.822 345.289 343.548 325.719 324.355 304.965 290.078
threshold=173.4806184768677 216.83518111705783 46.440287470817573 276.09576296806341 96.274185419082656 195.95932841300967 89.666898012161269 102.80774688720706 26.674657940864567 93.788149595260634 306.83764350414282 52.949934005737312 336.75487756729132 316.27263545989996 44.991338014602668 78.576001524925246 61.086557507514961 2.7500000000000004 2.7500000000000004 157.67424297332767 1.7500000000000002 1.0000000180025095e-35 588.80825603008282 93.196132540702834 602.13875603675854 28.417950034141544 635.78378450870525 263.33287596702581 288.59703099727636 3.2500000000000004
decision_type=2 2 2 2 2 2 2 2 2 2 2 2 2 2 2 2 2 2 2 2 2 2 2 2 2 2 2 2 2 2
left_child=2 4 8 5 7 11 9 14 -1 15 26 18 -9 27 -2 -4 20 -12 25 -5 21 -7 -22 -10 -20 -3 28 -8 -6 -16
right_child=1 3 6 19 10 16 13 12 23 -11 17 -13 -14 -15 29 -17 -18 -19 24 -21 22 -23 -24 -25 -26 -27 -28 -29 -30 -31
leaf_value=-0.058872149428141445 -0.049034759902491544 -0.0335554625922918 -0.049450607505944245 0.013609480195237222 -0.015561586229045478 0.0068367219110062917 -0.025535524892165536 -0.016607515028004293 -0.048452535576848053 -0.024884668650546601 0.034038836720602782 0.0034011848695047926 0.0041770495835932097 0.00070823974685732668 -0.039164414905407903 -0.032990682082243809 0.015053964144237097 0.00437373651455097 -0.0063820116009510597 0.019626139073697962 0.0096258394697877961 -0.048252158275460567 0.025866399600995071 -0.029677607145462644 0.027411162625914642 -0.0096583979679587192 0.015731917225668222 -0.0014509870047181874 0.0015212633815317371 -0.02069121037277168
leaf_weight=262664.93517321348 3966.3296426087618 2148.9363434165716 15357.609795242548 26044.926286742091 10479.304714560509 30525.149035468698 11371.7137876302 7663.8815609812737 17270.680784195662 7903.9363575428724 1187.5674043446779 25750.51077735424 4396.7927462160587 2567.7643081247807 3700.640089198947 5517.5613700896502 113323.19608096778 21269.985516235232 2963.9838831573725 804976.58677589893 8897.0182824283838 305.22962237894535 5549.0046214908361 2984.6383362859488 1014.6697524040937 5010.9977443665266 1210.7823586463928 1593.8565894961357 3480.2292414605618 4991.2018153816462
leaf_count=1904745 21941 9120 96273 129655 44826 142951 55115 32470 110082 38874 5906 110799 19022 10973 16933 28992 566742 94240 12250 4388989 40375 1294 26844 16273 4209 20645 5225 6785 14659 24114
internal_value=0 0.0162567 -0.0544508 0.0177866 -0.00893211 0.0107683 -0.0322491 -0.0223153 -0.0579281 -0.0395481 -0.000140311 -0.000651342 -0.00903037 -0.018726 -0.0349731 -0.0451 0.0134244 0.00594244 -0.0100201 0.0194376 0.00934566 0.00629133 0.0158642 -0.045686 0.00223621 -0.0168307 -0.00914499 -0.0225748 -0.0113027 -0.0285564
internal_weight=0 1.08886e+06 327233 1.02651e+06 62346.7 195489 44312.4 24718.8 282920 28779.1 37627.9 36889.1 12060.7 15533.3 12658.2 20875.2 158600 22457.6 11138.6 831022 45276.4 30830.4 14446 20255.3 3978.65 7159.93 15170.3 12965.6 13959.5 8691.84
internal_count=8001321 5733209 2268112 5453873 279336 935229 237012 114480 2031100 164139 164856 157023 51492 72873 62988 125265 778206 100146 46224 4518644 211464 144245 67219 126355 16459 29765 64710 61900 59485 41047
is_linear=0
shrinkage=0.05


Tree=26
num_leaves=31
num_cat=0
split_feature=15 12 16 10 10 12 13 13 13 10 12 20 10 20 12 12 13 10 0 10 1 14 12 10 10 10 10 0 0 10
split_gain=468697 16077.6 9634.54 4362.32 2826.71 1846.06 1337.71 1088.79 953.153 843.229 674.171 642.821 479.127 447.278 425.563 408.328 390.377 382.941 548.104 778.862 374.488 373.928 369.92 310.766 274.488 255.404 245.031 235.05 225.606 220.478
threshold=155.32739663124087 227.91449844837192 46.655862092971809 263.33287596702581 82.368275046348586 34.79942703247071 88.533357024192824 79.162201404571547 150.68768191337588 58.315034031867988 115.41050601005556 1.0000000180025095e-35 503.29728651046759 2.5000000000000004 174.26533949375155 38.400175929069526 18.867949485778812 565.86822497844707 1.0000000180025095e-35 1319.9550470113757 5.5000000000000009 125.09695196151735 505.67905998229986 126.03378939628602 576.83452355861675 92.191879987716689 9.1924225091934222 2.7500000000000004 2.2500000000000004 896.33314692974102
decision_type=2 2 2 2 2 2 2 2 2 2 2 2 2 2 2 2 2 2 2 2 2 2 2 2 2 2 2 2 2 2
left_child=2 4 5 9 7 16 10 20 24 11 21 26 27 22 25 -9 -1 -5 -19 29 -2 -4 -11 -8 -6 -7 -3 -10 -24 -20
right_child=1 3 6 17 8 14 23 15 12 13 -12 -13 -14 -15 -16 -17 -18 18 19 -21 -22 -23 28 -25 -26 -27 -28 -29 -30 -31
leaf_value=-0.058642235970807616 -0.045806199740412799 -0.0015473403939783822 -0.044536138986973423 0.015997108611979741 -0.014923087126457266 -0.047590846509642848 -0.022258038511868847 -0.026805068731434647 0.035276512055022607 0.0037036317140936833 -0.02089800919207175 -0.0471963422951222 0.015841940184464918 -0.060659184265628857 -0.021504657800853144 -0.0093141792243818956 -0.050901354658385217 0.018405696471349712 0.01905615140250988 0.033997002370701405 -0.02296446353274061 -0.024807322938065712 0.012750768035018893 -0.0059538761258545372 0.011240399630428645 -0.031405778398561228 0.0071256626929413888 -7.7047651277552433e-05 0.022417240097084401 0.023478160701401306
leaf_weight=242034.10323238373 5030.0916722416878 9967.9786969125271 14854.731727674603 118451.11564713717 11071.832748264074 13226.499929606915 8322.4490164965391 4853.6956013888121 480.03775598108768 11051.727972194552 5217.7471948117018 584.07566061615944 6678.7948489785194 209.48170211911201 2272.5401264876127 10676.537751168013 17462.148347407579 578580.10264697671 73614.311635389924 12232.692137911916 2789.5202762633562 2864.9512170404196 114532.95538596809 4504.5380190312862 1102.2751365602016 2988.1334250718355 44498.152898088098 22819.886035576463 6371.8886366784573 45679.540045633912
leaf_count=1831434 26140 44468 92664 623711 48305 85782 41277 22791 2401 48181 25205 2515 31931 914 11246 46263 120355 3185331 405729 75102 14997 14678 569252 19683 4706 16091 204569 97902 28676 259022
internal_value=0 0.0155232 -0.053891 0.0170714 -0.00848623 -0.0570338 -0.0294635 -0.0224419 -0.000755703 0.0101783 -0.0366948 0.00497889 0.00403556 0.0123439 -0.0417682 -0.0147806 -0.0581213 0.018629 0.019068 0.0219815 -0.0376578 -0.0413463 0.0124598 -0.0165324 -0.0125542 -0.0446082 0.0055384 0.000651326 0.0132602 0.0207494
internal_weight=0 1.08128e+06 313748 1.01577e+06 65502.7 277983 35764.4 23349.8 42152.8 187216 22937.4 55050.2 29978.7 132166 18487.2 15530.2 259496 828558 710107 131527 7819.61 17719.7 131957 12827 12174.1 16214.6 54466.1 23299.9 120905 119294
internal_count=8001321 5742906 2258415 5447470 295436 2064908 193507 110191 185245 898575 132547 251552 132234 647023 113119 69054 1951789 4548895 3925184 739853 41137 107342 646109 60960 53011 101873 249037 100303 597928 664751
is_linear=0
shrinkage=0.05


Tree=27
num_leaves=31
num_cat=0
split_feature=14 12 16 10 10 13 15 12 10 13 13 20 13 0 10 10 12 10 20 12 10 0 10 10 12 10 12 10 13 1
split_gain=436815 13368.7 11536.9 4115.57 2187.79 1907.93 1639.73 865.788 842.908 728.72 694.016 661.751 526.785 431.924 403.325 391.759 388.471 382.373 333.824 317.217 306.757 610.613 713.665 297.219 289.733 278.773 274.482 256.21 221.439 200.449
threshold=125.09695196151735 205.04923844337466 44.05212056636811 282.15896749496466 82.368275046348586 88.533357024192824 36.635131955146797 115.41050601005556 92.191879987716689 140.49398541450503 64.08216500282289 1.0000000180025095e-35 524.89528357982647 2.7500000000000004 92.191879987716689 205.2794979810715 21.933556556701664 99.11159205436708 2.5000000000000004 19.938025951385502 612.08454704284679 1.0000000180025095e-35 1443.6395055055621 343.68317544460302 464.96285891532904 7.3274215459823617 297.77242660522467 1064.5214810371401 278.13151550292974 4.5000000000000009
decision_type=2 2 2 2 2 2 2 2 2 2 2 2 2 2 2 2 2 2 2 2 2 2 2 2 2 2 2 2 2 2
left_child=2 4 6 8 10 7 16 14 11 -6 29 25 15 -11 -4 26 -1 -8 24 -12 -5 -22 27 -15 -10 -3 -7 -23 -27 -2
right_child=1 3 5 20 9 12 17 -9 18 13 19 -13 -14 23 -16 -17 -18 -19 -20 -21 21 22 -24 -25 -26 28 -28 -29 -30 -31
leaf_value=-0.058062314369044146 -0.046612180396696179 -0.0023342018269773275 -0.045826235631534512 0.015609132628586576 -0.012077433699343987 -0.024185341116261215 -0.044703532934598833 -0.020172814329592198 0.0042818377242914377 0.032657151379573944 -0.029560523882857011 -0.036506007212249149 0.022138830609274657 -0.0020176396934386332 -0.029086124056791431 -0.0021766675907792014 -0.049642747955742375 -0.024923207635224209 -0.054461166666258491 -0.011491132523970564 0.017660076143318531 0.019325158437241776 0.038469974652961203 0.0089616890784713615 0.013486547966084582 -0.0040628633245985112 -0.00035595833185278085 0.024848394121443525 0.0081072584557883506 -0.028003758880984355
leaf_weight=234545.69547881186 2303.5329882949591 8086.8175390660763 14863.987189024687 121552.42248688638 10454.436572089791 10087.140814453363 12554.046948567033 6075.8769311755896 9302.416948273778 1208.4191986918449 3030.8086179345846 905.53830853104591 918.74290342628956 16490.657472193241 4747.3396399319172 3480.3286961317062 14549.810271710157 3033.5942306667566 185.09242479503155 12230.237545475364 573002.9972564131 83350.225943267345 5963.6606111228466 9843.3792141675949 105559.653539747 3951.3178037852049 1372.9269048422575 28066.88559101522 69135.975558906794 3892.8580076247454
