tree
version=v4
num_class=4
num_tree_per_iteration=4
label_index=0
max_feature_idx=3
objective=multiclass num_class:4
feature_names=key insert_time period_num_writes key_range_idx
feature_infos=[3:1555210] [1696427469373746:1696427859788478] [0:6810] [1:100]
tree_sizes=3318 3352 3429 3379 3370 3421 3481 3477 3367 3433 3482 3484 3388 3437 3478 3475 3408 3436 3480 3483 3433 3454 3480 3481 3431 3456 3472 3472 3422 3437 3486 3478 3411 3469 3477 3482 3429 3460 3484 3479 3425 3475 3475 3493 3427 3470 3477 3483 3437 3452 3483 3489 3439 3458 3485 3478 3450 3459 3481 3481 3418 3465 3486 3487 3441 3458 3485 3486 3442 3470 3481 3480 3414 3474 3478 3488 3445 3463 3482 3483 3447 3479 3471 3488 3452 3475 3473 3491 3424 3461 3479 3479 3424 3470 3491 3488 3427 3457 3469 3491 3418 3463 3477 3497 3463 3468 3484 3509 3414 3475 3472 3498 3410 3481 3471 3493 3414 3471 3478 3490 3454 3499 3476 3489 3427 3472 3508 3478 3411 3478 3483 3509 3439 3470 3467 3485 3423 3475 3468 3489 3450 3475 3466 3499 3425 3494 3466 3486 3408 3471 3463 3480 3427 3477 3459 3487 3438 3481 3477 3508 3414 3489 3448 3486 3440 3486 3458 3499 3433 3482 3460 3501 3395 3488 3449 3490 3411 3501 3460 3512 3396 3489 3447 3502 3466 3480 3422 3500 3412 3482 3408 3510 3404 3482 3423 3506 3429 3498 3444 3511 3403 3471 3425 3500 3405 3474 3435 3516 3440 3465 3398 3509 3437 3496 3444 3493 3359 3498 3440 3503 3410 3481 3450 3508 3436 3468 3448 3493 3416 3416 3400 3497 3434 3495 3419 3490 3443 3510 3426 3512 3405 3471 3408 3485 3407 3490 3400 3499 3440 3430 3385 3492 3391 3434 3404 3502 3421 3466 3393 3495 3385 3414 3405 3499 3422 3440 3418 3506 3410 3407 3403 3498 3423 3472 3410 3490 3391 3450 3410 3516 3363 3409 3412 3490 3439 3408 3400 3484 3357 3398 3417 3472 3370 3440 3425 3481 3379 3444 3402 3488 3395 3458 3412 3501 3392 3455 3413 3484 3400 3457 3410 3498 3404 3451 3411 3496 3424 3412 3387 3505 3422 3461 3419 3496 3410 3452 3430 3484 3366 3450 3393 3499 3404 3453 3396 3513 3420 3406 3385 3442 3372 3406 3414 3430 3426 3449 3383 3407 3365 3441 3394 3489 3386 3461 3372 3442 3378 3395 3420 3417 3394 3430 3403 3429 3396 3452 3410 3500 3383 3403 3439 3431 3419 3424 3432 3388 3372 3434 3440 3484 3388 3392 3439 3388 3358 3416 3408 3493 3403 3386 3402 3374 3391 3383 3436 3493 3410 3437 3411 3420

Tree=0
num_leaves=31
num_cat=0
split_feature=1 3 1 1 3 1 1 0 1 1 2 3 2 2 2 2 1 1 1 1 3 1 1 1 1 0 1 2 2 1
split_gain=1785.67 1812.8 309.747 114.865 103.266 354.496 281.48 177.392 96.607 79.3883 133.633 71.3939 61.4647 54.3771 90.3795 62.7086 282.785 49.9379 48.0793 42.649 41.9217 139.954 226.08 66.3234 44.9443 38.9768 40.1408 85.2532 330 52.2803
threshold=1696427765145709.8 32.500000000000007 1696427845232160.2 1696427566940419.8 32.500000000000007 1696427622636238.8 1696427607589271.8 788954.50000000012 1696427749764848.2 1696427845232160.2 6074.0000000000009 3.5000000000000004 6074.0000000000009 6372.0000000000009 6227.5000000000009 6268.5000000000009 1696427836783803.2 1696427810702744.2 1696427664887104.8 1696427816882634.2 48.500000000000007 1696427701947001.8 1696427694037637.8 1696427697823497.8 1696427683458129.8 24838.500000000004 1696427796479587.8 6144.5000000000009 6026.5000000000009 1696427802045324.2
decision_type=2 2 2 2 2 2 2 2 2 2 2 2 2 2 2 2 2 2 2 2 2 2 2 2 2 2 2 2 2 2
left_child=3 2 17 -1 5 6 -5 11 18 13 -11 -8 -4 14 19 16 -16 -2 -6 25 -20 22 24 -24 -22 -3 -27 28 29 -28
right_child=1 9 12 4 8 -7 7 -9 -10 10 -12 -13 -14 -15 15 -17 -18 -19 20 -21 21 -23 23 -25 -26 26 27 -29 -30 -31
leaf_value=-4.2852032340042392 -4.2625603378471579 -3.5758733054202705 -3.4306667323104825 -4.2188991675482619 -4.2711819473887171 -4.2881293839253019 -3.5120417148586762 -2.9477704542942158 -4.1962055096953312 -3.1672687624834319 -3.9459526848396158 -4.0221569101677348 -3.9701646045197094 -4.1262727110461999 -3.9128755435896969 -3.9955969703143803 -2.7776592654475731 -4.2152817043619608 -4.2713653686336617 -4.106815496344109 -4.2230745078487404 -4.2597216169967469 -3.9408519891827112 -3.4782867042566177 -4.1286815378885278 -4.0543761118432959 -3.531008816054122 -4.1050623217233291 -3.0899529404943893 -4.0643977451849844
leaf_weight=2756.1385184526443 210.41384898126125 0.47762878239154716 0.56948047131299873 103.60870510339737 1108.6498852819204 1354.077598080039 0.7531838491558992 0.44088810682296831 52.465684711933136 0.56948047131300228 16.95582177489996 7.6788011938333511 7.2379130870103836 14.255382120609282 8.2115409895777702 21.401443518698215 0.58785080909729082 76.034828089177608 206.46422635763884 24.02840182185173 61.926408670842648 285.0525313988328 2.718809992074966 1.0838499292731283 15.835231170058249 37.163193337619305 0.5143694579601269 4.6660657972097397 1.2308126315474508 4.2986590415239334
leaf_count=150032 11454 26 31 5640 60350 73710 41 24 2856 31 923 418 394 776 447 1165 32 4139 11239 1308 3371 15517 148 59 862 2023 28 254 67 234
internal_value=-4.27063 -4.17206 -4.24154 -4.27772 -4.27128 -4.28104 -4.19575 -3.92547 -4.26302 -4.01988 -3.92065 -3.97659 -3.93081 -4.03477 -4.02205 -3.9494 -3.83704 -4.25001 -4.2651 -4.05237 -4.25334 -4.2432 -4.18544 -3.80901 -4.20385 -4.02531 -4.0298 -3.94451 -3.82056 -4.00739
internal_weight=0 428.617 294.256 5956.89 3200.76 1466.56 112.482 8.87287 1734.2 134.361 17.5253 8.43199 7.80739 116.835 102.58 30.2008 8.79939 286.449 1681.73 72.3791 573.081 366.617 81.5643 3.80266 77.7616 48.3507 47.8731 10.7099 6.04384 4.81303
internal_count=347599 23332 16018 324267 174235 79833 6123 483 94402 7314 954 459 425 6360 5584 1644 479 15593 91546 3940 31196 19957 4440 207 4233 2632 2606 583 329 262
is_linear=0
shrinkage=1


Tree=1
num_leaves=31
num_cat=0
split_feature=1 3 1 1 3 1 1 1 3 1 1 1 1 1 3 1 1 1 1 1 1 2 1 3 1 2 2 3 1 1
split_gain=9357.07 8733.36 1466.96 1197.28 1125.29 2154.08 1429.39 948.891 528.992 1219.11 717.075 413.945 338.473 289.849 241.978 226.218 136.687 113.121 112.717 102.526 98.1927 80.604 78.7321 226.42 77.2802 75.8278 109.56 75.2246 70.3785 68.9518
threshold=1696427762412471.8 32.500000000000007 1696427836783803.2 1696427558136016.8 32.500000000000007 1696427622636238.8 1696427663524307.8 1696427595592425.8 48.500000000000007 1696427699875290.2 1696427685098307.2 1696427741590430.8 1696427741590430.8 1696427810702744.2 48.500000000000007 1696427609827740.8 1696427845232160.2 1696427513895658.2 1696427677127634.8 1696427699875290.2 1696427724780407.8 6352.5000000000009 1696427588787144.8 48.500000000000007 1696427717070517.2 6081.5000000000009 5505.0000000000009 49.500000000000007 1696427756957140.8 1696427576435259.8
decision_type=2 2 2 2 2 2 2 2 2 2 2 2 2 2 2 2 2 2 2 2 2 2 2 2 2 2 2 2 2 2
left_child=3 2 13 14 5 7 22 29 12 10 18 24 19 -2 17 -9 -4 -1 -10 -8 -7 27 23 -6 -11 26 -3 -12 -13 -5
right_child=1 25 16 4 6 20 8 15 9 11 21 28 -14 -15 -16 -17 -18 -19 -20 -21 -22 -23 -24 -25 -26 -27 -28 -29 -30 -31
leaf_value=-2.1652827074818708 -2.1457954767844569 -1.8687282947512527 -2.0112955051166579 -2.1302680350618441 -2.1230498875896626 -2.1725938877802831 -2.1600209682629208 -2.028982971154826 -2.0847528981371806 -2.1450427868890896 -2.1213820815946947 -2.0913296413074773 -2.0718699975353796 -2.101861857403386 -2.1717523941305883 -1.9063862476701132 -1.9118332009454666 -2.1524246344728879 -2.0328947382156142 -2.1335748695927372 -2.1602217109727384 -2.0100592387497924 -2.1493090665076067 -2.163569901819828 -2.1246741746650035 -1.9439754759333523 -1.9826444384875614 -1.9025005639663994 -2.0426667394290319 -2.1023491886014409
leaf_weight=4276.9320939928293 1697.0191467404366 22.877155110239983 84.933150708675385 523.29779952764511 389.73357059061527 7961.2499783635139 871.66070638597012 152.05773755908012 384.93895724415779 838.09841296076775 4.1096685826778403 405.62428911030293 157.53729566931725 482.06412474811077 12106.535688757896 50.000967755913734 58.220304921269417 2850.6031178981066 143.97538934648037 632.34100592136383 2008.2580474019051 27.397790551185608 5859.565465182066 2987.5920706540346 1047.9654885828495 758.37084245681763 272.74500493705273 87.535940811038017 90.960664629936218 383.0211119055748
leaf_count=31221 12388 167 620 3820 2845 58116 6363 1110 2810 6118 30 2961 1150 3519 88376 365 425 20809 1051 4616 14660 200 42774 21809 7650 5536 1991 639 664 2796
internal_value=-2.15195 -2.07171 -2.12589 -2.15807 -2.15086 -2.16275 -2.1414 -2.09663 -2.11892 -2.10649 -2.04568 -2.12303 -2.1416 -2.13608 -2.16745 -1.99865 -1.97084 -2.16014 -2.07064 -2.1489 -2.1701 -1.93481 -2.15281 -2.15889 -2.13373 -1.95235 -1.97383 -1.91232 -2.08242 -2.11847
internal_weight=0 3376.23 2322.24 44241 25006.9 11077.9 13929 1108.38 4692.15 3030.61 647.958 2382.65 1661.54 2179.08 19234.1 202.059 143.153 7127.54 528.914 1504 9969.51 119.043 9236.89 3377.33 1886.06 1053.99 295.622 91.6456 496.585 906.319
internal_count=347599 24646 16952 322953 182547 80867 101680 8091 34252 22123 4730 17393 12129 15907 140406 1475 1045 52030 3861 10979 72776 869 67428 24654 13768 7694 2158 669 3625 6616
is_linear=0
shrinkage=1


Tree=2
num_leaves=31
num_cat=0
split_feature=1 3 1 1 3 1 1 3 3 1 1 3 1 1 1 1 1 3 1 1 1 3 1 1 1 1 1 2 1 1
split_gain=2704.91 2809.11 1886.77 585.226 1715.33 5292.68 2120.62 1705.17 416.703 313.227 304.898 1034.88 270.289 257.142 209.866 148.553 227.712 356.998 127.914 126.399 98.4402 85.5991 2702.77 911.085 335.276 101.466 74.9073 71.3535 67.5671 60.8774
threshold=1696427512177842.8 48.500000000000007 1696427823197628.2 1696427701947001.8 32.500000000000007 1696427592110130.2 1696427565487784.8 48.500000000000007 32.500000000000007 1696427845232160.2 1696427802045324.2 32.500000000000007 1696427490314560.8 1696427668787304.2 1696427535013623.8 1696427580905412.2 1696427624043621.8 48.500000000000007 1696427564164371.8 1696427593860463.8 1696427601234859.8 32.500000000000007 1696427762412471.8 1696427741590430.8 1696427741590430.8 1696427720163887.2 1696427836783803.2 6223.0000000000009 1696427622636238.8 1696427765145709.8
decision_type=2 2 2 2 2 2 2 2 2 2 2 2 2 2 2 2 2 2 2 2 2 2 2 2 2 2 2 2 2 2
left_child=1 12 3 4 5 18 7 -6 9 26 21 -12 -1 -7 -9 -8 17 20 -2 -19 -17 23 24 25 -23 -5 -4 -13 -22 -24
right_child=2 -3 8 10 6 13 15 14 -10 -11 11 27 -14 -15 -16 16 -18 19 -20 -21 28 22 29 -25 -26 -27 -28 -29 -30 -31
leaf_value=-0.42612175530774199 -0.3907335679144579 -0.45351551800966083 -0.42239007977910048 -0.42914152201192124 -0.39046038377339054 -0.45451855915385775 -0.41440809245968402 -0.44231681772925507 -0.49790227091373451 -0.51868636532707502 -0.40464211914267439 -0.46430042091904167 -0.40889750793503166 -0.44092215917382155 -0.43006377443177202 -0.41961745781109278 -0.40837618775995044 -0.40311884257720632 -0.40763505133548861 -0.38932395657892793 -0.48321873725691405 -0.39778874500007744 -0.46072533539955984 -0.39306826845479076 -0.42490937598278622 -0.41535183882799231 -0.45988133431278366 -0.50177039441455851 -0.42214895953629494 -0.49967248077712728
leaf_weight=4861.6356906890869 4794.9511395692825 14335.971530556679 462.86923718452454 2592.5505123138428 2435.6456861495972 9380.4946842193604 3724.3774410486221 6549.8712722063065 850.6052018404007 128.2395213842392 1106.4807645082474 197.63973295688629 4285.3121945858002 5526.0672814846039 7491.6019692420959 358.16543972492218 10199.11544072628 2543.9703642129898 1460.4218435287476 4781.6745773553848 137.2917228937149 5450.6322689056396 114.66121912002563 5512.1872391700745 1440.8087402582169 2747.9466382265091 187.0788311958313 355.75151932239532 67.589771270751953 802.9302738904953
leaf_count=16112 15891 47511 1534 8592 8072 31088 12343 21707 2819 425 3667 655 14202 18314 24828 1187 33801 8431 4840 15847 455 18064 380 18268 4775 9107 620 1179 224 2661
internal_value=-0.424752 -0.439702 -0.42044 -0.419352 -0.421856 -0.43328 -0.415542 -0.42908 -0.473713 -0.447272 -0.412027 -0.432563 -0.418052 -0.449478 -0.435779 -0.405315 -0.403442 -0.397063 -0.39468 -0.394114 -0.43543 -0.4102 -0.414193 -0.407328 -0.403459 -0.422046 -0.433181 -0.488388 -0.463072 -0.494806
internal_weight=0 23482.9 81401.6 79772.8 59451.2 21161.9 38289.3 16477.1 1628.79 778.188 20321.6 1659.87 9146.95 14906.6 14041.5 21812.2 18087.8 7888.69 6255.37 7325.64 563.047 18661.7 7809.03 10852.7 6891.44 5340.5 649.948 553.391 204.881 917.591
internal_count=347599 77825 269774 264376 197028 70133 126895 54607 5398 2579 67348 5501 30314 49402 46535 72288 59945 26144 20731 24278 1866 61847 25880 35967 22839 17699 2154 1834 679 3041
is_linear=0
shrinkage=1


Tree=3
num_leaves=31
num_cat=0
split_feature=1 3 1 3 1 1 3 1 1 3 1 1 1 1 1 3 1 1 1 1 1 1 1 1 1 1 1 0 1 1
split_gain=9696.11 5673.68 5076.69 4972.73 10986.9 6052.32 2819.61 891.346 662.718 493.751 696.007 678.036 477.639 461.497 427.235 742.647 139.254 132.881 106.526 102.812 94.0148 86.895 82.9192 80.7428 57.9574 49.4137 38.0599 33.6138 31.0591 26.7151
threshold=1696427518206756.2 48.500000000000007 1696427720163887.2 32.500000000000007 1696427622636238.8 1696427575007694.2 48.500000000000007 1696427674264796.2 1696427496307994.8 48.500000000000007 1696427592110130.2 1696427663524307.8 1696427554537434.2 1696427622636238.8 1696427749764848.2 32.500000000000007 1696427497153690.8 1696427697823497.8 1696427636325007.8 1696427535013623.8 1696427645455415.2 1696427737896615.8 1696427479402969.2 1696427510476766.8 1696427674264796.2 1696427599380718.2 1696427565487784.8 43531.500000000007 1696427585579317.8 1696427489536247.2
decision_type=2 2 2 2 2 2 2 2 2 2 2 2 2 2 2 2 2 2 2 2 2 2 2 2 2 2 2 2 2 2
left_child=1 8 3 4 -2 6 -5 20 22 11 28 13 19 -7 15 21 27 -9 -15 -8 -6 -4 -1 -10 -13 -12 -14 -3 -11 -24
right_child=2 16 14 5 7 9 12 17 23 10 25 24 26 18 -16 -17 -18 -19 -20 -21 -22 -23 29 -25 -26 -27 -28 -29 -30 -31
leaf_value=-1.5164363758686852 -1.5807239080395696 -1.4714174421938231 -1.5363896479932493 -1.5803745379117085 -1.4729033193866481 -1.581049864291854 -1.4989663563049938 -1.4988545230908037 -1.5490993571519485 -1.5461308933220177 -1.5688018559778116 -1.5604417547604297 -1.522946492827763 -1.5109762860270057 -1.5798770513313489 -1.581049864291854 -1.4881600204230443 -1.5147004509684419 -1.5348611328625978 -1.5108894963024015 -1.4842936998562863 -1.5547054439700343 -1.5262565358062448 -1.5664478425508752 -1.5803690287742058 -1.5807883812117367 -1.5335117450353954 -1.4791944384833111 -1.5574904364920588 -1.5363285298378004
leaf_weight=1821.6011025905609 4601.8446090221405 1870.7969698309898 1726.368735730648 1776.9186176657677 3282.5829581618309 477.96718722581863 3540.2970883846283 2911.3572627007961 2009.3578069210052 1626.6229865550995 955.25736710429192 477.96718722581863 1907.8067048192024 718.53046464920044 7119.6349337995052 2455.7313179373741 4809.4601955413818 2425.0403181910515 1332.5761286914349 3695.1061018109322 4042.6365401148796 1036.2725796699524 1694.5493904054165 1006.7099255025387 1542.2227372527122 8604.7633847594261 1540.8687225580215 5399.8106024265289 955.03169798851013 1076.6673513948917
leaf_count=8072 20392 8290 7650 7874 14546 2118 15688 12901 8904 7208 4233 2118 8454 3184 31549 10882 21312 10746 5905 16374 17914 4592 7509 4461 6834 38130 6828 23928 4232 4771
internal_value=-1.53323 -1.50286 -1.5434 -1.53583 -1.51456 -1.54842 -1.52205 -1.49051 -1.53668 -1.56811 -1.57337 -1.55406 -1.51235 -1.5368 -1.57191 -1.56104 -1.48156 -1.50606 -1.52649 -1.50506 -1.47919 -1.54326 -1.52472 -1.55489 -1.57565 -1.57959 -1.52767 -1.47719 -1.55033 -1.53017
internal_weight=0 19689 58753.4 46415.4 17263.5 29151.9 12461 12661.6 7608.89 16690.9 12141.7 4549.26 10684.1 2529.07 12338 5218.37 12080.1 5336.4 2051.11 7235.4 7325.22 2762.64 4592.82 3016.07 2020.19 9560.02 3448.68 7270.61 2581.65 2771.22
internal_count=347599 87247 260352 205679 76499 129180 55218 56107 33717 73962 53803 20159 47344 11207 54673 23124 53530 23647 9089 32062 32460 12242 20352 13365 8952 42363 15282 32218 11440 12280
is_linear=0
shrinkage=1


Tree=4
num_leaves=31
num_cat=0
split_feature=1 3 1 1 3 1 1 1 1 3 1 1 1 1 2 2 0 2 0 3 2 1 2 1 1 3 0 1 0 3
split_gain=1461.34 1028.26 183.105 110.373 100.593 310.38 157.969 85.0204 31.6556 40.6099 124.466 108.897 34.9684 31.6455 31.2801 42.7971 45.6078 32.7393 28.9788 30.2821 28.5963 29.1646 33.0457 30.2308 28.0758 27.8921 26.288 21.6849 20.0154 19.2508
threshold=1696427765145709.8 32.500000000000007 1696427836783803.2 1696427566940419.8 32.500000000000007 1696427622636238.8 1696427605408231.8 1696427737896615.8 1696427664887104.8 48.500000000000007 1696427701947001.8 1696427694037637.8 1696427681853940.2 1696427845232160.2 6370.5000000000009 6314.5000000000009 534327.50000000012 6329.5000000000009 1421855.0000000002 56.500000000000007 5925.5000000000009 1696427828518169.2 6026.5000000000009 1696427816882634.2 1696427617021912.8 42.500000000000007 826519.50000000012 1696427810702744.2 1000785.0000000001 33.500000000000007
decision_type=2 2 2 2 2 2 2 2 2 2 2 2 2 2 2 2 2 2 2 2 2 2 2 2 2 2 2 2 2 2
left_child=3 2 27 25 5 6 -5 8 -6 -10 11 12 -11 -4 15 20 -17 18 26 -20 -3 23 28 29 -8 -1 -18 -2 -23 -22
right_child=1 14 13 4 7 -7 24 -9 9 10 -12 -13 -14 -15 -16 16 17 -19 19 -21 21 22 -24 -25 -26 -27 -28 -29 -30 -31
leaf_value=-0.0068562754877743081 0.0081957198979820452 0.12274221034681809 0.10540835961632529 0.04433095119276146 -0.00025555188074307246 -0.017209823764230438 0.18468090109559743 0.047757722448262312 -0.0035571079650735301 0.041772540819875137 0.0066098785249309525 0.28393517376644217 0.11571449888136197 0.22138630262253059 0.12027887633589025 0.53991850282854092 0.46757498214493148 0.13283346920853731 0.2045528341929731 0.63624044350842013 0.40332550781654936 0.70475171300393058 0.21438705197417529 0.11718921283632318 0.36459994477795293 -0.017723039462522957 0.053752621864243122 0.040698158977247184 0.30309452369254086 0.18434608712888487
leaf_weight=866.39580830745399 209.84021170064807 18.954815704375505 12.196940742433071 106.20168314874172 1100.0315610114485 1335.6283722165972 13.010687932372091 122.36308795213699 190.0123252440244 60.132195942103863 235.20564465224743 5.8948116190731517 21.781185025349259 11.359534420073032 20.19856496527791 1.5567150302231292 0.59312322735786471 3.5076394304633141 0.61785614863038052 1.1861297339200971 1.0189293343573798 0.53806181997060665 42.136339571326971 19.632234502583742 2.6019129008054724 1854.3577334042639 1.0872564092278478 67.930113554000854 0.73229449242353439 66.93213408254087
leaf_count=48183 11454 830 620 5500 60350 73710 553 6422 10398 3157 12792 207 1076 425 909 63 24 142 25 48 40 17 1585 860 70 101849 44 3519 30 2697
internal_value=0 0.0838491 0.0274948 -0.00686281 -0.000557165 -0.0102415 0.0661622 0.00757596 0.00452785 0.0147844 0.0255738 0.0763712 0.0614341 0.161336 0.178879 0.186347 0.295161 0.240668 0.349223 0.48839 0.180143 0.188449 0.221962 0.17184 0.214665 -0.0142626 0.199819 0.0161444 0.473217 0.18763
internal_weight=0 480.019 301.327 5913.62 3192.86 1457.44 121.814 1735.42 1613.06 513.026 323.014 87.8082 81.9134 23.5565 178.692 158.494 8.54872 6.992 3.48437 1.80399 149.945 130.99 43.4067 87.5833 15.6126 2720.75 1.68038 277.77 1.27036 67.9511
internal_count=347599 23332 16018 324267 174235 79833 6123 94402 87980 27630 17232 4440 4233 1045 7314 6405 346 283 141 73 6059 5229 1632 3597 623 150032 68 14973 47 2737
is_linear=0
shrinkage=0.05


Tree=5
num_leaves=31
num_cat=0
split_feature=1 3 1 1 3 1 1 1 3 1 1 1 1 3 1 1 1 1 1 1 3 1 1 1 1 1 1 1 1 2
split_gain=7946.02 6055.14 1097.26 1068.88 864.778 1870.03 1220.13 772.747 567.04 850.319 643.63 229.82 212.612 208.604 195.892 172.334 163.965 146.616 90.9213 87.9603 226.815 83.5142 81.7543 80.8182 69.1705 63.6395 75.4392 88.9794 82.0362 57.2196
threshold=1696427756957140.8 32.500000000000007 1696427828518169.2 1696427551056191.2 32.500000000000007 1696427622636238.8 1696427657102780.2 1696427595592425.8 48.500000000000007 1696427701947001.8 1696427681853940.2 1696427724780407.8 1696427732601892.2 48.500000000000007 1696427765145709.8 1696427845232160.2 1696427802045324.2 1696427607589271.8 1696427688414400.8 1696427588787144.8 48.500000000000007 1696427576435259.8 1696427504437811.8 1696427721722418.2 1696427671475653.8 1696427779843595.2 1696427787396862.8 1696427796479587.8 1696427805855364.8 6081.5000000000009
decision_type=2 2 2 2 2 2 2 2 2 2 2 2 2 2 2 2 2 2 2 2 2 2 2 2 2 2 2 2 2 2
left_child=3 2 16 13 5 7 19 21 11 10 24 -8 -11 22 -3 -4 -2 -9 -12 20 -6 -5 -1 -7 -10 -16 -27 -28 -29 -30
right_child=1 14 15 4 6 23 8 17 9 12 18 -13 -14 -15 25 -17 -18 -19 -20 -21 -22 -23 -24 -25 -26 26 27 28 29 -31
leaf_value=-0.013933915958025145 0.0027820391341756385 0.10423368882061651 0.091552157233667025 0.017509510649287404 0.023505281624508434 -0.020453698679623447 -0.0029847674190067227 0.098476359677390796 0.047869967731802458 0.013927878851894004 0.12984529978214734 0.042173993189929163 0.046095360237726216 -0.019764477130757803 0.18632958802648614 0.18030556560176314 0.032924816488193454 0.18232160723761628 0.19738725106057131 0.0020155751089668862 -0.011938249667120484 0.045721764453964399 -0.0028643662351797933 -0.0089689870085073852 0.080379059831881094 0.11809810985940079 0.20117432245030034 0.11536841408705063 0.13491341631417975 0.1682740082135786
leaf_weight=3464.996679097414 1707.8766207695007 194.27435067296028 215.85890904068947 767.00159738957882 514.16128815710545 7683.6367519050837 1462.1901483386755 152.74384546279907 469.68324474990368 1559.4558431655169 110.36879244446754 348.97774007916451 765.99730713665485 11222.0843359828 173.66462434828281 73.255730465054512 613.11610050499439 79.16068996489048 90.833152666687965 5439.3577881008387 3696.3680790066719 398.65765982866287 3216.1859581172466 1913.2532962858677 251.10389733314514 130.604860201478 108.74225948750973 122.79509861767292 172.40049839019775 505.1497605741024
leaf_count=25641 12550 1269 1450 5573 3702 56762 10710 992 3337 11320 723 2470 5392 82831 1035 425 4371 483 560 39907 27354 2796 23779 14170 1718 792 655 745 1058 3029
internal_value=0 0.0672636 0.0221864 -0.00622041 0.000312932 -0.0102949 0.00824221 0.0437415 0.0281322 0.0406339 0.0812671 0.00571647 0.0245238 -0.0156001 0.150848 0.11404 0.0107446 0.127097 0.160337 -0.0021844 -0.00761013 0.0271582 -0.00860526 -0.0181641 0.0591953 0.158312 0.153632 0.158737 0.152971 0.159786
internal_weight=0 4017.74 2610.11 43606.2 25703 10994.5 14708.5 1397.56 5058.61 3247.44 921.989 1811.17 2325.45 17903.3 1407.63 289.115 2320.99 231.905 201.202 9649.89 4210.53 1165.66 6681.18 9596.89 720.787 1213.36 1039.69 909.088 800.345 677.55
internal_count=347599 27379 18796 320220 187969 80776 107193 9844 36230 23050 6338 13180 16712 132251 8583 1875 16921 1475 1283 70963 31056 8369 49420 70932 5055 7314 6279 5487 4832 4087
is_linear=0
shrinkage=0.05


Tree=6
num_leaves=31
num_cat=0
split_feature=1 3 1 1 1 3 3 1 1 1 3 1 1 1 1 1 1 1 3 1 1 3 1 1 1 1 1 1 2 2
split_gain=2321.37 2374.99 1616.06 487.057 1425.48 3468.76 1145.12 2619.46 1153.16 420.954 1028.76 298.305 246.087 236.9 236.094 215.164 208.281 199.939 168.358 125.672 85.9783 76.5527 2323.26 815.884 203.495 176.116 88.0078 55.0564 50.7645 48.3983
threshold=1696427512177842.8 48.500000000000007 1696427828518169.2 1696427622636238.8 1696427701947001.8 32.500000000000007 48.500000000000007 1696427575007694.2 1696427597511709.2 1696427802045324.2 32.500000000000007 1696427554537434.2 1696427576435259.8 1696427845232160.2 1696427490314560.8 1696427592110130.2 1696427607589271.8 1696427674264796.2 32.500000000000007 1696427836783803.2 1696427535013623.8 32.500000000000007 1696427756957140.8 1696427741590430.8 1696427765145709.8 1696427737896615.8 1696427720163887.2 1696427491762767.2 6223.0000000000009 6395.0000000000009
decision_type=2 2 2 2 2 2 2 2 2 2 2 2 2 2 2 2 2 2 2 2 2 2 2 2 2 2 2 2 2 2
left_child=1 14 3 6 5 17 8 11 12 21 -11 20 -2 18 -1 -9 -10 -5 -4 -20 -8 23 25 26 -24 -23 -6 -3 -12 -30
right_child=2 27 13 4 9 -7 7 15 16 10 28 -13 -14 -15 -16 -17 -18 -19 19 -21 -22 22 24 -25 -26 -27 -28 -29 29 -31
leaf_value=-0.0012333340561514429 0.031096128435810912 -0.029006059796356044 -0.015445083835832372 -0.026239714666630942 -0.0040602276308470053 0.015613711834885958 -0.016120197061797188 0.016930647194819844 -0.021583827458238079 0.017058875578885559 -0.038995797445872102 0.0026535664215259543 0.0076868937587545542 -0.082211958843417587 0.014899884438818976 0.033330525444772628 -0.083236177030481195 -0.013618685895675315 -0.094192245836303562 -0.036024137521825247 -0.0074122814520728919 0.026279766449061479 -0.023490269602780237 0.030085606846341897 -0.067388969203335827 0.0069721038383730172 0.00879098262315396 -0.022820058079009428 -0.077206796360044877 -0.044340740128784466
leaf_weight=4866.9832350611687 8147.3952814936638 8100.6369325518608 439.94959443807602 9955.1206312179565 2599.2841629981995 10348.231021106243 6616.9187560975552 3418.0086252689362 373.78566974401474 1305.2683571279049 288.04019299149513 4606.9145253300667 1302.0963918864727 433.10561448335648 4246.0684830546379 4820.8048804104328 216.24213895201683 4582.3829226195812 162.23852011561394 217.12677147984505 4959.1231983304024 4988.3058190345764 386.52010613679886 5410.6224238276482 832.77094042301178 1547.4800074398518 2732.9077632129192 6469.5483929216862 313.5991795361042 174.25828042626381
leaf_count=16112 27516 26396 1450 32460 8592 34629 21707 11440 1227 4371 928 15282 4343 1379 14202 16294 701 15055 518 695 16374 16797 1269 18268 2661 5153 9107 21115 1001 557
internal_value=0 -0.0137371 0.00405425 0.00493735 0.00153919 -0.00651181 0.00942054 0.0035767 0.0236361 0.0112751 -0.0100447 -0.00810728 0.0278704 -0.0523027 0.00628366 0.0265268 -0.0441791 -0.0222614 -0.036492 -0.0609002 -0.0123898 0.0136737 0.00988793 0.0164066 -0.0534729 0.0217083 0.0025264 -0.0262593 -0.0556402 -0.0654673
internal_weight=0 23683.2 81178.5 79926.1 45464.8 24885.7 34461.3 24421.8 10039.5 20579.1 2081.17 16183 9449.49 1252.42 9113.05 8238.81 590.028 14537.5 819.315 379.365 11576 18497.9 7755.08 10742.8 1219.29 6535.79 5332.19 14570.2 775.898 487.857
internal_count=347599 77825 269774 265732 150848 82144 114884 81097 33787 68704 6857 53363 31859 4042 30314 27734 1928 47515 2663 1213 38081 61847 25880 35967 3930 21950 17699 47511 2486 1558
is_linear=0
shrinkage=0.05


Tree=7
num_leaves=31
num_cat=0
split_feature=1 3 1 3 1 1 3 1 1 3 1 1 1 3 1 1 1 1 1 1 1 1 1 1 1 1 1 0 1 1
split_gain=8549.59 5398.94 4633.07 5113.17 9161.72 4930.57 2221.83 824.344 711.84 551.643 680.619 523.232 429.744 720.981 416.036 406.122 149.273 118.369 110.965 97.5811 96.4269 78.9862 76.2154 57.664 57.0727 49.8004 38.9878 33.7649 33.1481 25.7395
threshold=1696427522699008.2 48.500000000000007 1696427720163887.2 32.500000000000007 1696427622636238.8 1696427577948882.2 48.500000000000007 1696427498752083.8 1696427674264796.2 48.500000000000007 1696427663524307.8 1696427595592425.8 1696427749764848.2 32.500000000000007 1696427554537434.2 1696427622636238.8 1696427501134156.8 1696427512177842.8 1696427695953899.2 1696427636325007.8 1696427489536247.2 1696427737896615.8 1696427645455415.2 1696427674264796.2 1696427568197738.8 1696427537036797.2 1696427585579317.8 37178.000000000007 1696427476029863.8 1696427712776782.8
decision_type=2 2 2 2 2 2 2 2 2 2 2 2 2 2 2 2 2 2 2 2 2 2 2 2 2 2 2 2 2 2
left_child=1 7 3 4 -2 6 -5 20 22 10 15 26 13 21 25 -7 28 -9 -10 -17 27 -4 -6 -12 -16 -8 -11 -1 -3 -20
right_child=2 16 12 5 8 9 14 17 18 11 23 -13 -14 -15 24 19 -18 -19 29 -21 -22 -23 -24 -25 -26 -27 -28 -29 -30 -31
leaf_value=0.018693379989321818 -0.047115864772681093 0.055680719260971304 -0.0028388880067476575 -0.047091175310759723 0.05420257123304284 -0.047406343722489926 0.029039777242296606 -0.017735250910715816 0.032109085140377185 -0.01367484472277428 -0.026336058227467853 -0.046304104920954464 -0.046024696645924672 -0.047117476569256911 0.0086177283033274828 0.02180142315274991 0.039018146375572119 -0.037535076279701318 0.020891513904612649 -0.0010568803759460727 -0.0040117978046896492 -0.020446305785713464 0.044178614407554745 -0.046475129737800082 -0.0037102583682949394 0.02020273813948982 -0.026137862896473098 0.0081248101836047144 0.048206957133986594 0.01000823867322638
leaf_weight=1091.8279815912247 4056.7658800035715 1906.4479346722364 1717.5230692327023 1582.5039217472076 3447.2852208018303 411.77612879872322 3036.8797463178635 1852.9290288239717 2760.5402421802282 1147.9561776220798 467.18027114868164 8726.9340282678604 6882.2619909346104 2357.0199045687914 2357.1933988332748 722.20891785621643 5027.4229938983917 1273.7274470180273 1944.5146778076887 1320.6956236809492 1427.4275220185518 1012.3838878273964 4214.7440493255854 1486.070879638195 1560.2360845506191 3356.0978462696075 1384.1162432432175 2455.1430956274271 6689.1324910968542 753.91127891838551
leaf_count=4784 18732 8043 7650 7318 14546 1869 13092 8349 11887 5162 2118 40291 31549 10882 10371 3184 21479 5868 8467 5905 6384 4592 17914 6834 6957 14623 6304 10797 28355 3293
internal_value=0 0.0266403 -0.0102488 -0.00285645 0.0185544 -0.0162016 0.00807166 -0.00568329 0.0388584 -0.0346277 -0.0196329 -0.0404981 -0.0378794 -0.0268595 0.0165384 -0.00210677 0.0458618 -0.0258012 0.0250611 0.007024 0.00696184 -0.00936859 0.0486886 -0.0416582 0.00370773 0.0244006 -0.0204876 0.011378 0.0498646 0.0178508
internal_weight=0 21724.1 56706.8 44737.6 17177.8 27559.8 11892.9 8101.06 13121 15666.9 4407.93 11259 11969.2 5086.93 10310.4 2454.68 13623 3126.66 5458.97 2042.9 4974.4 2729.91 7662.03 1953.25 3917.43 6392.98 2532.07 3546.97 8595.58 2698.43
internal_count=347599 94059 253540 198867 74839 124028 52361 36182 56107 71667 19910 51757 54673 23124 45043 10958 57877 14217 23647 9089 21965 12242 32460 8952 17328 27715 11466 15581 36398 11760
is_linear=0
shrinkage=0.05


Tree=8
num_leaves=31
num_cat=0
split_feature=1 3 1 1 3 1 1 1 1 3 1 1 3 1 3 0 1 0 2 2 0 2 1 3 3 0 1 1 3 3
split_gain=1229.7 660.255 131.688 106.096 97.604 276.193 97.6978 72.607 29.2378 37.336 105.161 72.0075 28.3592 24.2613 18.6496 18.8453 18.386 16.4089 16.2904 18.4485 16.3443 25.1816 15.8685 15.15 15.1451 15.7664 14.8324 14.7624 17.9339 21.8313
threshold=1696427765145709.8 32.500000000000007 1696427836783803.2 1696427566940419.8 32.500000000000007 1696427622636238.8 1696427605408231.8 1696427737896615.8 1696427664887104.8 48.500000000000007 1696427701947001.8 1696427683458129.8 42.500000000000007 1696427694037637.8 19.500000000000004 204669.00000000003 1696427810702744.2 727980.00000000012 6370.5000000000009 5925.5000000000009 21863.500000000004 6197.0000000000009 1696427754347931.2 49.500000000000007 57.500000000000007 856855.50000000012 1696427711337663.8 1696427614475758.8 12.500000000000002 25.500000000000004
decision_type=2 2 2 2 2 2 2 2 2 2 2 2 2 2 2 2 2 2 2 2 2 2 2 2 2 2 2 2 2 2
left_child=3 2 16 12 5 6 -5 8 -6 -10 11 -11 -1 -13 15 -4 -2 -17 19 -3 21 -21 -9 -15 -25 -26 -7 -8 -29 -30
right_child=1 18 14 4 7 26 27 22 9 10 -12 13 -14 23 -16 17 -18 -19 -20 20 -22 -23 -24 24 25 -27 -28 28 29 -31
leaf_value=-0.0064200942892942252 0.0083153080584460037 0.10132833655265115 0.33361568183024271 0.041172462358099682 2.3183141503988921e-05 -0.02027426075025365 0.13182983852452071 0.03243024218199949 -0.0032672695633688704 0.041641556766464083 0.0067858100016905849 0.1090989766508873 -0.017451375767805793 0.018756437351091577 0.08018730194783992 0.055535056869002279 0.03784357044792884 0.17636073302383118 0.10021335405036039 0.15111534152865597 0.14836792852474578 0.50254590432984647 0.071075112729091269 0.40861189947661453 0.10100287494357851 0.27450008432696466 -0.0085486464918811816 0.32536863068742838 0.074678257842325207 0.33069077094797888
leaf_weight=854.63166421465576 209.30499392747879 21.8479098174721 1.4787455946207106 110.4033734947443 1092.0833179783076 938.24264109693468 13.219649573788049 90.779706574976444 188.45205469243228 66.488141337409616 234.29342877678573 19.354470303282145 1830.4906252566725 0.86863120272755523 11.390174224972723 3.7280096523463717 70.464836187660694 11.410648979246615 23.111497972160578 1.3169528953731053 170.45308219082654 0.83161908946931351 37.552558202296495 1.1180678345263002 2.1482842601835728 3.3535446003079414 378.49860389903188 2.6058188024908295 2.6363083422183995 1.2171821556985376
leaf_count=48183 11454 830 56 5500 60350 52145 464 4620 10398 3371 12792 862 101849 21 426 139 3519 424 909 35 5516 24 1802 32 59 95 21565 61 66 32
internal_value=0 0.0732286 0.0261006 -0.0066202 -0.000445711 -0.0100373 0.0594666 0.00754592 0.00465773 0.014465 0.0246647 0.069547 -0.0139403 0.138667 0.129469 0.163248 0.0157525 0.146606 0.139899 0.144616 0.150095 0.287139 0.0437385 0.215086 0.240848 0.206755 -0.0169037 0.162101 0.224055 0.155544
internal_weight=0 525.338 307.777 5868.44 3183.32 1446.82 130.082 1736.49 1608.16 516.077 327.625 93.3311 2685.12 26.843 28.0076 16.6174 279.77 15.1387 217.561 194.45 172.602 2.14857 128.332 7.48853 6.6199 5.50183 1316.74 19.679 6.45931 3.85349
internal_count=347599 23332 16018 324267 174235 79833 6123 94402 87980 27630 17232 4440 150032 1069 1045 619 14973 563 7314 6405 5575 59 6422 207 186 154 73710 623 159 98
is_linear=0
shrinkage=0.05


Tree=9
num_leaves=31
num_cat=0
split_feature=1 3 1 1 3 1 1 1 3 1 1 3 1 1 1 1 1 1 1 3 1 1 3 1 1 1 1 1 1 1
split_gain=6824.64 4265.98 1019.89 850.992 830.195 1711.47 1096.11 573.223 497.779 698.839 482.342 212.795 204.697 178.06 142.53 116.021 115.79 99.084 84.839 212.335 82.4385 82.424 62.0171 65.2446 59.1163 53.9959 53.2149 52.9929 39.3431 51.2236
threshold=1696427756957140.8 32.500000000000007 1696427551056191.2 1696427828518169.2 32.500000000000007 1696427622636238.8 1696427657102780.2 1696427593860463.8 48.500000000000007 1696427701947001.8 1696427681853940.2 48.500000000000007 1696427724780407.8 1696427726355133.2 1696427802045324.2 1696427836783803.2 1696427765145709.8 1696427605408231.8 1696427588787144.8 48.500000000000007 1696427721722418.2 1696427513895658.2 49.500000000000007 1696427688414400.8 1696427664887104.8 1696427699875290.2 1696427745580902.8 1696427576435259.8 1696427779843595.2 1696427787396862.8
decision_type=2 2 2 2 2 2 2 2 2 2 2 2 2 2 2 2 2 2 2 2 2 2 2 2 2 2 2 2 2 2
left_child=2 3 11 14 5 7 18 27 12 10 24 21 25 -11 -2 -5 -3 -9 19 -6 -7 -1 -12 -24 -10 -8 -15 -4 -18 -30
right_child=1 16 4 15 6 20 8 17 9 13 22 -13 -14 26 -16 -17 28 -19 -20 -21 -22 -23 23 -25 -26 -27 -28 -29 29 -31
leaf_value=-0.012358563384105348 0.0031744967580197487 0.090097892591880155 0.017293518590242526 0.061043932327266237 0.022688096170506201 -0.020093287317352909 -0.0088379086958650429 0.079423821082337254 0.035959587150330763 0.010939144507489456 0.01636024461719484 -0.019425765811801703 0.039444057677489902 0.031490261384183475 0.031073214639271984 0.12236405058352873 0.14989122750560938 0.13894509119220289 0.0022872999696972379 -0.011463346346978784 -0.0084142546663523183 -0.00077436916230312375 0.11830022594690148 0.17361452422909604 0.065131856254652315 0.012421148391657226 0.056142362607839572 0.040039507134279784 0.0985441657191789 0.13003070019325408
leaf_weight=4161.7500610351562 1694.9523732066154 213.57738754153252 769.50192235410213 129.30866926908493 519.99801993370056 7586.3025609701872 1032.5229884088039 173.18947294354439 271.93491679430008 1285.1317603737116 9.9981517642736417 11091.653631657362 359.65333524346352 766.62546049058437 627.20820695161819 191.19490303099155 204.4211257994175 117.25925472378731 5410.2363580912352 3648.9962719082832 1886.7602869272232 2433.3758129477501 115.84194947779179 98.758522719144821 480.55254791676998 420.25431022047997 306.40336610376835 383.76872363686562 147.2893963009119 1049.9767754226923
leaf_count=31221 12550 1269 5573 830 3702 56762 7639 1051 1898 9315 62 82831 2470 5357 4371 1045 1035 623 39907 27354 14170 18199 692 529 3157 3071 2040 2597 792 5487
internal_value=0 0.0603783 -0.00596007 0.0212509 0.000410583 -0.0100385 0.0081563 0.0406736 0.0267643 0.038226 0.0737822 -0.0151967 0.00567243 0.0234936 0.0107099 0.0976242 0.124393 0.103454 -0.00184327 -0.00720364 -0.0177672 -0.00808439 0.138085 0.143756 0.0545895 -0.00268816 0.0385297 0.0248626 0.129619 0.126157
internal_weight=0 4257.93 43330.5 2642.66 25643.7 10916.8 14726.9 1443.72 5147.68 3335.25 977.086 17686.8 1812.43 2358.16 2322.16 320.504 1615.26 290.449 9579.23 4168.99 9473.06 6595.13 224.599 214.6 752.487 1452.78 1073.03 1153.27 1401.69 1197.27
internal_count=347599 27379 320220 18796 187969 80776 107193 9844 36230 23050 6338 132251 13180 16712 16921 1875 8583 1674 70963 31056 70932 49420 1283 1221 5055 10710 7397 8170 7314 6279
is_linear=0
shrinkage=0.05


Tree=10
num_leaves=31
num_cat=0
split_feature=1 3 1 1 3 1 1 3 1 3 1 3 1 1 1 1 3 1 1 1 1 1 3 1 1 1 1 1 1 1
split_gain=1992.66 2018.25 1391.52 444.336 1286.87 3956.13 1635.65 1305.02 274.321 247.228 232.035 746.698 207.894 187.192 179.891 109.428 95.0038 1071.52 458.813 249.023 234.743 157.767 68.2537 2004.77 730.034 167.293 160.236 76.6106 58.4884 55.6244
threshold=1696427512177842.8 48.500000000000007 1696427823197628.2 1696427701947001.8 32.500000000000007 1696427592110130.2 1696427569553431.8 48.500000000000007 1696427845232160.2 32.500000000000007 1696427802045324.2 32.500000000000007 1696427491085759.2 1696427535013623.8 1696427668787304.2 1696427564164371.8 49.500000000000007 1696427677127634.8 1696427658427860.2 1696427585579317.8 1696427657102780.2 1696427688414400.8 32.500000000000007 1696427756957140.8 1696427741590430.8 1696427765145709.8 1696427739720790.2 1696427720163887.2 1696427836783803.2 1696427836783803.2
decision_type=2 2 2 2 2 2 2 2 2 2 2 2 2 2 2 2 2 2 2 2 2 2 2 2 2 2 2 2 2 2
left_child=1 12 3 4 5 15 7 -6 9 28 22 -12 -1 -9 -7 -2 18 19 -8 -18 -21 -19 24 26 27 -25 -24 -5 -4 -11
right_child=2 -3 8 10 6 14 16 13 -10 29 11 -13 -14 -15 -16 -17 17 21 -20 20 -22 -23 23 25 -26 -27 -28 -29 -30 -31
leaf_value=-0.0008775219829805427 0.030803832507635156 -0.024040699610339722 0.0019220598603857178 -0.0037732392719003675 0.030583059915207302 -0.02489103292209181 0.00077845772152554426 -0.014825551765655275 -0.074676765850838892 -0.063954846296506648 0.017963046078153778 -0.052141561342618416 0.014340873779442577 -0.0036109475026654932 -0.013645431739655043 0.014966592031955883 0.010561973613297637 -0.030601763440607978 0.029566308762179857 0.029054868588235097 0.0061872317802878808 -0.088721309123465542 0.02455375274138074 -0.02171833879115892 0.028559331208095728 -0.061202329192856647 0.0052416608177882325 0.0082253775979402224 -0.030924400474566644 -0.032353635517219891
leaf_weight=5029.3767961263657 4605.2034694254398 14769.125601142645 461.07567501068115 2605.1142385601997 2477.2689378857613 9670.0565430223942 3443.490371286869 6675.4592051506042 445.82550176978111 375.89524936676025 1082.2259832322598 585.23379018902779 4052.2057873308659 8407.4519100487232 5624.6697682142258 1429.2001496553421 3259.9676108956337 400.98845326900482 2314.2535368204117 9457.344438970089 1273.3517575263977 164.73343801498413 5084.5477614104748 390.9647970199585 5307.0134789347649 854.85455596446991 1361.7613691985607 2718.7172408998013 191.95149838924408 221.19144886732101
leaf_count=16642 15891 47511 1534 8592 8539 31088 11524 21707 1379 1170 3667 1834 13672 27737 18314 4840 10956 1325 7865 32424 4289 529 17399 1269 18268 2661 4551 9107 620 695
internal_value=0 -0.0126353 0.00381014 0.00476983 0.00259353 -0.00722958 0.00812547 -0.0030503 -0.0410034 -0.0289945 0.0112151 -0.0066418 0.00591293 -0.00857435 -0.0207554 0.0270529 0.0177862 0.0199367 0.0123494 0.0226646 0.0263413 -0.0475257 0.0128402 0.00925263 0.015436 -0.0488114 0.0204741 0.00235409 -0.00773286 -0.0522481
internal_weight=0 23850.7 80889.8 79193.9 59203.4 21329.1 37874.3 17560.2 1695.94 1250.11 19990.4 1667.46 9081.58 15082.9 15294.7 6034.4 20314.1 14556.4 5757.74 13990.7 10730.7 565.722 18323 7692.13 10630.8 1245.82 6446.31 5323.83 653.027 597.087
internal_count=347599 77825 269774 264376 197028 70133 126895 57983 5398 4019 67348 5501 30314 49444 49402 20731 68912 49523 19389 47669 36713 1854 61847 25880 35967 3930 21950 17699 2154 1865
is_linear=0
shrinkage=0.05


Tree=11
num_leaves=31
num_cat=0
split_feature=1 1 3 3 1 1 3 3 1 3 1 1 1 1 1 1 1 1 1 1 1 1 1 1 1 0 1 1 0 1
split_gain=7732.1 4101.21 3452.84 2699.69 9235.48 4877.39 2532.61 919.786 1903.43 504.908 636.244 493.287 437.077 408.18 387.832 286.527 163.505 112.043 89.6713 88.829 72.6777 59.2923 50.7733 50.7688 50.4459 43.5797 35.6082 32.3697 31.4314 29.3194
threshold=1696427703392877.2 1696427514746514.8 48.500000000000007 32.500000000000007 1696427622636238.8 1696427575007694.2 48.500000000000007 32.500000000000007 1696427743620305.2 48.500000000000007 1696427592110130.2 1696427663524307.8 1696427622636238.8 1696427492495450.2 1696427554537434.2 1696427668787304.2 1696427726355133.2 1696427756957140.8 1696427636325007.8 1696427537036797.2 1696427491762767.2 1696427507110042.8 1696427599380718.2 1696427674264796.2 1696427641937890.2 59238.000000000007 1696427692148097.8 1696427714205446.8 330438.50000000006 1696427568197738.8
decision_type=2 2 2 2 2 2 2 2 2 2 2 2 2 2 2 2 2 2 2 2 2 2 2 2 2 2 2 2 2 2
left_child=1 2 13 4 -3 6 -5 8 16 11 -11 12 -7 25 19 24 27 -10 -14 28 -4 -15 -12 -13 -6 -1 -17 -2 -8 -16
right_child=7 3 20 5 15 9 14 -9 17 10 22 23 18 21 29 26 -18 -19 -20 -21 -22 -23 -24 -25 -26 -27 -28 -29 -30 -31
leaf_value=0.015522694938028887 0.017661029981274671 -0.04548082078667906 0.046509651002965488 -0.044849594708738144 0.049846186583323966 -0.046972595730922793 0.033095583660472154 -0.046683978797243793 -0.02794732548609807 -0.01542595227451735 -0.033385534401026172 -0.025468819916697222 0.02138176900557889 -0.0099399813831221387 0.0082618858756428031 0.031869368654358535 -0.0087102892150710091 -0.046352335913702025 -0.00052880419612312665 0.018784194407476931 0.038796449433365722 -0.024885720529203351 -0.046139307656087342 -0.045602563527496282 0.041370490912527445 0.0050379063216969078 0.022244829024710679 0.006146960171050409 0.025150059728229958 -0.0016132665653925697
leaf_weight=1724.1484584063292 1227.4543825685978 4504.1536070555449 6499.8020426928997 1774.8147368133068 3064.6297683566809 454.00782656669617 2575.6745525300503 6279.2562082707882 1048.5111201703548 2493.7797685861588 886.14954914152622 456.60415886342525 725.65720200538635 2084.2892198711634 2368.3887195289135 3142.9797583073378 1579.3046852946281 3912.3684520721436 1309.8955086022615 3411.0747258961201 5760.8197290152311 973.55716998875141 6537.0475319176912 996.26183889806271 4109.8824139237404 2330.9320569038391 1384.280533567071 1214.2530194371939 2408.6520016640425 1101.073692932725
leaf_count=7480 5284 21676 26396 8571 12405 2118 10756 29827 4977 11440 4233 2118 3184 9482 10371 13130 7132 18796 5905 14623 23680 4524 31452 4737 16796 10250 5865 5343 10137 4911
internal_value=0 0.00765889 0.0268079 -0.000829479 0.0153582 -0.0103693 0.0108571 -0.0320032 -0.0217398 -0.0312591 -0.0372763 -0.0161231 -0.00261202 -0.000905256 0.01919 0.0387758 0.00382637 -0.0424623 0.00728213 0.0250012 0.0428855 -0.0146984 -0.0446168 -0.039275 0.0449909 0.00949585 0.0289265 0.0119351 0.0292559 0.00512789
internal_weight=0 63078.6 19373.5 43705 16205.9 27499.1 13639.7 15261.1 8981.89 13859.4 9916.98 3942.43 2489.56 7112.93 11864.9 11701.8 4021.01 4960.88 2035.55 8395.4 12260.6 3057.85 7423.2 1452.87 7174.51 4055.08 4527.26 2441.71 4984.33 3469.46
internal_count=347599 276240 81812 194428 69872 124556 59369 71359 41532 65187 47125 18062 11207 31736 50798 48196 17759 23773 9089 35516 50076 14006 35685 6855 29201 17730 18995 10627 20893 15282
is_linear=0
shrinkage=0.05


Tree=12
num_leaves=31
num_cat=0
split_feature=1 3 1 1 3 1 1 1 3 1 3 1 1 1 1 1 1 2 0 1 3 3 2 3 2 3 2 1 2 2
split_gain=1050.48 452.371 101.838 97.1791 94.3367 248.025 69.6528 62.3221 28.737 26.5893 32.7516 84.3877 48.3572 16.936 15.6456 15.0249 14.5718 13.27 12.4636 12.186 12.4387 16.2049 11.5472 11.3046 11.2987 11.1981 10.4028 18.9536 10.1302 10.9347
threshold=1696427765145709.8 32.500000000000007 1696427566940419.8 1696427836783803.2 32.500000000000007 1696427622636238.8 1696427605408231.8 1696427737896615.8 42.500000000000007 1696427664887104.8 48.500000000000007 1696427701947001.8 1696427683458129.8 1696427697823497.8 1696427810702744.2 1696427711337663.8 1696427535013623.8 6217.5000000000009 468428.50000000006 1696427754347931.2 50.500000000000007 94.500000000000014 6197.0000000000009 27.500000000000004 6268.5000000000009 13.500000000000002 6026.5000000000009 1696427845232160.2 6372.0000000000009 5925.5000000000009
decision_type=2 2 2 2 2 2 2 2 2 2 2 2 2 2 2 2 2 2 2 2 2 2 2 2 2 2 2 2 2 2
left_child=2 3 8 14 5 6 -4 9 16 -6 -11 12 -12 -14 -2 -7 -1 22 -16 -9 24 -22 23 26 -21 -24 27 -5 29 -3
right_child=1 28 4 17 7 15 -8 19 -10 10 11 -13 13 -15 18 -17 -18 -19 -20 20 21 -23 25 -25 -26 -27 -28 -29 -30 -31
leaf_value=-0.0095166892470310537 0.0084290966370437134 0.086110982750727441 0.038102267998087844 0.14920333778445291 0.00030999992791457096 -0.020004264898607044 0.13359781670509815 0.030348123308070116 -0.017166851273493097 -0.0027642868632289704 0.038408039362883506 0.0069319095069487486 0.10020987759935651 0.21670414578387584 -0.0082341304548790087 -0.008117565578251348 0.0062539402263298953 0.046449781705655259 0.045157307632519225 0.095071747212001845 0.03280806169484534 0.14732533100148409 0.31650136140874086 0.015637955973345455 0.2965909093091405 0.13715128904354532 0.10422053224966535 0.45109159346643851 0.081912963493473226 0.1214345234961552
leaf_weight=654.58198771439493 208.79822987690568 24.501319130882621 114.81605566106737 3.4677366334945061 1084.0227926708758 924.58045840449631 22.903705399483442 93.518042890354991 1806.1260213255882 185.80366431921721 69.276725525036454 233.54118865542114 27.787174392491583 3.5145035572350016 13.39271426387131 373.13086830824614 188.69509389624 7.0824108496308318 59.453417398035526 10.133158694952723 26.070546679198745 3.5044318363070479 1.4084572996944182 2.770975198596715 0.74682603590190488 2.2779297549277544 14.701658727601169 0.61162681132554997 21.624978240579367 207.05499093234539
leaf_count=37227 11454 830 5500 138 60350 52145 623 4620 101849 10398 3371 12792 1010 59 647 21565 10956 275 2872 451 1162 156 44 88 33 74 416 10 776 5708
internal_value=0 0.0649132 -0.00637187 0.0248132 -0.000329929 -0.00981575 0.0539838 0.00750487 -0.0136087 0.0047684 0.014064 0.0234222 0.0617125 0.11329 0.0153898 -0.0165865 -0.00598779 0.106929 0.0353413 0.0402663 0.0631936 0.0463776 0.1239 0.109913 0.108904 0.205676 0.123822 0.194466 0.11464 0.117697
internal_weight=0 567.146 5822.75 313.965 3173.35 1435.43 137.72 1737.92 2649.4 1603.95 519.923 334.12 100.578 31.3017 281.644 1297.71 843.277 32.3208 72.8461 133.973 40.455 29.575 25.2384 21.552 10.88 3.68639 18.781 4.07936 253.181 231.556
internal_count=347599 23332 324267 16018 174235 79833 6123 94402 150032 87980 27630 17232 4440 1069 14973 73710 48183 1045 3519 6422 1802 1318 770 652 484 118 564 148 7314 6538
is_linear=0
shrinkage=0.05


Tree=13
num_leaves=31
num_cat=0
split_feature=1 3 1 3 1 1 1 1 3 1 1 3 1 1 1 1 1 3 1 1 1 1 1 1 1 1 1 1 1 1
split_gain=5904.72 3125.87 968.853 793.186 1569.24 979.368 677.872 439.631 419.971 545.514 344.283 215.75 181.344 151.201 126.126 83.8761 83.7568 197.126 82.4696 82.2062 80.1307 75.1406 68.9161 50.0843 43.9994 42.0333 38.9732 27.6506 39.918 26.1999
threshold=1696427756957140.8 32.500000000000007 1696427551056191.2 32.500000000000007 1696427622636238.8 1696427657102780.2 1696427823197628.2 1696427593860463.8 48.500000000000007 1696427699875290.2 1696427680214429.2 48.500000000000007 1696427699875290.2 1696427726355133.2 1696427836783803.2 1696427721722418.2 1696427588787144.8 48.500000000000007 1696427513895658.2 1696427802045324.2 1696427609827740.8 1696427765145709.8 1696427743620305.2 1696427688414400.8 1696427576435259.8 1696427745580902.8 1696427664887104.8 1696427779843595.2 1696427783789564.8 1696427845232160.2
decision_type=2 2 2 2 2 2 2 2 2 2 2 2 2 2 2 2 2 2 2 2 2 2 2 2 2 2 2 2 2 2
left_child=2 6 11 4 7 16 19 24 12 10 26 18 -7 -11 -8 -6 17 -5 -1 -2 -9 -3 -14 -12 -4 -15 -10 -23 -29 -16
right_child=1 21 3 5 15 8 14 20 9 13 23 -13 22 25 29 -17 -18 -19 -20 -21 -22 27 -24 -25 -26 -27 -28 28 -30 -31
leaf_value=-0.01187510907918608 0.0035443538900203904 0.079028464964458367 0.016870234490236332 0.021692604290235704 -0.019720670022469938 -0.0081096527267669836 0.051303123840415514 0.075630864101543904 0.033358919622451064 0.010925991224720622 0.095145442743601205 -0.019061095992611823 0.017519389215366148 0.029891970690984673 0.088148907760061124 -0.0078592992410545758 0.0026007765099526673 -0.011038062026989259 -0.00021629067894076058 0.026048191282483264 0.1336038984328424 0.12553188700389686 0.0583343417791422 0.13758923350780738 0.03736957301892159 0.051389357418298531 0.05691078490049483 0.071509823843996193 0.10891366810749886 0.12341258487602802
leaf_weight=4106.4818647503853 1682.9219390153885 231.27868163585663 774.43205599486828 527.25392615795135 7487.4992032498121 1013.8957277834415 242.12470033764839 237.05686816573143 280.42223960161209 1289.8135449141264 170.78562277555466 10953.630692780018 668.60667318105698 781.968983694911 116.62937906384468 1860.8251928389072 5377.0715391337872 3607.353201046586 2405.1704043745995 534.77287547290325 79.626948326826096 230.99685993790627 122.35000836849213 117.20251911878586 395.41398505866528 320.61538437008858 470.14597654342651 75.608502611517906 1260.7298324108124 96.051708489656448
leaf_count=31221 12550 1269 5573 3702 56762 7639 1534 1309 1898 9332 943 82831 4762 5357 620 14170 39907 27354 18199 3667 365 1035 779 543 2597 2040 2937 371 5908 425
internal_value=0 0.0546718 -0.00569802 0.000499844 -0.00977168 0.00804624 0.0203746 0.0379465 0.0254131 0.0356838 0.0659437 -0.0147764 0.00588882 0.0225478 0.0759808 -0.0173596 -0.00151352 -0.00686418 -0.00756876 0.00897091 0.0902076 0.105633 0.0238329 0.112419 0.0237991 0.0361431 0.0481115 0.109559 0.106797 0.104075
internal_weight=0 4471.11 43047.6 25582.3 10834.9 14747.5 2672.5 1486.53 5235.81 3430.95 1038.56 17465.3 1804.85 2392.4 454.806 9348.32 9511.68 4134.61 6511.65 2217.69 316.684 1798.61 790.957 287.988 1169.85 1102.58 750.568 1567.34 1336.34 212.681
internal_count=347599 27379 320220 187969 80776 107193 18796 9844 36230 23050 6321 132251 13180 16729 2579 70932 70963 31056 49420 16217 1674 8583 5541 1486 8170 7397 4835 7314 6279 1045
is_linear=0
shrinkage=0.05


Tree=14
num_leaves=31
num_cat=0
split_feature=1 3 1 1 1 3 3 1 1 1 3 1 1 1 1 1 1 3 1 1 1 1 3 1 1 1 1 1 1 0
split_gain=1715.65 1415.52 1195.02 365.877 1003.79 2465.73 995.46 2289.59 1069.83 318.838 741.736 275.172 186.775 169.416 137.522 129.2 121.612 120.995 118.785 101.948 90.2443 81.8074 61.0402 1742.58 655.28 146.385 142.2 60.4178 51.3866 50.6418
threshold=1696427507110042.8 48.500000000000007 1696427828518169.2 1696427701947001.8 1696427624043621.8 32.500000000000007 48.500000000000007 1696427575007694.2 1696427592110130.2 1696427802045324.2 32.500000000000007 1696427541166749.8 1696427592110130.2 1696427845232160.2 1696427674264796.2 1696427566940419.8 1696427603154524.2 32.500000000000007 1696427489536247.2 1696427836783803.2 1696427622636238.8 1696427612130416.8 32.500000000000007 1696427756957140.8 1696427737896615.8 1696427736144086.2 1696427765145709.8 1696427754347931.2 1696427554537434.2 322476.50000000006
decision_type=2 2 2 2 2 2 2 2 2 2 2 2 2 2 2 2 2 2 2 2 2 2 2 2 2 2 2 2 2 2
left_child=1 18 3 4 6 14 8 11 15 22 -11 29 -9 17 -6 -2 -10 -4 -1 -19 21 -18 24 25 -5 -24 -25 -26 -13 -8
right_child=2 -3 13 9 5 -7 7 12 16 10 -12 28 -14 -15 -16 -17 20 19 -20 -21 -22 -23 23 26 27 -27 -28 -29 -30 -31
leaf_value=-0.0012193296832702953 0.028160054901947097 -0.02252425359356652 -0.013201880974936991 0.0011335696434468193 -0.02193343824608154 0.013636957589076487 -0.016647889841167964 0.015004932189970351 -0.0083280077967358267 0.015120910679901324 -0.046075314553126627 -0.0056711492087045861 0.030387847262091018 -0.068943848870983426 -0.011531453820712181 0.013431010405355768 -0.040796247883456649 -0.080400866709582061 0.011012985639727524 -0.029077898567101947 -0.017610917242571286 -0.091233066943833291 0.023918372743999185 -0.020066359423301715 0.018618361546809986 0.0068058334962032025 -0.05624452584605899 0.029710759813804638 0.002472428037580408 -0.0094825965136202759
leaf_weight=4716.3580207228661 7925.2473072111607 13346.918759793043 446.44281762838364 4885.9541255831718 10039.737882405519 9907.0649074018002 5492.4777748584747 3349.814555644989 501.16705432534218 1278.9810603260994 807.94902151823044 3346.5665108263493 4801.8115971386433 453.57459905743599 4648.7337439358234 1833.2536820173264 247.00377732515335 170.09586995840073 3426.5481529831886 224.4271165728569 236.93260458111763 119.19199365377426 4649.9689749181271 394.96335804462433 1807.1097005605698 1709.0124741792679 869.65933120250702 3828.0035135447979 4599.5358347594738 4475.0978471040726
leaf_count=15581 27818 42426 1450 16242 31925 33801 17659 11440 1649 4371 2486 10973 16898 1379 15055 6261 789 518 11631 695 759 372 16185 1269 6266 5765 2661 13459 15282 14534
internal_value=0 -0.012501 0.00334937 0.0041041 0.00218599 -0.00563966 0.00739817 0.00209857 0.0201146 0.00993701 -0.00857103 -0.00789791 0.0240664 -0.0443144 -0.0186413 0.025393 -0.0265304 -0.0310305 0.00392805 -0.0512054 -0.0416556 -0.0572128 0.0120657 0.00865888 0.0145344 0.0193193 -0.0449455 0.0261536 -0.000957307 -0.0134309
internal_weight=0 21489.8 83049.8 81755.2 61523.6 24595.5 36928.1 26065.3 10862.8 20231.6 2086.93 17913.7 8151.63 1294.54 14688.5 9758.5 1104.3 840.966 8142.91 394.523 603.128 366.196 18144.7 7623.6 10521.1 6358.98 1264.62 5635.11 7946.1 9967.58
internal_count=347599 69638 277961 273919 205215 80781 124434 86786 37648 68704 6857 58448 28338 4042 46980 34079 3569 2663 27212 1213 1920 1161 61847 25880 35967 21950 3930 19725 26255 32193
is_linear=0
shrinkage=0.05


Tree=15
num_leaves=31
num_cat=0
split_feature=1 1 3 3 1 1 3 3 1 3 1 1 1 1 1 1 1 1 1 1 1 1 1 1 1 1 1 0 1 1
split_gain=7096.14 3560.08 2880.66 2383.67 8199.34 4478.2 2292.99 912.771 1806.17 489.84 629.906 467.155 365.479 364.896 332.952 234.613 170.614 149.259 83.2933 71.9271 61.9156 58.0826 51.6344 50.9802 35.7504 29.7116 28.1305 27.1461 25.2693 22.6253
threshold=1696427703392877.2 1696427514746514.8 48.500000000000007 32.500000000000007 1696427622636238.8 1696427575007694.2 48.500000000000007 32.500000000000007 1696427745580902.8 48.500000000000007 1696427595592425.8 1696427671475653.8 1696427622636238.8 1696427496307994.8 1696427554537434.2 1696427672832086.2 1696427726355133.2 1696427650085315.8 1696427756957140.8 1696427537036797.2 1696427491762767.2 1696427479402969.2 1696427641937890.2 1696427585579317.8 1696427507110042.8 1696427636325007.8 1696427712776782.8 330438.50000000006 1696427565487784.8 1696427692148097.8
decision_type=2 2 2 2 2 2 2 2 2 2 2 2 2 2 2 2 2 2 2 2 2 2 2 2 2 2 2 2 2 2
left_child=1 2 13 4 -3 6 -5 8 16 11 23 12 -7 21 19 22 26 25 -10 27 -4 -1 -6 -11 -15 -14 -2 -8 -16 -17
right_child=7 3 20 5 15 9 14 -9 18 10 -12 -13 17 24 28 29 -18 -19 -20 -21 -22 -23 -24 -25 -26 -27 -28 -29 -30 -31
leaf_value=0.014262970436368962 0.017267696860918554 -0.044851910252661019 0.042351360864039456 -0.044176190531945041 0.045332503778097916 -0.046516996954631906 0.030474591195586088 -0.04616272031404535 -0.028432845748197069 -0.010761977355444449 -0.0448456616884714 -0.043567515982805241 0.020378837213343038 -0.011566626281199203 0.0086210008086483048 0.02834259411017867 -0.0092269798128624715 -0.012152544969649952 -0.045763638524087595 0.017613629283571554 0.035347960431088683 0.0028795050546952541 0.037136054121785604 -0.024131626116404944 -0.023985473171591061 0.0058633759576184278 0.006506040952936375 0.023174776592344189 4.1787499035686077e-05 0.020484326220522694
leaf_weight=1878.2070785909891 1087.7295373529196 4317.6899081170559 6729.5380617678165 1698.734728127718 3178.839958012104 440.63950726389885 2641.6349979043007 6052.5780963599682 850.43327124416828 1561.9995821118355 6702.3292224705219 1066.2219401299953 733.97686767578125 1484.4421899616718 1949.8334770202637 2610.3736190646887 1730.4288482367992 959.0461665391922 3751.881387963891 3457.1793370246887 5942.8674445897341 2777.8931711018085 4857.6156275272369 1311.8531888574362 950.61304385960102 678.3605549633503 1374.6618822813034 2459.1887455135584 1533.1967445462942 1411.1273016482592
leaf_count=8072 4618 21676 26396 8571 12405 2118 10756 29827 4178 7208 33613 5271 3184 6860 8454 10678 7931 4428 18796 14623 23680 12280 19248 6304 4524 3061 6009 10137 6828 5865
internal_value=0 0.00718628 0.0247875 -0.000797765 0.0142731 -0.00987307 0.0102052 -0.0312185 -0.0209343 -0.0303772 -0.0364485 -0.0153857 -0.00470017 -0.000730928 0.0178773 0.0354445 0.00280469 0.00307003 -0.0425612 0.0231815 0.039067 0.00747144 0.0403782 -0.0168649 -0.0164148 0.0134069 0.0112599 0.0269552 0.00484451 0.0255852
internal_weight=0 63333.4 19763.6 43569.8 16375.6 27194.2 13739.8 14847.7 8795.13 13454.4 9576.18 3878.25 2812.02 7091.16 12041 12058 4192.82 2371.38 4602.31 8558 12672.4 4656.1 8036.46 2873.85 2435.06 1412.34 2462.39 5100.82 3483.03 4021.5
internal_count=347599 276240 81812 194428 69872 124556 59369 71359 41532 65187 47125 18062 12791 31736 50798 48196 18558 10673 22974 35516 50076 20352 31653 13512 11384 6245 10627 20893 15282 16543
is_linear=0
shrinkage=0.05


Tree=16
num_leaves=31
num_cat=0
split_feature=1 3 1 3 1 1 1 1 1 3 3 1 1 1 1 1 3 3 2 0 1 0 0 1 2 3 0 3 2 3
split_gain=908.206 322.246 97.6096 91.198 222.991 74.5585 54.1428 48.3964 30.3167 29.0142 27.2408 68.0871 38.434 15.0603 14.189 13.1702 11.4676 14.7743 11.2231 10.9378 10.069 14.876 17.5821 9.7278 16.4674 9.41701 12.2166 11.8636 13.5808 9.15699
threshold=1696427765145709.8 32.500000000000007 1696427566940419.8 32.500000000000007 1696427622636238.8 1696427836783803.2 1696427664887104.8 1696427605408231.8 1696427749764848.2 42.500000000000007 48.500000000000007 1696427701947001.8 1696427683458129.8 1696427707402293.8 1696427535013623.8 1696427810702744.2 83.500000000000014 68.500000000000014 5986.0000000000009 683339.50000000012 1696427723259909.2 407173.50000000006 385338.50000000006 1696427845232160.2 6026.5000000000009 50.500000000000007 71997.500000000015 94.500000000000014 6034.5000000000009 49.500000000000007
decision_type=2 2 2 2 2 2 2 2 2 2 2 2 2 2 2 2 2 2 2 2 2 2 2 2 2 2 2 2 2 2
left_child=2 5 9 4 7 15 -5 -4 10 14 20 12 -12 -6 -1 -2 17 29 -18 -17 -8 22 -22 -7 -25 26 -10 -27 -29 -14
right_child=1 -3 3 6 13 23 8 -9 25 -11 11 -13 16 -15 -16 19 18 -19 -20 -21 21 -23 -24 24 -26 27 -28 28 -30 -31
leaf_value=-0.009083009760138613 0.008595170312495546 0.096755016541320113 0.035491856369164736 0.00055521329599988924 -0.019934702203725271 0.063950725020360033 -0.0054983381818103794 0.11028059787161226 0.30719490574034503 -0.016870743394833194 0.036334376970689322 0.010255853522956358 0.012999288029670606 -0.0082448176257050188 0.0065441748923909873 0.00062655116842534045 0.34688461862969455 0.034189928943969349 0.1319016097949452 0.044235525459258053 0.068343611791905345 0.0091474690871418077 0.3847558141187794 0.31502253128526303 0.10503885365475765 0.029756928222281265 0.073833825725718644 0.30882431679963174 0.077178133669132815 0.12993661457748876
leaf_weight=644.93717667087913 208.06289602443576 286.29884533770382 118.8525396771729 1077.220851406455 877.14343613944948 17.111564783379436 159.92255163379014 26.444034498184919 0.57902422733605163 1781.4318169876933 71.190534835681319 288.84454297274351 1.9339719191193605 401.69685082137585 187.47938410378993 19.363931296393275 0.6490509957075109 9.6200023144483549 9.3878327682614309 55.85035603120923 6.110020810738205 34.968396680429578 0.47302899882197369 0.98454566672444599 18.068610940128565 41.960867393761873 17.851412229239941 0.72039493545889755 5.1991818342357874 12.459789058193563
leaf_count=37227 11454 7314 5500 60350 50206 620 8992 623 24 101849 3371 15517 55 23504 10956 930 24 302 302 2589 330 1892 25 11 414 1844 747 30 211 386
internal_value=0 0.0582332 -0.00612007 -0.00021212 -0.00959385 0.0237082 0.00747055 0.0491034 0.0187255 -0.0132698 0.0151548 0.0228008 0.0572315 -0.0162628 -0.00556341 0.0150772 0.100922 0.0821625 0.145804 0.0330084 0.000199259 0.0221281 0.0910796 0.0913143 0.115889 0.0507952 0.0811653 0.039105 0.105369 0.114225
internal_weight=0 605.741 5777.08 3163.23 1424.14 319.442 1739.09 145.297 661.871 2613.85 595.56 394.086 105.241 1278.84 832.417 283.277 34.0506 24.0138 10.0369 75.2143 201.474 41.5514 6.58305 36.1647 19.0532 66.3109 18.4304 47.8804 5.91958 14.3938
internal_count=347599 23332 324267 174235 79833 16018 94402 6123 34052 150032 31196 19957 4440 73710 48183 14973 1069 743 326 3519 11239 2247 355 1045 425 2856 771 2085 241 441
is_linear=0
shrinkage=0.05


Tree=17
num_leaves=31
num_cat=0
split_feature=1 3 1 3 1 1 1 3 1 1 1 3 1 1 1 1 1 1 1 3 1 1 1 1 1 1 3 1 1 1
split_gain=5158.96 2512.35 851.645 688.82 1459.15 755.588 593.44 381.164 509.491 336.671 276.194 218.016 173.439 126.62 93.9085 83.9098 83.8111 82.3922 80.8189 184.055 63.6369 56.2066 37.5642 36.4657 32.873 27.1475 26.3189 24.9123 20.8494 19.9109
threshold=1696427749764848.2 32.500000000000007 1696427551056191.2 32.500000000000007 1696427622636238.8 1696427657102780.2 1696427823197628.2 48.500000000000007 1696427701947001.8 1696427593860463.8 1696427680214429.2 48.500000000000007 1696427762412471.8 1696427699875290.2 1696427836783803.2 1696427717070517.2 1696427504437811.8 1696427802045324.2 1696427588787144.8 48.500000000000007 1696427683458129.8 1696427605408231.8 1696427564164371.8 1696427688414400.8 1696427664887104.8 1696427729415681.8 49.500000000000007 1696427576435259.8 1696427736144086.2 1696427724780407.8
decision_type=2 2 2 2 2 2 2 2 2 2 2 2 2 2 2 2 2 2 2 2 2 2 2 2 2 2 2 2 2 2
left_child=2 6 11 4 9 18 17 13 10 22 24 16 -3 -7 -8 -10 -1 -2 19 27 -6 -11 -4 -12 -9 -15 -25 -5 -17 -22
right_child=1 12 3 5 20 7 14 8 15 21 23 -13 -14 25 -16 28 -18 -19 -20 -21 29 -23 -24 26 -26 -27 -28 -29 -30 -31
leaf_value=-0.012571146674934662 0.0027908018838227332 0.058617420530215014 0.011025271604966878 0.014791489622853102 -0.021260311034219714 -0.0077346563142331043 0.046873923565421395 0.031383527201997954 0.0065197009135205784 0.062009000603048849 0.086126331353599914 -0.018691747960585849 0.09401046262457885 0.012768764448510215 0.090992739963093816 0.021950363536975243 -0.001148637876700291 0.024734576606612046 0.0028415625683287705 -0.010587906773146399 -0.015271658609387884 0.10313397229131163 0.029548109393360236 0.012049184974866262 0.052696322098094786 0.03312269305860048 0.12553832964621467 0.039999316573345919 0.034728010313221876 -0.007776615256501045
leaf_weight=3332.8320530354977 1999.9366120696068 429.10449501872063 429.05156545341015 403.61411592364311 4923.0755909830332 1004.5100514143705 252.92010346055031 287.18654608726501 839.13825781643391 198.99046896398067 181.5718846321106 10816.407147482038 1790.2548977583647 491.82488697767258 230.56857748329639 885.64829707145691 3099.247971996665 544.15072618424892 5351.6095780879259 3564.09493945539 2636.8098138570786 142.63970085978508 756.02273918688297 5.327985391020774 488.97595624625683 245.644207701087 124.04595810174942 129.44753538072109 499.19619816541672 1334.5848981738091
leaf_count=25641 15133 2476 3117 2837 37674 7639 1534 1898 6101 1051 943 82831 7694 3536 1045 6222 23779 3667 39907 27354 20442 623 5053 31 2937 1613 529 865 3194 10233
internal_value=0 0.0467572 -0.0058158 9.52612e-05 -0.00971037 0.00714169 0.0171346 0.0227484 0.032709 0.0354487 0.0607621 -0.0143569 0.0871674 0.00381569 0.0679135 0.0189962 -0.0070673 0.00748432 -0.00120455 -0.00648949 -0.0174618 0.0791798 0.022842 0.10058 0.0448104 0.0195485 0.120865 0.0209129 0.0265563 -0.012753
internal_weight=0 5246.94 42171.5 24923 10421.2 14501.8 3027.58 5053.07 3311.09 1526.7 1087.11 17248.5 2219.36 1741.98 483.489 2223.98 6432.08 2544.09 9448.77 4097.16 8894.47 341.63 1185.07 310.946 776.163 737.469 129.374 533.062 1384.84 3971.39
internal_count=347599 31549 316050 183799 78193 105606 21379 34643 21855 9844 6338 132251 10170 12788 2579 15517 49420 18800 70963 31056 68349 1674 8170 1503 4835 5149 560 3702 9416 30675
is_linear=0
shrinkage=0.05


Tree=18
num_leaves=31
num_cat=0
split_feature=1 3 1 1 1 3 3 1 1 1 3 1 1 1 1 1 1 1 3 1 3 1 1 1 1 1 0 2 1 2
split_gain=1477.28 1515.36 1053.03 335.564 923.42 2204.05 734.635 1768.24 862.834 278.383 636.601 226.726 193.182 172.684 148.393 146.678 126.778 117.445 103.445 93.0305 54.3283 1518.19 587.837 134.4 122.82 62.7543 47.4404 43.5212 40.0976 39.2706
threshold=1696427513038948.8 48.500000000000007 1696427828518169.2 1696427622636238.8 1696427701947001.8 32.500000000000007 48.500000000000007 1696427577948882.2 1696427597511709.2 1696427802045324.2 32.500000000000007 1696427554537434.2 1696427576435259.8 1696427491085759.2 1696427845232160.2 1696427607589271.8 1696427593860463.8 1696427674264796.2 32.500000000000007 1696427836783803.2 32.500000000000007 1696427756957140.8 1696427741590430.8 1696427729415681.8 1696427765145709.8 1696427720163887.2 342442.00000000006 6223.0000000000009 1696427745580902.8 6395.0000000000009
decision_type=2 2 2 2 2 2 2 2 2 2 2 2 2 2 2 2 2 2 2 2 2 2 2 2 2 2 2 2 2 2
left_child=1 13 3 6 5 17 8 11 12 20 -11 26 -2 -1 18 -10 -9 -5 -4 -20 22 23 25 -22 -23 -6 -8 -12 -25 -29
right_child=2 -3 14 4 9 -7 7 16 15 10 27 -13 -14 -15 -16 -17 -18 -19 19 -21 21 24 -24 28 -26 -27 -28 29 -30 -31
leaf_value=-0.00070804375039651641 0.026761472456122627 -0.020223470567609949 -0.012272087968067636 -0.020199156462237963 -0.0034952186320812749 0.013045704392122291 -0.013172955296256139 0.016081983956216885 -0.018917924868584658 0.014234617136027777 -0.027356474672172389 0.0030204073247721971 0.005741118859641018 0.013112807083577061 -0.064053680906843505 -0.069731933505586721 0.029495949598548229 -0.010645227431356853 -0.074996274814942962 -0.026236460003997843 0.024087863099602674 -0.018539162366500311 0.025794979179166122 0.013550469415739015 -0.052001196056049276 0.0073796945236485325 -0.0067104369823421496 -0.061513575097583865 -7.922013495405778e-05 -0.032643518127517361
leaf_weight=5036.0141430199146 7557.7484165728092 15353.097505152225 448.99444049596786 10307.884571284056 2610.6811307072639 10052.486700534821 5085.1772882938385 3016.3677391111851 379.5984138250351 1266.507145524025 303.51959985494614 5193.0171100497246 1277.8193174600601 4100.1376628875732 458.00076448917389 226.90635681152344 4233.8334020674229 4675.8844308555126 171.99265888333321 226.84315663576126 3823.3085483908653 398.50973346829414 5105.1984465420246 1648.0390414595604 879.26978740096092 2697.0267984569073 6431.2782560884953 330.88386511802673 802.32385674118996 182.90249478816986
leaf_count=16642 27086 48369 1450 32460 8592 34629 16317 10445 1227 4371 928 17328 4343 14102 1379 701 15243 15055 518 695 13553 1269 18268 5707 2661 9107 20906 1001 2690 557
internal_value=0 -0.0106289 0.0034101 0.00415099 0.00133694 -0.00506644 0.0079493 0.00329435 0.0197614 0.00933351 -0.00796588 -0.00565299 0.0237215 0.0054945 -0.041121 -0.0379285 0.0239152 -0.0172177 -0.0287327 -0.0472635 0.0113402 0.00811134 0.0136818 0.0182291 -0.0415652 0.00203069 -0.00956401 -0.042368 0.00908769 -0.0512361
internal_weight=0 24489.2 79792 78486.2 45084.4 25036.3 33401.7 23959.7 9442.07 20048.2 2083.81 16709.5 8835.57 9136.15 1305.83 606.505 7250.2 14983.8 847.83 398.836 17964.4 7551.45 10412.9 6273.67 1277.78 5307.71 11516.5 817.306 2450.36 513.786
internal_count=347599 79113 268486 264444 150848 82144 113596 80239 33357 68704 6857 54551 31429 30744 4042 1928 25688 47515 2663 1213 61847 25880 35967 21950 3930 17699 37223 2486 8397 1558
is_linear=0
shrinkage=0.05


Tree=19
num_leaves=31
num_cat=0
split_feature=1 1 3 3 1 1 3 3 1 3 1 1 1 1 1 1 1 1 1 1 1 1 1 1 0 1 1 1 1 0
split_gain=6514.32 3103.69 2413.85 2108.15 7319.01 4111.88 2092.53 904.992 1715.95 549.946 486.419 467.892 367.381 353.043 327.302 193.576 153.6 83.9742 73.0606 60.495 52.6773 51.4808 51.0308 39.1834 35.0189 32.277 32.1508 30.3517 25.5268 22.1692
threshold=1696427703392877.2 1696427514746514.8 48.500000000000007 32.500000000000007 1696427622636238.8 1696427577948882.2 48.500000000000007 32.500000000000007 1696427745580902.8 48.500000000000007 1696427595592425.8 1696427663524307.8 1696427622636238.8 1696427554537434.2 1696427492495450.2 1696427666178388.2 1696427726355133.2 1696427756957140.8 1696427637378142.8 1696427537036797.2 1696427491762767.2 1696427505440450.8 1696427674264796.2 1696427568197738.8 59238.000000000007 1696427641937890.2 1696427585579317.8 1696427692148097.8 1696427714205446.8 330438.50000000006
decision_type=2 2 2 2 2 2 2 2 2 2 2 2 2 2 2 2 2 2 2 2 2 2 2 2 2 2 2 2 2 2
left_child=1 2 14 4 -3 6 -5 8 16 11 26 12 -7 19 24 25 28 -10 -14 29 -4 -16 -13 -15 -1 -6 -11 -17 -2 -8
right_child=7 3 20 5 15 9 13 -9 17 10 -12 22 18 23 21 27 -18 -19 -20 -21 -22 -23 -24 -25 -26 -27 -28 -29 -30 -31
leaf_value=0.013930585929182336 0.015703400894787067 -0.04427765463314251 0.03871128442663168 -0.043618185424884617 0.041474179623458722 -0.046214755274976822 0.028028557268905952 -0.045675017781571417 -0.027537114547157432 -0.011547116694212205 -0.044270069467144485 -0.023674268063633416 0.019273951224127926 0.0074225967268086298 -0.0079955905227835442 0.027508311143922066 -0.0087643500258194878 -0.045212426650493798 -0.00018583206425176123 0.016394458291428816 0.032343231440261695 -0.021534219335054717 -0.044449815205879525 -0.0028057905448573132 0.004595589045113601 0.03476003240039674 -0.023201836740791619 0.018948947543478589 0.0055568472170675542 0.021499039489487264
leaf_weight=1757.5355643481016 1255.8012007325888 4139.2833983898163 6936.9809050559998 1674.5863860547543 3279.6781685948372 380.01686708629131 2704.7342787086964 5829.1329374909401 826.55361786484718 1101.1431191414595 6426.1151234060526 435.08630669116974 786.8013111948967 2394.9825294464827 1823.5574727356434 3722.6027965694666 1715.6607400625944 3593.0727810561657 1246.4376405924559 3505.8751804530621 6106.0034228265285 1141.816159516573 921.78915426135063 1537.3672962933779 2345.2472943812609 3940.8408361375332 1279.1033619940281 1434.953711181879 1224.0754800885916 2502.9088140726089
leaf_count=7480 5284 21676 26396 8820 12405 1869 10756 29827 4178 5162 33613 2118 3404 10371 8461 14778 7931 18796 5685 14623 23680 5545 4737 6957 10250 15148 6304 5865 5343 10137
internal_value=0 0.00674028 0.0229783 -0.00078179 0.0132782 -0.00941602 0.0089046 -0.0304599 -0.0201652 -0.0302771 -0.0371183 -0.0142974 -0.0010895 0.0158598 -0.000552796 0.0325252 0.0027376 -0.0419068 0.00734451 0.021472 0.0357301 -0.0132086 -0.0377881 0.00342377 0.00859448 0.0378097 -0.0178102 0.0251269 0.010695 0.0248903
internal_weight=0 63525.4 20111.1 43414.3 16517.4 26896.9 14320.5 14444.3 8615.16 12576.5 8806.36 3770.13 2413.26 12645.9 7068.16 12378.1 4195.54 4419.63 2033.24 8713.52 13043 2965.37 1356.88 3932.35 4102.78 7220.52 2380.25 5157.56 2479.88 5207.64
internal_count=347599 276240 81812 194428 69872 124556 61664 71359 41532 62892 45079 17813 10958 52844 31736 48196 18558 22974 9089 35516 50076 14006 6855 17328 17730 27553 11466 20643 10627 20893
is_linear=0
shrinkage=0.05


Tree=20
num_leaves=31
num_cat=0
split_feature=1 3 1 3 1 1 1 1 3 1 3 1 1 1 1 1 1 0 1 0 0 1 3 0 2 3 3 0 0 1
split_gain=790.862 236.895 93.6159 87.8744 202.111 58.6252 49.1487 34.8533 29.1305 24.7296 25.0997 59.2505 31.8277 15.1827 13.8527 11.6546 11.161 9.60682 9.33112 10.7361 14.3193 9.13267 9.3712 8.99284 15.0034 10.9259 8.41035 8.28708 7.93824 7.40861
threshold=1696427765145709.8 32.500000000000007 1696427566940419.8 32.500000000000007 1696427622636238.8 1696427836783803.2 1696427664887104.8 1696427605408231.8 42.500000000000007 1696427749764848.2 48.500000000000007 1696427701947001.8 1696427681853940.2 1696427715605634.2 1696427532018339.2 1696427697823497.8 1696427810702744.2 468428.50000000006 1696427720163887.2 411561.50000000006 385338.50000000006 1696427590422985.8 53.500000000000007 425570.00000000006 6137.0000000000009 79.500000000000014 19.500000000000004 586459.50000000012 6429.0000000000009 1696427729415681.8
decision_type=2 2 2 2 2 2 2 2 2 2 2 2 2 2 2 2 2 2 2 2 2 2 2 2 2 2 2 2 2 2
left_child=2 5 8 4 7 16 21 -4 14 10 18 12 -12 -6 -1 23 -2 -18 -8 20 29 22 -5 24 25 -14 -7 -25 -13 -20
right_child=1 -3 3 6 13 26 9 -9 -10 -11 11 28 15 -15 -16 -17 17 -19 19 -21 -22 -23 -24 27 -26 -27 -28 -29 -30 -31
leaf_value=-0.0089227584598348675 0.0086741894169714544 0.083381747785469584 0.033289717577192852 0.011135078899272602 -0.019191747221076416 0.097656213461699004 -0.0056602103848879225 0.093658642632759304 -0.016565167129598241 0.046210580691577151 0.032305747349090107 0.17969927878161013 0.16103664582786678 -0.0066984418513198257 0.0060371380323918297 0.16482656670831516 -0.0078757893913577338 0.038902988800040422 -0.018582312127737519 0.0088622803286085693 0.27185397305107811 0.0038501072000047239 -0.010321732959496187 -0.018427993740203982 0.080424072383486075 0.42446782687391826 0.050291881034121556 0.076378229304212356 0.0097681867867794227 0.086523237124864566
leaf_weight=615.7268914245069 207.71474298462272 317.26139679178596 122.48281789012253 63.062315389513969 930.61061758734286 24.537366522476077 153.01703205518425 29.70778800919652 1756.6291986908764 69.879325425252318 68.14949350990355 0.6888964120298614 1.0025117807090271 329.21280725672841 206.69167264923453 4.3954101838171473 13.236972264945505 64.240128271281719 2.5722463559359294 39.447788203135133 0.8061532862484454 744.13642935082316 263.5641854852438 2.4995548557490102 3.3651225082576275 0.64803934097290028 15.164850309491156 29.610966809093952 288.64674625732005 4.8149685896933079
leaf_count=36001 11454 7314 5500 3490 54116 619 8679 623 101849 2856 3157 37 32 19594 12182 59 647 2872 143 2146 32 42176 14684 82 112 20 426 978 15480 239
internal_value=0 0.0526498 -0.00586438 -8.43469e-05 -0.00935221 0.0226398 0.00743522 0.0450738 -0.0129292 0.0180612 0.014781 0.0220351 0.0533306 -0.015927 -0.00516301 0.0878386 0.0147151 0.0309108 0.000356094 0.0196797 0.071761 0.00079081 -0.00617903 0.078724 0.140988 0.264465 0.0795647 0.0689983 0.0101728 0.0499252
internal_weight=0 642.155 5731.37 3152.32 1412.01 324.894 1740.31 152.191 2579.05 669.544 599.665 399.007 109.671 1259.82 822.419 41.5216 285.192 77.4771 200.658 47.6412 8.19337 1070.76 326.627 37.1262 5.01567 1.65055 39.7022 32.1105 289.336 7.38721
internal_count=347599 23332 324267 174235 79833 16018 94402 6123 150032 34052 31196 19957 4440 73710 48183 1283 14973 3519 11239 2560 414 60350 18174 1224 164 52 1045 1060 15517 382
is_linear=0
shrinkage=0.05


Tree=21
num_leaves=31
num_cat=0
split_feature=1 3 1 3 1 1 1 3 1 1 1 3 1 1 1 1 3 1 1 1 1 1 1 1 1 1 1 1 1 2
split_gain=4532.61 1952.42 809.936 660.872 1343.09 684.047 487.555 340.227 433.36 262.192 233.279 218.779 127.483 117.338 83.0126 77.899 172.698 73.8162 72.0579 72.0349 63.2654 47.9983 33.4019 27.9971 27.8576 22.7907 20.1067 20.0787 17.657 17.1719
threshold=1696427749764848.2 32.500000000000007 1696427551056191.2 32.500000000000007 1696427622636238.8 1696427657102780.2 1696427823197628.2 48.500000000000007 1696427699875290.2 1696427592110130.2 1696427680214429.2 48.500000000000007 1696427762412471.8 1696427699875290.2 1696427504437811.8 1696427588787144.8 48.500000000000007 1696427787396862.8 1696427836783803.2 1696427717070517.2 1696427683458129.8 1696427609827740.8 1696427688414400.8 1696427664887104.8 1696427564164371.8 1696427729415681.8 1696427724780407.8 1696427576435259.8 1696427536089276.2 5505.0000000000009
decision_type=2 2 2 2 2 2 2 2 2 2 2 2 2 2 2 2 2 2 2 2 2 2 2 2 2 2 2 2 2 2
left_child=2 6 11 4 9 15 17 13 10 24 23 14 -3 -7 -1 16 27 -2 -8 -10 -6 -11 -12 -9 -4 -15 -22 -5 -16 -14
right_child=1 12 3 5 20 7 18 8 19 21 22 -13 29 25 28 -17 -18 -19 -20 -21 26 -23 -24 -25 -26 -27 -28 -29 -30 -31
leaf_value=-0.012112288610311689 0.00079220497850719163 0.053138348274505268 0.011125139687526877 0.014702317569573357 -0.02086495927536065 -0.0073681152258701869 0.043007584711308389 0.029590286482595082 0.0068039525837812675 0.058476795025717621 0.078647932924383573 -0.018310100573177914 0.11319093821475548 0.012624522164401939 -0.0029851678720294807 0.0030661463477373273 -0.010155387632601119 0.01827327650149636 0.080632992425154745 0.025309414632476563 -0.014872806786822068 0.099071885520621419 0.1111663385119037 0.048995636420868821 0.02717021735369712 0.031118345361571272 -0.0072956130273793872 0.037049168970460178 0.0055596028834029075 0.081950899408375438
leaf_weight=3290.0760079920292 1547.3717503398657 450.77205970883369 428.33809643983841 404.17363032698631 4851.282837241888 995.46851129829884 263.03965884447098 293.57747443020344 839.56265957653522 304.05044385790825 191.44197219610214 10677.260613188148 45.044030487537384 492.97269223630428 2240.488282866776 5327.9434174150229 3523.2948214709759 990.41002832353115 246.49923129379749 1407.4739172011614 2604.8621918261051 95.743627220392227 134.41248682141304 506.62771470844746 734.22900986671448 251.61591117084026 1318.7630819827318 133.7913206666708 828.01936998963356 1876.3362533897161
leaf_count=25641 11825 2476 3117 2837 37674 7639 1534 1898 6118 1522 943 82831 167 3536 17381 39907 27354 6975 1045 9416 20442 365 543 2937 4840 1613 10233 865 6398 7527
internal_value=0 0.0430543 -0.00554083 0.000217872 -0.00944202 0.00710344 0.0165761 0.0218186 0.0310821 0.0332701 0.0563987 -0.0139375 0.077069 0.00386119 -0.00659504 -0.00091009 -0.00612649 0.00761447 0.0612096 0.0183952 -0.0170469 0.0681986 0.0920615 0.0418762 0.0212585 0.0188741 -0.012326 0.02026 -0.00067941 0.0826833
internal_weight=0 5419.47 41875.5 24839.6 10337.3 14502.4 3047.32 5113.15 3373.1 1562.36 1126.06 17035.8 2372.15 1740.06 6358.58 9389.2 4061.26 2537.78 509.539 2247.04 8774.91 399.794 325.854 800.205 1162.57 744.589 3923.63 537.965 3068.51 1921.38
internal_count=347599 31549 316050 183799 78193 105606 21379 34643 21855 9844 6321 132251 10170 12788 49420 70963 31056 18800 2579 15534 68349 1887 1486 4835 7957 5149 30675 3702 23779 7694
is_linear=0
shrinkage=0.05


Tree=22
num_leaves=31
num_cat=0
split_feature=1 3 1 1 1 3 3 1 1 1 3 1 1 1 1 1 1 1 3 1 1 1 3 1 1 1 1 1 1 2
split_gain=1273.8 1026.79 909.147 277.167 754.632 1826.82 766.474 1771.9 868.792 243.122 548.633 203.484 158.765 133.247 111.626 98.5637 90.6407 90.48 89.9736 86.1768 76.0651 65.8073 48.3398 1327.56 527.601 121.549 107.585 52.1479 41.1037 39.9966
threshold=1696427507110042.8 48.500000000000007 1696427828518169.2 1696427701947001.8 1696427624043621.8 32.500000000000007 48.500000000000007 1696427575007694.2 1696427592110130.2 1696427802045324.2 32.500000000000007 1696427541166749.8 1696427592110130.2 1696427845232160.2 1696427564164371.8 1696427668787304.2 1696427489536247.2 1696427603154524.2 32.500000000000007 1696427836783803.2 1696427622636238.8 1696427612130416.8 32.500000000000007 1696427756957140.8 1696427737896615.8 1696427729415681.8 1696427765145709.8 1696427754347931.2 1696427712776782.8 6223.0000000000009
decision_type=2 2 2 2 2 2 2 2 2 2 2 2 2 2 2 2 2 2 2 2 2 2 2 2 2 2 2 2 2 2
left_child=1 16 3 4 6 15 8 11 14 22 -11 -8 -9 18 -2 -6 -1 -10 -4 -20 21 -19 24 25 28 -24 -25 -26 -5 -12
right_child=2 -3 13 9 5 -7 7 12 17 10 29 -13 -14 -15 -16 -17 -18 20 19 -21 -22 -23 23 26 27 -27 -28 -29 -30 -31
leaf_value=-0.0010312025400895798 0.025737260260913816 -0.019045383210786214 -0.011302757915943954 -0.0055649074134791233 -0.018983138446011363 0.012079595301437472 -0.011427836131159028 0.013301623818984525 -0.0080446689046219533 0.013402028573924672 -0.024795726125397235 -0.00073518237598807219 0.027690117171082409 -0.060012851610561517 0.012536689216748843 -0.010628938633749562 0.0096934970071160045 -0.036182003212106663 -0.07050566360852055 -0.023705850709396223 -0.014749428001077966 -0.080944086199342069 0.022848608853422936 -0.017153946779796859 0.01653219654686848 0.008506511504499964 -0.048361282324257827 0.02700019051476062 0.0041838472607824296 -0.047605007108151437
leaf_weight=4723.2780911624432 7365.7199074029922 13588.90890237689 451.51792293787003 1618.0785928964615 9185.8429075479507 9724.7750325798988 10091.259074419737 3286.6726611554623 501.42482390999794 1254.5682516396046 305.82213872671127 7958.3337354063988 4601.1216582655907 459.52462178468704 2046.4082126617432 5734.7482819855213 3379.9137856960297 251.41692131757736 172.64199018478394 228.63152238726616 240.60521784424782 121.93052640557289 3756.158859372139 401.52637878060341 1760.4488383829594 2434.9432027041912 884.61244261264801 3669.8996483683586 3258.9536789953709 517.27658492326736
leaf_count=15581 26927 42426 1450 5299 28666 33801 32193 11440 1649 4371 928 26255 16898 1379 7152 18314 11631 789 518 695 759 372 13553 1269 6266 8397 2661 13459 10943 1558
internal_value=0 -0.010645 0.00297497 0.00364405 0.0019763 -0.0047822 0.00654414 0.00192585 0.0179225 0.00877519 -0.00740941 -0.00671329 0.0216947 -0.0383085 0.0228672 -0.0157722 0.00344217 -0.0238026 -0.0266132 -0.0438408 -0.0366724 -0.0508007 0.0106659 0.00760536 0.0128862 0.0172079 -0.0386185 0.0236066 0.000949452 -0.0391302
internal_weight=0 21692.1 82284.9 80972.5 61110.3 24645.4 36464.9 25937.4 10527.5 19862.3 2077.67 18049.6 7887.79 1312.32 9412.13 14920.6 8103.19 1115.38 852.791 401.274 613.953 373.347 17784.6 7477.24 10307.4 6191.1 1286.14 5430.35 4877.03 823.099
internal_count=347599 69638 277961 273919 205215 80781 124434 86786 37648 68704 6857 58448 28338 4042 34079 46980 27212 3569 2663 1213 1920 1161 61847 25880 35967 21950 3930 19725 16242 2486
is_linear=0
shrinkage=0.05


Tree=23
num_leaves=31
num_cat=0
split_feature=1 1 3 1 1 3 3 1 3 3 1 1 1 1 1 1 1 1 1 1 1 1 1 1 1 1 1 1 1 1
split_gain=6001.88 2881.53 2236.13 6473.3 4167.6 2034.36 1906.23 585.647 1005.73 515.944 535.872 503.693 314.322 300.475 295.893 234.149 131.848 100.285 52.408 46.3158 45.6597 42.2563 36.0639 30.7027 30.6747 28.342 26.1658 23.7006 21.2982 19.7176
threshold=1696427712776782.8 1696427514746514.8 32.500000000000007 1696427622636238.8 1696427577948882.2 48.500000000000007 48.500000000000007 1696427749764848.2 32.500000000000007 48.500000000000007 1696427671475653.8 1696427595592425.8 1696427622636238.8 1696427554537434.2 1696427496307994.8 1696427674264796.2 1696427650085315.8 1696427731049969.8 1696427537036797.2 1696427497153690.8 1696427479402969.2 1696427645455415.2 1696427568197738.8 1696427585579317.8 1696427507110042.8 1696427695953899.2 1696427756957140.8 1696427636325007.8 1696427599380718.2 1696427658427860.2
decision_type=2 2 2 2 2 2 2 2 2 2 2 2 2 2 2 2 2 2 2 2 2 2 2 2 2 2 2 2 2 2
left_child=1 5 3 -3 6 14 -4 8 17 10 12 23 -6 18 20 21 27 -2 -8 -7 -1 -5 -15 -11 -16 -17 -9 -14 -13 -18
right_child=7 2 4 15 9 19 13 26 -10 11 -12 28 16 22 24 25 29 -19 -20 -21 -22 -23 -24 -25 -26 -27 -28 -29 -30 -31
leaf_value=0.012794954729913616 0.0041796111526189832 -0.043741475000406836 -0.04304022916184308 0.037552968093324333 -0.045887749134018455 0.034951185189727792 0.023073800315100645 -0.035356356591856208 -0.044861625329568888 -0.010815556401650234 -0.042936855284843888 -0.032576723029879913 0.019489892276319878 0.0071469952684862547 -0.010368781587418996 0.023306726659482496 -0.0024403548666429714 -0.013054750480444353 0.015226493747148063 0.028790054704981652 0.002758436352957363 0.030554415085364509 -0.0026655550601427549 -0.022313328842434824 -0.022103737687265767 0.015700551372491527 -0.04514597908479346 0.0065252440992794886 -0.044535607072098832 -0.017123849590669597
leaf_weight=1911.9187604933977 1833.3902541995049 3965.9032518863678 1601.9409992694855 3946.5305428802967 370.07913143932819 8671.3126746416092 5303.1964039504528 786.48914851248264 2647.3764090687037 1085.4371997565031 1220.6647311598063 394.99754422903061 741.43335485458374 2403.7884051650763 1450.4215593039989 3015.0845275521278 398.04501934349537 1564.2564746141434 3553.1422364860773 4705.6701201200485 2782.2464531958103 4756.0758606791496 1533.8829109221697 1248.4113091677427 903.92781047523022 2062.5141305625439 5165.4855548292398 672.03456334769726 6481.1876882761717 537.17969177663326
leaf_count=8072 8053 21676 8820 14546 1869 32218 20893 4170 14480 5162 6511 2161 3184 10371 6860 11887 1833 7482 14623 17858 12280 17914 6957 6304 4524 8467 27379 3061 35389 2595
internal_value=0 0.00573893 -0.00129212 0.0125494 -0.0102095 0.0213296 0.00837806 -0.0327192 -0.0217574 -0.030559 -0.0154154 -0.0370365 -0.00305888 0.0148162 -0.000408841 0.0287497 0.00368958 -0.00375499 0.0199255 0.0327839 0.00684628 0.0337282 0.00332461 -0.0169659 -0.0148743 0.0202171 -0.0438524 0.0133258 -0.0438486 -0.0108743
internal_weight=0 65717 45291.5 17746.1 27545.4 20425.5 14396 11997 6045.02 13149.5 3939.44 9210.03 2718.77 12794 7048.51 13780.2 2348.69 3397.65 8856.34 13377 4694.17 8702.61 3937.67 2333.85 2354.35 5077.6 5951.97 1413.47 6876.19 935.225
internal_count=347599 286035 204223 74490 129733 81812 61664 61564 30015 68069 19053 49016 12542 52844 31736 52814 10673 15535 35516 50076 20352 32460 17328 11466 11384 20354 31549 6245 37550 4428
is_linear=0
shrinkage=0.05


Tree=24
num_leaves=31
num_cat=0
split_feature=1 3 1 1 3 1 1 1 1 0 3 1 3 1 3 0 1 1 1 3 3 1 1 2 2 0 1 0 0 2
split_gain=694.588 187.767 87.3808 48.3476 47.7148 165.121 65.9014 42.7927 24.7331 20.4617 17.9607 76.3611 83.3384 98.4461 22.5163 27.7923 21.2732 37.0191 42.1869 17.3654 16.1652 14.6433 13.6736 11.3262 10.7673 10.5206 10.8577 9.31787 11.0358 9.11963
threshold=1696427762412471.8 32.500000000000007 1696427540100444.2 1696427836783803.2 31.500000000000004 1696427622636238.8 1696427601234859.8 1696427575007694.2 1696427737896615.8 744162.50000000012 51.500000000000007 1696427622636238.8 48.500000000000007 1696427617021912.8 39.500000000000007 761504.00000000012 1696427650085315.8 1696427701947001.8 1696427681853940.2 47.500000000000007 42.500000000000007 1696427711337663.8 1696427699875290.2 6369.0000000000009 6289.5000000000009 425570.00000000006 1696427810702744.2 53094.000000000007 37178.000000000007 6219.5000000000009
decision_type=2 2 2 2 2 2 2 2 2 2 2 2 2 2 2 2 2 2 2 2 2 2 2 2 2 2 2 2 2 2
left_child=2 3 20 25 5 7 19 -4 10 27 11 12 13 14 24 -16 -12 18 -18 23 -1 -7 -20 29 -8 -2 -27 28 -9 -6
right_child=1 -3 4 -5 6 21 8 9 -10 -11 16 -13 -14 -15 15 -17 17 -19 22 -21 -22 -23 -24 -25 -26 26 -28 -29 -30 -31
leaf_value=-0.0076739836126458426 -0.0075196686310587853 0.07246690618365835 0.0093920638630265191 0.070301714571454579 0.0046459621174623168 -0.01950147718909782 0.031721496777184457 0.069341155085942033 0.030400283662604652 0.099643495538097246 0.0040301863822153157 -0.0047024262870901598 -0.0098977830793549968 0.65614753266194992 0.17011294920424733 0.52713569824368445 0.024649239226128997 0.0073001929615985331 0.078492387390933185 -0.0097785551467926279 -0.017200096754879001 -0.0071882497920918087 0.2685298375447559 -0.010264920310690245 0.21485026622411088 0.011486531342562783 0.034885215873396151 0.038741567309820812 0.29715109906892351 0.042062504810366365
leaf_weight=663.08129344694316 49.1540322676301 356.50511624291539 145.512127103284 43.021831918507814 30.480732948519289 857.36043253168464 4.2862987369298953 1.8552272096276277 140.73984683677554 17.547725319862366 353.25685418583453 412.76556397229433 10.677264219149945 1.0079736039042462 4.561481075361371 0.61907535418868054 133.10910133272409 219.51394819654524 39.269330097362399 760.18363549001515 1356.1555330120027 336.11298075318336 0.96993017196655174 36.048781692050397 0.98760402761399735 184.82889472693205 67.752616921439767 99.317038049921393 0.74513996765017498 34.967107678763568
leaf_count=39327 2664 7694 8106 1045 1762 50668 177 66 6259 292 20140 23445 623 39 204 25 6712 12043 1162 44350 79263 20159 10 2075 39 10312 2931 3992 28 1987
internal_value=0 0.0470242 -0.00572939 0.0207146 -0.00110391 -0.00810649 0.00357352 0.0275984 0.0105871 0.0497742 0.00822606 0.000149819 0.0906136 0.18424 0.138741 0.212777 0.0129336 0.0209395 0.0382111 -0.00718494 -0.0140719 -0.0160338 0.0830731 0.0122406 0.0660146 0.0136444 0.017763 0.0411879 0.134621 0.0246367
internal_weight=0 701.262 5661.13 344.757 3641.9 1458.45 2183.44 264.977 1321.76 119.465 1181.02 434.905 22.1397 11.4624 10.4545 5.18056 746.119 392.862 173.348 861.68 2019.24 1193.47 40.2393 101.497 5.2739 301.736 252.582 101.917 2.60037 65.4478
internal_count=347599 24646 322953 16952 204363 83311 121052 12484 70878 4378 64619 24552 1107 484 445 229 40067 19927 7884 50174 118590 70827 1172 5824 216 15907 13243 4086 94 3749
is_linear=0
shrinkage=0.05


Tree=25
num_leaves=31
num_cat=0
split_feature=1 3 1 3 1 1 1 3 1 3 1 1 1 1 1 1 3 1 1 1 1 1 3 1 1 1 1 1 1 1
split_gain=4009.06 1567.23 749.269 616.414 1240.56 593.128 411.275 309.734 380.284 218.952 206.25 195.642 122.607 99.4039 83.2079 75.717 161.509 68.9763 57.956 56.9276 56.7542 32.5584 31.9624 31.1905 26.5868 19.9157 17.25 17.0523 16.664 16.54
threshold=1696427747649797.2 32.500000000000007 1696427551056191.2 32.500000000000007 1696427622636238.8 1696427657102780.2 1696427823197628.2 48.500000000000007 1696427701947001.8 48.500000000000007 1696427593860463.8 1696427681853940.2 1696427762412471.8 1696427699875290.2 1696427504437811.8 1696427588787144.8 48.500000000000007 1696427787396862.8 1696427683458129.8 1696427717070517.2 1696427836783803.2 1696427609827740.8 49.500000000000007 1696427671475653.8 1696427584035045.2 1696427690291335.2 1696427724780407.8 1696427576435259.8 1696427504437811.8 1696427536089276.2
decision_type=2 2 2 2 2 2 2 2 2 2 2 2 2 2 2 2 2 2 2 2 2 2 2 2 2 2 2 2 2 2
left_child=2 6 9 4 10 15 17 13 11 14 24 23 -3 -7 -1 16 27 -2 -6 -10 -8 -12 -13 -9 -4 -24 -20 -5 -11 -16
right_child=1 12 3 5 18 7 20 8 19 28 21 22 -14 -15 29 -17 -18 -19 26 -21 -22 -23 25 -25 -26 -27 -28 -29 -30 -31
leaf_value=-0.011682664477891168 0.0010409921009051594 0.047256335055152338 0.017699231867121142 0.014391702853874892 -0.020452744631594855 -0.0070341992191718236 0.039600697850046711 0.033220434630773822 0.0068547545106566812 -0.019964005789021966 0.054402286492441325 0.0061027065829596331 0.073642140832204259 0.017304346497989998 -0.0024222065621560041 0.0032791438561410747 -0.0097631812417337451 0.017731741966667165 -0.014482807922046967 0.023446788132895066 0.072239412762261909 0.08735972677035822 0.080872346434607514 0.052920279632846401 0.037156854526515015 0.10840892008229702 -0.007242652422236779 0.034773534757947373 -0.015985219315488471 0.0058799349515658945
leaf_weight=3250.8248445540667 1629.1856777220964 561.8221942037344 1000.3839741051197 406.12408556044102 4778.0230758786201 987.34686399996281 272.53360834717751 551.17262464761734 834.09352108836174 5109.3612817078829 281.18898639082909 11.680175811052321 2034.8634998947382 729.47283731400967 2212.682074688375 5305.5441478341818 3486.926575936377 998.28925417363644 2574.1981627121568 1359.7133889198303 260.49881196022034 102.16345930099487 188.43711972236633 316.19155013561249 212.9277770370245 100.77974355220795 1209.1009086295962 137.31960344314575 5426.53507424891 823.08736020326614
leaf_count=25641 12606 3013 6879 2837 37674 7639 1534 3337 6101 39908 1309 62 7694 5021 17381 39907 27354 6975 20442 9007 1045 365 836 1718 1291 385 9452 865 42923 6398
internal_value=0 0.0391527 -0.00537836 0.000187491 -0.00924616 0.0068353 0.0155064 0.0205863 0.0294098 -0.0135085 0.0312151 0.0524533 0.0679333 0.00330719 -0.00612385 -0.000645459 -0.00581177 0.00738252 -0.0167921 0.0171384 0.0555516 0.0631854 0.0871928 0.0404019 0.0211139 0.0904677 -0.0121689 0.0195419 -0.0179147 -0.000171249
internal_weight=0 5757.19 41395.3 24572.8 10158 14414.8 3160.51 5078.89 3362.07 16822.5 1596.66 1168.26 2596.69 1716.82 6286.59 9335.91 4030.37 2627.47 8561.32 2193.81 533.032 383.352 300.897 867.364 1213.31 289.217 3783.3 543.444 10535.9 3035.77
internal_count=347599 32867 314732 182481 77412 105069 22160 34106 21446 132251 9844 6338 10707 12660 49420 70963 31056 19581 67568 15108 2579 1674 1283 5055 8170 1221 29894 3702 82831 23779
is_linear=0
shrinkage=0.05


Tree=26
num_leaves=31
num_cat=0
split_feature=1 3 1 1 1 3 3 1 1 1 3 1 1 1 1 1 1 1 3 1 3 1 1 1 1 1 0 2 2 1
split_gain=1098.22 1063.7 804.816 246.557 693.651 1639.41 599.86 1402.39 708.805 213.657 472.938 178.411 173.12 121.415 121.071 117.238 108.228 86.4596 78.9201 80.4023 42.5075 1163.44 472.777 111.637 95.1607 48.2491 40.8752 37.0417 36.8768 35.7856
threshold=1696427512177842.8 48.500000000000007 1696427828518169.2 1696427622636238.8 1696427701947001.8 32.500000000000007 48.500000000000007 1696427577948882.2 1696427592110130.2 1696427802045324.2 32.500000000000007 1696427554537434.2 1696427607589271.8 1696427845232160.2 1696427490314560.8 1696427562880735.8 1696427593860463.8 1696427666178388.2 32.500000000000007 1696427836783803.2 32.500000000000007 1696427756957140.8 1696427741590430.8 1696427741590430.8 1696427765145709.8 1696427720163887.2 342442.00000000006 6223.0000000000009 6370.5000000000009 1696427724780407.8
decision_type=2 2 2 2 2 2 2 2 2 2 2 2 2 2 2 2 2 2 2 2 2 2 2 2 2 2 2 2 2 2
left_child=1 14 3 6 5 17 8 11 15 20 -11 26 -10 18 -1 -2 -9 -5 -4 -20 22 23 25 29 -23 -6 -8 -12 -29 -22
right_child=2 -3 13 4 9 -7 7 16 12 10 27 -13 -14 -15 -16 -17 -18 -19 19 -21 21 24 -24 -25 -26 -27 -28 28 -30 -31
leaf_value=-0.00077430525273384219 0.025674835278708376 -0.017162149237219534 -0.010379539711258894 -0.017776262949848132 -0.003059812682031671 0.01157355625804561 -0.01156078641534692 0.014308108065021911 -0.011815242970655084 0.012550278120881456 -0.022509724521046031 0.0027632454560020431 -0.062359122646251243 -0.056549967230683229 0.010902196337611521 0.012114638654685539 0.026893883449100042 -0.010117742176503828 -0.066629492138511853 -0.021448303210975003 0.022746764000319601 -0.015876050386207569 0.023303583919434614 0.002222144290940713 -0.045150674689152646 0.0064884191760093109 -0.0056742826560108213 -0.057764754714081296 -0.031105483014570487 0.013938960158389219
leaf_weight=4884.4906384944916 6232.8585624992847 15311.170705646276 453.78895077109337 8892.4905363619328 2619.2001110613346 9869.1099324226379 5414.317310988903 2953.2163881361485 647.52457028627396 1242.1498737335205 307.41560730338097 5180.5970420539379 229.44401907920837 458.80745196342468 4069.6607737243176 2141.6423189640045 4051.5005416274071 6293.2768107950687 172.24154514074326 229.89382326602936 3141.0844343602657 404.1636118888855 4911.0602321028709 1149.7379238307476 886.44918188452721 2673.6461374759674 6476.9008343815804 258.98400422930717 259.88566121459007 1822.2463790178299
leaf_count=16112 23405 47511 1450 27553 8592 34629 17175 10445 2109 4371 928 17328 701 1379 14202 7572 15243 19962 518 695 11550 1269 18268 3886 2661 9107 20906 777 781 6514
internal_value=0 -0.00915654 0.00299819 0.0036516 0.001226 -0.00429171 0.00690709 0.00274895 0.0177285 0.0082521 -0.00694947 -0.00498074 -0.0250392 -0.0357966 0.00453266 0.022207 0.0215877 -0.0146024 -0.0246719 -0.0408002 0.0100379 0.00715378 0.0121305 0.016261 -0.0359831 0.00176341 -0.00835453 -0.0362633 -0.044412 0.0195131
internal_weight=0 24265.3 79373.6 78058.9 44730.9 25054.9 33328 24076.5 9251.47 19676 2068.44 17071.8 876.969 1314.73 8954.15 8374.5 7004.72 15185.8 855.924 402.135 17607.6 7403.68 10203.9 6113.07 1290.61 5292.85 11891.2 826.285 518.87 4963.33
internal_count=347599 77825 269774 265732 150848 82144 114884 81097 33787 68704 6857 55409 2810 4042 30314 30977 25688 47515 2663 1213 61847 25880 35967 21950 3930 17699 38081 2486 1558 18064
is_linear=0
shrinkage=0.05


Tree=27
num_leaves=31
num_cat=0
split_feature=1 1 3 1 1 3 3 1 3 3 1 1 1 1 1 1 1 1 1 1 1 1 1 1 1 1 1 1 1 3
split_gain=5531.18 2538.63 2250.69 5674.21 3564.47 1954.86 1620.47 581.259 973.257 575.197 533.396 372.67 358.999 282.12 276.015 196.616 122.453 91.1871 48.5381 47.1596 45.98 41.7651 36.8778 35.7588 26.8877 24.4678 21.9664 21.3529 21.332 19.18
threshold=1696427712776782.8 1696427518206756.2 32.500000000000007 1696427622636238.8 1696427580905412.2 48.500000000000007 48.500000000000007 1696427749764848.2 32.500000000000007 48.500000000000007 1696427671475653.8 1696427595592425.8 1696427497987129.2 1696427555750184.8 1696427622636238.8 1696427674264796.2 1696427650085315.8 1696427731049969.8 1696427501134156.8 1696427479402969.2 1696427510476766.8 1696427569553431.8 1696427645455415.2 1696427540100444.2 1696427756957140.8 1696427695953899.2 1696427599380718.2 1696427635298458.2 1696427476029863.8 32.500000000000007
decision_type=2 2 2 2 2 2 2 2 2 2 2 2 2 2 2 2 2 2 2 2 2 2 2 2 2 2 2 2 2 2
left_child=1 5 3 -3 6 12 -4 8 17 10 14 -11 19 23 -6 22 27 -2 28 -1 -14 -15 -5 -8 29 -17 -13 -16 -7 -9
right_child=7 2 4 15 9 18 13 24 -10 11 -12 26 20 21 16 25 -18 -19 -20 -21 -22 -23 -24 -25 -26 -27 -28 -29 -30 -31
leaf_value=0.012108912161399959 0.0040810447166265027 -0.044011496500677254 -0.043512562106449056 0.034568822289150161 -0.045671780683993787 0.036125298545869343 0.020193340201521175 -0.028396210595902666 -0.044420779343748898 -0.018071395039908161 -0.042448187126879769 -0.03168880126908824 -0.012552734087790451 0.0058986031519863286 0.019456536775998522 0.021611738509434278 -0.010233507597700139 -0.012407802944962382 0.025597741715892387 0.002100598998869406 -0.027095970771431339 -0.0042777980310987956 0.028104654054358996 0.013427158104771564 -0.044709825468028382 0.014594899829270307 -0.044071700462287089 0.0071734301215931112 0.030577764486163495 -0.044774731076811007
leaf_weight=1927.8798807859421 1835.9271441102028 3574.81599368155 1451.9068951159716 4041.5595443844795 318.64457821846008 2229.8894519209862 5153.1927834451199 471.36132314801216 2538.1719066202641 1870.8872450739145 1176.7161583900452 380.06346724927425 1604.0025650411844 2421.0022203922272 691.22265909612179 3066.5050553977489 923.48360598087311 1543.3277155160904 4576.3456602096558 3022.152638182044 822.00269168615341 1727.7973127067089 4859.0405865013599 3144.0870439857244 4966.2139974087477 2088.5258935391903 6208.9491049051285 724.85188364982605 7775.0880134403706 287.93667782843113
leaf_count=8072 8053 20392 8350 14546 1642 8043 20131 2583 14480 9452 6511 2161 7781 10433 2951 11887 4428 7482 17132 13403 4461 7979 17914 12861 27379 8467 35389 3294 28355 1587
internal_value=0 0.00537571 -0.00157707 0.0122342 -0.0108735 0.0192523 0.006475 -0.0320125 -0.0210234 -0.0304841 -0.0144213 -0.0377655 -0.00172379 0.0123063 -0.00201454 0.0265394 0.00393151 -0.00344952 0.0298632 0.00599852 -0.0174804 0.00166057 0.0310399 0.0176294 -0.04337 0.0187689 -0.0433574 0.0131691 0.0318142 -0.0346072
internal_weight=0 65780.6 43823.3 17630.4 26192.8 21957.4 13898 11642.9 5917.43 12294.8 3834.92 8459.9 7376.04 12446.1 2658.2 14055.6 2339.56 3379.25 14581.3 4950.03 2426.01 4148.8 8900.6 8297.28 5725.51 5155.03 6589.01 1416.07 10005 759.298
internal_count=347599 286035 198788 73206 125582 87247 59754 61564 30015 65828 18826 47002 33717 51404 12315 52814 10673 15535 53530 21475 12242 18412 32460 32992 31549 20354 37550 6245 36398 4170
is_linear=0
shrinkage=0.05


Tree=28
num_leaves=31
num_cat=0
split_feature=1 3 1 1 3 1 1 1 3 1 3 1 3 1 1 1 1 1 1 1 1 3 0 1 3 1 3 0 0 2
split_gain=615.404 165.829 77.5004 43.3403 40.7701 156.641 55.0753 35.0549 16.2385 15.673 15.2925 14.4763 24.2519 42.5835 20.016 11.8895 11.6506 11.4968 11.1094 11.5096 12.6691 34.486 15.6238 11.2589 9.95519 8.9491 8.46254 8.25189 7.48116 18.0984
threshold=1696427754347931.2 32.500000000000007 1696427540100444.2 1696427836783803.2 31.500000000000004 1696427622636238.8 1696427590422985.8 1696427575007694.2 42.500000000000007 1696427612130416.8 50.500000000000007 1696427664887104.8 47.500000000000007 1696427701947001.8 1696427690291335.2 1696427711337663.8 1696427787396862.8 1696427701947001.8 1696427768201835.2 1696427779843595.2 1696427775471542.2 70.500000000000014 779581.00000000012 1696427791644725.2 4.5000000000000009 1696427724780407.8 49.500000000000007 430017.50000000006 354773.50000000006 6303.5000000000009
decision_type=2 2 2 2 2 2 2 2 2 2 2 2 2 2 2 2 2 2 2 2 2 2 2 2 2 2 2 2 2 2
left_child=2 3 8 16 5 7 10 -4 -1 -9 -6 -8 17 14 28 -7 -2 -13 26 20 -20 -22 -23 -21 -11 -15 -3 -18 29 -14
right_child=1 18 4 -5 6 15 11 9 -10 24 -12 12 13 25 -16 -17 27 -19 19 23 21 22 -24 -25 -26 -27 -28 -29 -30 -31
